tree
version=v4
num_class=1
num_tree_per_iteration=1
label_index=0
max_feature_idx=56
objective=regression
feature_names=signal_price ema_short ema_long atr adx center distance_ok slope_ok trend_filter_ok htf_trend_ok volatility_ok chop_ok spread_ok bars_since_last trend_direction ema_cross_event ema_spread atr_percent reclaim_state is_reclaim_signal price_vs_center cloud_width rsi hour price spread ai_score tick_count wick_lower wick_ratio wick_upper candle_size day_of_week real_volume tick_volume best_ask_vol best_bid_vol dom_pressure is_stalemate liquidity_ok volume_shock dom_imbalance spread_to_atr tick_velocity cloud_dist_atr volume_density volatility_skew absorption_ratio volatility_shock aggressor_buy_vol avg_dom_imbalance aggressor_sell_vol tick_imbalance_proxy order_imbalance_proxy close pip_scale is_simulated
feature_infos=[89329.289999999994:94492.309999999998] [89447.416474770565:93904.960336599979] [89561.056327685321:93658.099566232064] [27.0296601062946:269.49675284299144] [8.4845596666135457:69.427922944385003] [89506.745697124454:93721.829781091277] none none none none none none [0:1] none none none [0.0031380921695892999:418.84924541630602] [0.029202261649390601:0.29163834423066548] none none [-732.59297349174369:851.26552244802281] [0.0031380921695892999:418.84924541630602] [7.0993868398237794:96.240256313763396] [0:23] [89329.289999999994:94492.309999999998] none [-0.59802311658859253:259.93987042962755] none [0:399.40000000000873] [0:50] [0:292.55999999999767] [3.3999999999941792:746.94999999999709] [1:4] none [16:198] [2:14] none [-0.6470588235294118:0.59999999999999998] [0:1] [1:1] [0.15266686006492419:3.0504307906800707] [-0.6470588235294118:0.59999999999999998] none [0:0] [0.00096492992775760002:5.0759745701656867] [0.25436742423532221:21.53247072269756] none [0.25436776222967677:21.534936974196835] [0.1071445795307088:4.1495176315542643] none [-0.6470588235294118:0.59999999999999998] none [-194.99999998541841:195.99999998997544] [-196.99999495014239:196.99999324579173] [89329.289999999994:94492.309999999998] none [0:1]
tree_sizes=2606 2760 2765 2756 2767 2763 2781 2770 2797 2798 2809 2785 2796 2802 2805 2799 2800 2818 2807 2804 2818 2787 2810 2800 2786 2816 2795 2808 2813 2818

Tree=0
num_leaves=31
num_cat=0
split_feature=56 26 3 40 3 0 5 26 4 2 5 32 3 1 24 26 3 32 0 20 2 26 0 4 22 17 20 47 4 20
split_gain=304.32 233.95 122.678 102.887 73.7525 138.468 57.7484 57.395 83.0028 56.9266 86.0334 49.7687 62.4502 47.6868 42.8688 34.1417 38.9795 49.5826 31.9863 28.6316 29.5138 48.489 27.8701 25.844 25.2419 22.7381 58.0765 32.3261 22.1793 21.6318
threshold=1.0000000180025095e-35 0.61705607175827037 78.519355103110215 1.0188445517070772 35.789050649656005 90296.590000000011 92584.55650323302 64.912385431696421 19.157510551783389 92787.970121944396 92968.196135129067 2.5000000000000004 52.049053338365567 90363.443854586905 91889.980000000025 0.33974896371364599 74.418410529345422 3.5000000000000004 90079.935000000012 154.93422199787187 89818.421239111995 -0.26553665101528162 91757.485000000015 23.397194755112746 58.532686367252353 0.12121690774579862 -14.55825988147466 1.5813133330346676 17.747055332245633 -91.51985284160088
decision_type=2 2 2 2 2 2 2 2 2 2 2 2 2 2 2 2 2 2 2 2 2 2 2 2 2 2 2 10 2 2
left_child=-1 4 13 7 5 -2 -7 -4 -9 11 -11 14 -13 -3 -6 16 18 19 -14 20 -18 28 -21 -23 -8 26 27 -25 -22 -12
right_child=1 2 3 -5 9 6 24 8 -10 10 29 12 15 -15 -16 -17 17 -19 -20 22 21 23 -24 25 -26 -27 -28 -29 -30 -31
leaf_value=1.1647152647782213 1.385378782491768 1.2787583801991091 1.4162416376255711 1.245666484060389 1.1809535135201528 1.1978723337976749 1.3083873100984937 1.3966866905445161 1.270525158959078 1.2989797333927655 1.2664974272284752 1.2073156734138779 1.2059785518802266 1.1842000346043553 1.2175397641083423 1.2093291010109561 1.196353407058502 1.2036135790704936 1.2630202545972722 1.2427944326389844 1.3073323333421198 1.2132147281150731 1.2991118895562195 1.2415357988733895 1.2368182361532098 1.2257572472958518 1.2147233792676375 1.3208177542099204 1.242520049339644 1.2066959017693011
leaf_weight=189 20 24 23 34 88 43 28 22 32 63 20 257 28 30 888 115 48 124 201 59 33 129 35 20 22 106 42 36 22 62
leaf_count=189 20 24 23 34 88 43 28 22 32 63 20 257 28 30 888 115 48 124 201 59 33 129 35 20 22 106 42 36 22 62
internal_value=1.22602 1.23038 1.28804 1.31811 1.22656 1.26603 1.24036 1.3501 1.32192 1.22468 1.25504 1.22271 1.22929 1.22623 1.21424 1.23495 1.23829 1.23208 1.25605 1.23874 1.23334 1.23791 1.26376 1.23073 1.2769 1.24181 1.25917 1.2925 1.28141 1.22128
internal_weight=2843 2654 165 111 2489 113 93 77 54 2376 145 2231 1255 54 976 998 883 654 229 530 436 388 94 333 50 204 98 56 55 82
internal_count=2843 2654 165 111 2489 113 93 77 54 2376 145 2231 1255 54 976 998 883 654 229 530 436 388 94 333 50 204 98 56 55 82
is_linear=0
shrinkage=1


Tree=1
num_leaves=31
num_cat=0
split_feature=56 26 3 40 3 0 23 26 23 5 26 4 3 22 1 2 5 16 3 0 5 3 0 22 1 16 23 3 3 4
split_gain=274.649 211.139 110.717 92.8558 66.5616 124.968 55.5748 62.7345 54.8756 52.1179 51.799 74.91 51.1061 47.0087 43.0374 37.5588 61.6118 39.8239 37.4021 87.1267 41.4795 47.6877 36.1986 31.43 27.5662 45.35 26.7982 34.9648 23.9917 32.6451
threshold=1.0000000180025095e-35 0.61705607175827037 78.519355103110215 1.0188445517070772 35.789050649656005 90296.590000000011 6.5000000000000009 0.13772848993539807 5.5000000000000009 92584.55650323302 64.912385431696421 19.157510551783389 79.209785915422202 63.565089285559516 90363.443854586905 92787.970121944396 92951.670380461102 28.23469800682162 108.61432476289262 91969.675000000003 92664.740439906484 73.812216851214927 90908.365000000005 67.327528884466389 89951.540554543986 93.444185943730488 22.500000000000004 138.92935029132914 50.007460882021228 14.806954664801186
decision_type=2 2 2 2 2 2 2 2 2 2 2 2 2 2 2 2 2 2 2 2 2 2 2 2 2 2 2 2 2 2
left_child=-1 4 14 10 5 -2 7 18 -9 -7 -4 -12 -8 15 -3 17 -17 22 19 -6 21 28 -14 -10 25 -19 -15 -28 -21 -30
right_child=1 2 3 -5 6 9 12 8 23 -11 11 -13 13 26 -16 16 -18 24 -20 20 -22 -23 -24 -25 -26 -27 27 -29 29 -31
leaf_value=-0.058235764503479004 0.15139457583427429 0.050105196664420273 0.18071429055670035 0.018667895111310132 0.068724261381730586 -0.026736546039234761 -0.015344325130413426 -0.02495236888659523 0.040887767673434265 0.04833680813014507 0.16213709373365751 0.042283635956846415 0.05948344189031371 0.013203029659070812 -0.039725232251609371 0.079916618944844239 -0.0059936690652587768 0.069384508281946186 -0.0016560587616016469 -0.02027754769494225 0.083228918313980105 -0.024254806083627047 -0.0024745328699253381 -0.023291876491297176 -0.028835269318670344 -0.035818004200146317 0.093203165188983639 0.0059788192063570025 0.087984882933752881 0.021004219218978989
leaf_weight=189 20 24 23 34 97 43 824 191 65 50 22 32 29 162 30 32 60 20 150 28 20 78 126 27 242 21 27 20 21 136
leaf_count=189 20 24 23 34 97 43 824 191 65 50 22 32 29 162 30 32 60 20 150 28 20 78 126 27 242 21 27 20 21 136
internal_value=-3.37277e-10 0.00414716 0.0589212 0.0874886 0.000516095 0.0380094 -0.00126705 0.00933574 -0.00967165 0.0136255 0.117877 0.0911128 -0.00678212 0.00276491 0.000199403 -0.00515412 0.0238882 -0.0112543 0.019485 0.0278301 0.0138134 0.00853464 0.0091176 0.0220524 -0.0224121 0.0155003 0.0228467 0.0560864 0.0223594 0.0299634
internal_weight=2843 2654 165 111 2489 113 2376 813 283 93 77 54 1563 739 54 530 92 438 530 380 283 263 155 92 283 41 209 47 185 157
internal_count=2843 2654 165 111 2489 113 2376 813 283 93 77 54 1563 739 54 530 92 438 530 380 283 263 155 92 283 41 209 47 185 157
is_linear=0
shrinkage=0.05


Tree=2
num_leaves=31
num_cat=0
split_feature=26 3 40 3 0 2 5 32 2 2 17 23 5 2 31 34 1 22 1 17 2 54 2 5 26 26 5 4 16 53
split_gain=219.533 99.9219 83.8023 58.8595 109.21 57.6748 65.6565 64.6514 64.3083 52.9455 69.6969 78.8267 51.9197 48.7389 47.788 39.1821 38.8412 36.9279 36.5057 33.5359 31.5167 38.1972 29.1185 26.8072 26.4358 44.9623 23.2433 21.722 25.2169 28.6462
threshold=0.61705607175827037 78.519355103110215 1.0188445517070772 35.789050649656005 90296.590000000011 92787.970121944396 92968.196135129067 2.5000000000000004 90285.488600645578 91049.060154953317 0.079479130274474008 22.500000000000004 92584.55650323302 90143.459077439897 152.6849999999977 194.50000000000003 90363.443854586905 44.114372347644824 89787.442002065029 0.12979481232202622 92041.935787652648 92056.810000000012 91880.619222046997 90609.765962553749 0.04627656377851961 -0.070205774158239295 92605.310049244086 24.187694577018892 92.524197959011602 45.72779547761629
decision_type=2 2 2 2 2 2 2 2 2 2 2 2 2 2 2 2 2 2 2 2 2 2 2 2 2 2 2 2 2 2
left_child=3 16 14 4 -1 7 -7 17 13 19 20 24 -6 18 15 -3 -2 -5 -9 23 -11 -22 -19 -10 25 -12 -14 -20 29 -29
right_child=1 2 -4 5 12 6 -8 8 9 10 11 -13 26 -15 -16 -17 -18 22 27 -21 21 -23 -24 -25 -26 -27 -28 28 -30 -31
leaf_value=0.13434157229605176 0.047599935811012989 0.1038462214745008 0.017734501291723812 -0.029318800091697173 -0.028516829895670528 0.062883137203752992 -0.0043996674811862205 -0.030841427758180846 0.010518183000385761 0.082789063224425696 -0.022415254374776605 0.067438293541922711 0.084279372614054451 -0.026855620957557461 0.064000631700600358 0.19693368852138521 -0.03773896832950413 -0.04275121724263567 0.0009833953884505742 0.0011542394209434004 -0.037640197448093785 0.034122257673140158 -0.0067258910735560661 0.077501804154303119 -0.022432912493453975 0.042030850718729196 0.015693585326274236 0.083757425908898495 -0.01597150977700949 0.011480604771238107
leaf_weight=21 24 26 34 347 48 65 82 72 20 26 59 33 21 270 31 20 30 61 222 34 22 118 697 59 246 50 30 29 20 26
leaf_count=21 24 26 34 347 48 65 82 72 20 26 59 33 21 270 31 20 30 61 222 34 22 118 697 59 246 50 30 29 20 26
internal_value=8.68498e-11 0.0559751 0.0831141 -0.0034488 0.0307753 -0.00505431 0.0253512 -0.00690816 0.000623144 0.0114829 0.0051207 -0.00647936 0.00880673 -0.0107125 0.111983 0.144319 0.000189434 -0.0158094 0.00109963 0.0426745 0.0322341 0.0228453 -0.00962503 0.0605439 -0.0133506 0.00714718 0.0439348 0.00884291 0.0321071 0.0495902
internal_weight=2843 165 111 2678 120 2558 147 2411 1306 667 554 388 99 639 77 46 54 1105 369 113 166 140 758 79 355 109 51 297 75 55
internal_count=2843 165 111 2678 120 2558 147 2411 1306 667 554 388 99 639 77 46 54 1105 369 113 166 140 758 79 355 109 51 297 75 55
is_linear=0
shrinkage=0.05


Tree=3
num_leaves=31
num_cat=0
split_feature=56 26 4 1 0 3 0 16 23 26 23 5 3 22 17 0 5 3 2 5 16 2 22 40 1 16 20 22 3 23
split_gain=239.455 171.074 95.1096 129.589 103.311 54.332 102.384 47.0765 45.661 52.2857 47.124 42.3441 42.3347 39.2042 32.3209 71.5864 43.558 43.2323 30.6974 51.1884 34.7255 30.294 27.4185 26.3215 24.3785 39.9154 23.7705 22.3649 22.3369 21.8073
threshold=1.0000000180025095e-35 0.61705607175827037 18.318470258251445 90798.930492815198 92464.440000000017 35.789050649656005 90296.590000000011 39.918123699185891 6.5000000000000009 0.13772848993539807 5.5000000000000009 92584.55650323302 79.209785915422202 63.565089285559516 0.12391207755529167 91969.675000000003 92664.740439906484 73.812216851214927 92787.970121944396 92951.670380461102 28.23469800682162 91967.188941984321 67.327528884466389 1.0075971880393617 89951.540554543986 93.444185943730488 -91.51985284160088 58.532686367252353 101.49662358060768 22.500000000000004
decision_type=2 2 2 2 2 2 2 2 2 2 2 2 2 2 2 2 2 2 2 2 2 2 2 2 2 2 2 2 2 2
left_child=-1 5 -3 7 -5 6 -2 -4 9 14 -11 -8 -10 18 15 28 17 -17 20 -20 21 -14 -12 -9 25 -22 -21 -13 -7 -15
right_child=1 2 3 4 -6 8 11 23 12 10 22 27 13 29 -16 16 -18 -19 19 26 24 -23 -24 -25 -26 -27 -28 -29 -30 -31
leaf_value=-0.054376684452490831 0.13710777163505555 0.15539012007415295 -0.037759213713117135 0.18495487733320759 0.041267867463416069 0.077806839805382944 -0.023973879915510501 0.079814520375803111 -0.013799024962369994 -0.022909295949621704 0.038241623215950454 0.073336515309555192 0.032085989780623367 0.012322806465916658 -0.0054571504768883361 0.020408525530412492 0.075211423754692086 -0.021087400797558459 0.072776633698958912 0.038976958837592973 0.06572267858311534 -0.012168355088359045 -0.021702576808079525 0.0079098190447049483 -0.026523200068084049 -0.032975077185602414 -0.027783586240839216 0.005969402667092668 0.031673818043517793 0.051007333857581973
leaf_weight=189 20 20 39 22 29 65 43 20 824 191 65 28 74 162 116 185 25 95 32 20 20 81 27 35 242 21 40 22 44 47
leaf_count=189 20 20 39 22 29 65 43 20 824 191 65 28 74 162 116 185 25 95 32 20 20 81 27 35 242 21 40 22 44 47
internal_value=6.60799e-11 0.00387234 0.0531764 0.0390779 0.10325 0.000603894 0.0344781 0.0042609 -0.00100713 0.00860355 -0.0087489 0.0124072 -0.00600615 0.00268305 0.0178691 0.024405 0.0119756 0.00632955 -0.0045488 0.021707 -0.0100637 0.00895953 0.0206493 0.034057 -0.0204828 0.0151702 -0.00553007 0.043695 0.0591843 0.0210222
internal_weight=2843 2654 165 145 51 2489 113 94 2376 813 283 93 1563 739 530 414 305 280 530 92 438 155 92 55 283 41 60 50 109 209
internal_count=2843 2654 165 145 51 2489 113 94 2376 813 283 93 1563 739 530 414 305 280 530 92 438 155 92 55 283 41 60 50 109 209
is_linear=0
shrinkage=0.05


Tree=4
num_leaves=31
num_cat=0
split_feature=56 26 4 1 0 3 0 23 26 23 3 5 16 22 0 2 17 0 2 5 1 16 16 2 3 2 23 20 16 20
split_gain=216.108 154.732 98.7069 123.482 93.2379 48.694 92.4014 40.0297 47.1878 42.5295 40.963 38.2156 33.0007 32.486 31.713 32.9964 58.7832 31.854 25.8882 46.1975 36.3175 43.3962 32.0773 25.8696 28.3997 36.4681 29.6642 24.8151 21.473 21.4529
threshold=1.0000000180025095e-35 63.53283768805742 18.646269928473792 90798.930492815198 92464.440000000017 35.789050649656005 90296.590000000011 6.5000000000000009 0.13772848993539807 5.5000000000000009 79.209785915422202 92584.55650323302 23.384961586459788 63.565089285559516 89849.415000000023 92041.935787652648 0.11292889906868891 92569.885000000024 92787.970121944396 92951.670380461102 90223.965694757309 82.307732034839262 28.799129833625766 92426.472005543706 81.679510019420249 92149.602816629849 3.5000000000000004 45.591381521442116 23.675401169244846 -91.51985284160088
decision_type=2 2 2 2 2 2 2 2 2 2 2 2 2 2 2 2 2 2 2 2 2 2 2 2 2 2 2 2 2 2
left_child=-1 5 -3 12 -5 6 -2 8 14 -10 28 -8 -4 18 -7 16 -16 23 20 -20 21 -12 -22 24 25 -17 -27 -11 -9 -21
right_child=1 2 3 4 -6 7 11 10 9 27 13 -13 -14 -15 15 17 -18 -19 19 29 22 -23 -24 -25 -26 26 -28 -29 -30 -31
leaf_value=-0.051657848541068023 0.1302523809671402 0.15593609847128392 -0.048788964033126832 0.17570712999864058 0.039204474307339768 -0.0368736053028932 -0.022775184371790224 -0.0073599885869130429 -0.021763831234176849 0.046155368323541356 0.059645339238863337 0.041510237248614433 0.019931631951175376 0.019671440113424546 0.068091800161523788 -0.012309020528983739 0.012375570835138206 0.04269135554668383 0.069137799041345718 0.037028110101819042 0.0037316822915755472 -0.019610560030466129 -0.026297046051957929 -0.019422453296291491 -0.029882896871616445 0.061346562735496026 -0.0051402993824170989 -0.005792391712608886 -0.02435595578685773 -0.026394407348707318
leaf_weight=189 20 20 25 22 29 26 43 545 191 45 39 50 58 210 82 45 112 59 32 20 145 31 230 91 30 62 23 47 282 40
leaf_count=189 20 20 25 22 29 26 43 545 191 45 39 50 58 210 82 45 112 59 32 20 145 31 230 91 30 62 23 47 282 40
internal_value=7.8695e-11 0.00367872 0.0523216 0.0368567 0.098088 0.000682326 0.0327542 -0.00083595 0.00817337 -0.00831146 -0.00548943 0.0117869 -0.000767343 0.00299761 0.0169756 0.0197536 0.0359257 0.00963295 -0.00352289 0.0206217 -0.00851457 0.0245463 -0.0146859 0.00186225 0.0139679 0.0240873 0.043356 0.0196168 -0.0131555 -0.00525357
internal_weight=2843 2654 154 134 51 2500 113 2387 813 283 1574 93 83 747 530 504 194 310 537 92 445 70 375 251 160 130 85 92 827 60
internal_count=2843 2654 154 134 51 2500 113 2387 813 283 1574 93 83 747 530 504 194 310 537 92 445 70 375 251 160 130 85 92 827 60
is_linear=0
shrinkage=0.05


Tree=5
num_leaves=31
num_cat=0
split_feature=56 26 4 16 17 17 0 23 26 17 23 22 2 5 22 16 17 0 5 3 5 24 26 22 2 26 3 23 3 1
split_gain=195.037 139.667 79.7343 107.498 45.6117 44.6049 80.1926 39.9677 50.5058 40.5955 39.1098 36.8607 32.2897 47.188 32.1828 31.5594 29.9734 55.7357 35.7216 41.5645 26.2372 30.5931 26.791 25.1247 24.0806 22.7838 22.7601 26.8945 30.8254 27.9223
threshold=1.0000000180025095e-35 0.61705607175827037 18.318470258251445 61.86235887883975 0.1796621027551851 0.040287455944947807 90296.590000000011 6.5000000000000009 0.13772848993539807 0.081379845432954664 5.5000000000000009 63.565089285559516 92787.970121944396 92951.670380461102 54.493333159452156 28.23469800682162 0.12391207755529167 91969.675000000003 92664.740439906484 73.812216851214927 92584.55650323302 92625.070000000022 0.2546923309564591 67.327528884466389 91967.188941984321 0.27240864932537084 89.400862791829212 22.500000000000004 138.92935029132914 91248.221272120601
decision_type=2 2 2 2 2 2 2 2 2 2 2 2 2 2 2 2 2 2 2 2 2 2 2 2 2 2 2 2 2 2
left_child=-1 5 -3 -4 14 6 -2 8 16 -9 -10 12 15 -14 -5 24 17 -7 19 -19 22 -22 -8 -12 25 -11 -13 29 -29 -28
right_child=1 2 3 4 -6 7 20 9 10 11 23 26 13 -15 -16 -17 -18 18 -20 -21 21 -23 -24 -25 -26 -27 27 28 -30 -31
leaf_value=-0.049074957011237985 0.11003757282160223 0.14163158163428308 -0.020751816327511163 0.0653622107408212 0.03479427432175726 0.053978408904694908 -0.035182407753931923 -0.014137639406727473 -0.022743903599304918 0.0072129932291647228 0.03431578304080176 0.070736187696456912 0.06806210390159062 -0.004990889485149334 0.15208586201071739 -0.019678779354989729 -0.0054089098518457397 0.021297069429619505 0.069316284418106083 -0.019783101628693803 0.077920556689302131 0.010074182561840173 0.031673308712956698 -0.02397030032454775 -0.010495388906981264 0.064188236071329036 0.029129520692532104 0.08232385632064608 0.00042527267709374428 -0.015454091336348175
leaf_weight=189 24 20 54 23 48 109 43 764 184 47 64 20 35 60 20 299 116 175 25 95 24 54 23 26 84 28 62 27 20 81
leaf_count=189 24 20 54 23 48 109 43 764 184 47 64 20 35 60 20 299 116 175 25 95 24 54 23 26 84 28 62 27 20 81
internal_value=-1.01396e-10 0.00349479 0.0480437 0.035135 0.0682986 0.000541567 0.0254205 -0.00125923 0.00783982 -0.0059905 -0.00953247 0.00216731 -0.004605 0.0219234 0.105699 -0.0101076 0.0169937 0.0234261 0.0121373 0.00684294 0.0113177 0.03095 -0.0118842 0.0174776 0.007891 0.0284838 0.0200011 0.0146605 0.0474734 0.00387587
internal_weight=2843 2654 165 145 91 2489 168 2321 794 1527 274 763 553 95 43 458 520 404 295 270 144 78 66 90 159 75 210 190 47 143
internal_count=2843 2654 165 145 91 2489 168 2321 794 1527 274 763 553 95 43 458 520 404 295 270 144 78 66 90 159 75 210 190 47 143
is_linear=0
shrinkage=0.05


Tree=6
num_leaves=31
num_cat=0
split_feature=56 26 4 1 0 17 0 23 26 17 23 0 16 26 17 2 1 23 16 44 2 17 0 0 40 2 3 2 26 4
split_gain=176.021 126.998 82.3584 104.122 79.2263 39.934 72.3738 35.1091 45.5815 39.2047 35.2966 29.1353 27.7365 27.7252 61.9114 32.697 32.6363 31.8198 33.8837 27.4683 24.9639 49.7149 25.2771 23.566 28.3849 23.3877 25.9035 37.2457 21.5938 30.6804
threshold=1.0000000180025095e-35 63.53283768805742 18.646269928473792 90798.930492815198 92691.47500000002 0.040287455944947807 90296.590000000011 6.5000000000000009 0.13772848993539807 0.081379845432954664 5.5000000000000009 89849.415000000023 23.384961586459788 0.12317658588290212 0.094093717223316262 92735.519616267877 89951.540554543986 20.500000000000004 21.127325759304405 1.1965091928837568 92041.935787652648 0.11292889906868891 92569.885000000024 92577.905000000013 1.0202998662570384 92426.472005543706 81.679510019420249 92149.602816629849 0.16342329978942868 31.092582708791149
decision_type=2 2 2 2 2 2 2 2 2 2 2 2 2 2 2 2 2 2 2 2 2 2 2 2 2 2 2 2 2 2
left_child=-1 5 -3 12 -5 6 -2 8 11 -9 -10 -7 -4 15 -15 -11 -16 -18 -19 -20 21 -13 25 -8 -25 26 27 -22 -21 -30
right_child=1 2 3 4 -6 7 23 9 10 13 -12 20 -14 14 16 -17 17 18 19 28 22 -23 -24 24 -26 -27 -28 -29 29 -31
leaf_value=-0.046621208815347585 0.10453569442033768 0.14203416530042887 -0.045311924576759338 0.15558813909689587 0.030734213358826108 -0.035444718456039061 -0.015361196775403289 -0.013502459816308024 -0.021606707961156803 -0.014406150440083219 0.016603702746150601 0.062417570356188758 0.017689542700375979 0.064706451164439641 0.066391247492283575 0.038185545655362536 -0.016567075224324632 0.062219358881314593 -0.012274522032975308 0.053314882669693392 -0.012393265796191474 0.011178847704598281 0.039153478725544984 0.041428775231220898 -0.026112750815227626 -0.018461792686241953 -0.027618360122044883 0.044340900407621155 0.033048230647626853 -0.042997863533950992
leaf_weight=189 24 20 25 24 27 26 54 767 184 283 90 82 58 47 20 33 156 30 106 39 45 112 59 70 20 85 30 81 36 21
leaf_count=189 24 20 25 24 27 26 54 767 184 283 90 82 58 47 20 33 156 30 106 39 45 112 59 70 20 85 30 81 36 21
internal_value=-5.71543e-11 0.00332005 0.0473884 0.0332622 0.089489 0.000605436 0.0241495 -0.0010907 0.00744783 -0.00549876 -0.00905584 0.016144 -0.0012868 0.00246341 0.0103651 -0.00891398 0.00410516 0.000894534 0.012636 0.00527209 0.0188592 0.0328365 0.00982056 0.0107518 0.0264195 0.00263947 0.014137 0.0240787 0.0246465 0.00503125
internal_weight=2843 2654 154 134 51 2500 168 2332 794 1538 274 520 83 771 455 316 408 388 232 202 494 194 300 144 90 241 156 126 96 57
internal_count=2843 2654 154 134 51 2500 168 2332 794 1538 274 520 83 771 455 316 408 388 232 202 494 194 300 144 90 241 156 126 96 57
is_linear=0
shrinkage=0.05


Tree=7
num_leaves=31
num_cat=0
split_feature=56 26 5 1 0 17 0 23 26 3 23 16 0 22 0 3 17 0 2 4 1 24 16 2 5 22 16 5 24 26
split_gain=158.859 114.615 79.301 98.4366 69.9291 36.0404 65.3173 31.6859 41.1426 35.4601 31.5192 29.9037 26.35 24.8084 24.2288 57.7768 27.7264 24.5755 27.4532 31.2563 24.2474 24.2092 49.7928 24.9836 33.5577 22.675 22.2042 22.1581 27.0541 24.197
threshold=1.0000000180025095e-35 63.53283768805742 90281.721522461958 90798.930492815198 92464.440000000017 0.040287455944947807 90296.590000000011 6.5000000000000009 0.13699202984571454 79.722364807818479 5.5000000000000009 23.384961586459788 89849.415000000023 63.565089285559516 91969.675000000003 101.49662358060768 0.079843052656658461 92555.960000000006 92415.339597122002 26.538695453989256 92709.75323191499 90140.110000000015 70.364427121093243 92787.970121944396 92951.670380461102 67.327528884466389 16.691100707648193 92584.55650323302 92625.070000000022 0.2546923309564591
decision_type=2 2 2 2 2 2 2 2 2 2 2 2 2 2 2 2 2 2 2 2 2 2 2 2 2 2 2 2 2 2
left_child=-1 5 -3 11 -5 6 -2 8 12 -9 -10 -4 -7 21 15 -14 17 18 19 -16 -18 22 -11 26 -25 -12 -23 29 -29 -8
right_child=1 2 3 4 -6 7 27 9 10 13 25 -13 14 -15 16 -17 20 -19 -20 -21 -22 23 -24 24 -26 -27 -28 28 -30 -31
leaf_value=-0.044290148644220262 0.099308912704388297 0.13789132844656707 -0.046063740385903253 0.15007988214492798 0.033335069849573337 -0.033672482692278349 -0.033249540098531302 -0.012553878981292767 -0.020270590339859285 0.077325195901923716 0.031769809479010293 0.01818667356432839 0.071649543099826393 0.017191384918322519 0.048027602709653616 0.012207203241996468 -0.019291838502292248 0.074239783547818669 -0.017715450947483381 -0.0051878688772293655 0.035653991192579275 0.010217485962861992 -0.012498354157691615 0.059845624269219112 -0.0049209953510823351 -0.023601970785798936 -0.019045759770843024 0.072426339611411095 0.0086247274281319088 0.030287166500626052
leaf_weight=189 24 20 27 23 29 26 43 796 186 27 64 55 62 210 74 120 102 20 45 44 25 83 36 30 60 26 296 24 54 23
leaf_count=189 24 20 27 23 29 26 43 796 186 27 64 55 62 210 74 120 102 20 45 44 25 83 36 30 60 26 296 24 54 23
internal_value=7.59658e-11 0.00315405 0.045019 0.0311575 0.0849722 0.000575165 0.022942 -0.00103617 0.00707544 -0.00522382 -0.00851708 -0.00296895 0.0153834 0.00263968 0.0179758 0.0324568 0.00947406 0.021931 0.0155128 0.0281845 -0.00847573 -0.00310441 0.0259975 -0.00701361 0.0166679 0.0157735 -0.0126372 0.0102142 0.028256 -0.011108
internal_weight=2843 2654 154 134 52 2500 168 2332 794 1538 276 82 518 742 492 182 310 183 163 118 127 532 63 469 90 90 379 144 78 66
internal_count=2843 2654 154 134 52 2500 168 2332 794 1538 276 82 518 742 492 182 310 183 163 118 127 532 63 469 90 90 379 144 78 66
is_linear=0
shrinkage=0.05


Tree=8
num_leaves=31
num_cat=0
split_feature=56 26 1 1 0 52 17 0 2 5 23 26 23 20 4 21 3 0 17 1 21 22 5 54 26 40 23 23 2 20
split_gain=143.37 103.51 64.7281 90.122 63.5614 33.8121 30.2569 63.5922 25.6123 47.3565 26.1208 33.4207 28.7364 25.6687 28.8399 24.8402 23.56 45.5269 34.1099 21.9046 41.5936 20.4642 19.9977 24.4164 21.8378 19.9557 19.8544 19.3165 22.082 18.8362
threshold=1.0000000180025095e-35 0.61705607175827037 90247.611960545924 90798.930492815198 92691.47500000002 -189.75292583200289 0.040287455944947807 90296.590000000011 92787.970121944396 92968.196135129067 6.5000000000000009 0.13772848993539807 5.5000000000000009 135.84489378764707 23.263358334390471 16.432615246079411 108.61432476289262 91969.675000000003 0.081379845432954664 89951.540554543986 89.23895116933943 67.327528884466389 92584.55650323302 92625.070000000022 0.2546923309564591 0.99829669064713011 19.500000000000004 13.500000000000002 92041.935787652648 -47.497546286706843
decision_type=2 2 2 2 2 10 2 2 2 2 2 2 2 2 2 2 2 2 2 2 2 2 2 2 2 2 2 2 2 2
left_child=-1 5 -3 -4 -5 -2 7 -7 10 -10 11 16 -13 15 -15 27 17 -8 29 20 -17 -14 24 -24 -9 -25 -16 -12 -29 -19
right_child=1 2 3 4 -6 6 8 22 9 -11 13 12 21 14 26 19 -18 18 -20 -21 -22 -23 23 25 -26 -27 -28 28 -30 -31
leaf_value=-0.042075641571529328 -0.031946047612776356 0.11725414990408656 -0.0021275109757951808 0.13817185330390933 0.027530749345681185 0.099236823424049048 0.04989074080561598 -0.031587063928329669 0.053799291581037592 -0.0045313171639048246 -0.0094628643362472467 -0.019586018967385616 0.030181318399263548 -0.013821768228038876 -0.001381030883640051 0.07302582420408725 -0.0042785926753078291 0.00087141156739865746 -0.019114258029573672 -0.016386924633046286 -0.026602209200923838 -0.022421871448974486 0.068805023158589995 0.047824126012856141 0.028772808473719203 -0.015118648254257792 0.042239017287890118 0.0261298128064343 -0.0054716796354533966 0.033428876942469231
leaf_weight=189 78 24 89 25 27 23 96 43 61 81 225 181 64 69 40 20 132 72 74 668 22 26 24 20 23 34 75 118 104 116
leaf_count=189 78 24 89 25 27 23 96 43 61 81 225 181 64 69 40 20 132 72 74 668 22 26 24 20 23 34 75 118 104 116
internal_value=3.51636e-11 0.00299634 0.0413477 0.0284275 0.0807236 0.000453965 0.00150216 0.0220344 -2.58629e-05 0.0205262 -0.00141425 0.00598468 -0.00810492 -0.00561305 0.0117336 -0.00837172 0.0137771 0.0204345 0.00964136 -0.0141848 0.0208397 0.0149848 0.00970347 0.0268432 -0.0105526 0.00819349 0.0270668 0.000861563 0.0113255 0.0209601
internal_weight=2843 2654 165 141 52 2489 2411 167 2244 142 2102 761 271 1341 184 1157 490 358 262 710 42 90 144 78 66 54 115 447 222 188
internal_count=2843 2654 165 141 52 2489 2411 167 2244 142 2102 761 271 1341 184 1157 490 358 262 710 42 90 144 78 66 54 115 447 222 188
is_linear=0
shrinkage=0.05


Tree=9
num_leaves=31
num_cat=0
split_feature=56 26 4 1 0 17 0 23 26 3 23 0 16 17 26 5 17 22 0 3 17 0 1 1 4 20 45 4 26 20
split_gain=129.392 94.2817 69.3303 79.0576 59.2496 29.4006 53.2393 25.955 33.54 29.6971 25.9438 23.4204 22.8174 21.3229 36.1961 20.9391 29.541 24.7498 19.5586 49.6444 23.4786 22.6043 19.725 19.2864 25.9158 19.2228 18.5855 18.4298 24.3677 23.3457
threshold=1.0000000180025095e-35 63.53283768805742 18.646269928473792 90798.930492815198 92464.440000000017 0.040287455944947807 90296.590000000011 6.5000000000000009 0.13772848993539807 79.722364807818479 5.5000000000000009 89849.415000000023 39.918123699185891 0.094093717223316262 0.12317658588290212 91035.332832775734 0.11759821731029636 73.688660168281686 91969.675000000003 101.49662358060768 0.079843052656658461 92573.505000000019 92709.75323191499 92381.199223228192 25.067562060441364 25.285688070883158 4.4153166735747771 12.327875696761607 0.25779674947261816 6.0640102559023061
decision_type=2 2 2 2 2 2 2 2 2 2 2 2 2 2 2 2 2 2 2 2 2 2 2 2 2 2 2 2 2 2
left_child=-1 5 -3 12 -5 6 -2 8 11 27 -10 -7 -4 14 -11 16 -15 -17 19 -13 21 23 -22 24 -20 -12 -8 -9 29 -29
right_child=1 2 3 4 -6 7 26 9 10 13 25 18 -14 15 -16 17 -18 -19 20 -21 22 -23 -24 -25 -26 -27 -28 28 -30 -31
leaf_value=-0.039971859824089781 0.08965492515514295 0.12765447652898729 -0.031479778684474324 0.13872491852803664 0.029910257409310678 -0.032399958601364721 0.036298329717564311 0.010704159751046627 -0.01852346620112455 -0.016788055247385414 0.048621003233295469 0.065638525880152176 0.021262862974696834 0.065476768136024474 0.058627327113616762 -0.0092042413949183464 0.0063401904060703925 0.024483561231904934 0.044692199796006304 0.010615819178315743 -0.017635534228368974 0.070253331803251065 0.031922034144401555 -0.010188757493266497 -0.0058915491728112101 -0.0012932923990452002 -0.0026969166812486948 -0.014574088524032787 -0.025616493320746666 0.010327813075180504
leaf_weight=189 24 20 37 22 29 26 44 84 184 26 28 62 46 25 41 452 136 62 69 121 102 20 25 55 40 62 100 296 278 138
leaf_count=189 24 20 37 22 29 26 44 84 184 26 28 62 46 25 41 452 136 62 69 121 102 20 25 55 40 62 100 296 278 138
internal_value=-7.05371e-11 0.00284653 0.0408167 0.0278559 0.0768499 0.000507562 0.0207092 -0.00094779 0.0063937 -0.00473787 -0.00776319 0.0138533 -0.00224892 0.00245833 0.0293617 -0.000212076 0.0155229 -0.00514073 0.0162877 0.0292574 0.00865598 0.0200695 -0.00788011 0.0139495 0.0261294 0.0142356 0.0092183 -0.0114459 -0.0140591 -0.00665597
internal_weight=2843 2654 154 134 51 2500 168 2332 794 1538 274 520 83 742 67 675 161 514 494 183 311 184 127 164 109 90 144 796 712 434
internal_count=2843 2654 154 134 51 2500 168 2332 794 1538 274 520 83 742 67 675 161 514 494 183 311 184 127 164 109 90 144 796 712 434
is_linear=0
shrinkage=0.05


Tree=10
num_leaves=31
num_cat=0
split_feature=56 26 5 5 0 17 0 16 2 5 40 16 37 26 26 24 3 3 3 0 40 22 16 32 26 3 0 26 24 26
split_gain=116.776 85.0892 64.5523 73.579 52.0537 26.534 48.0484 25.4154 24.1638 39.3651 21.7193 31.3195 19.3805 24.7479 19.2479 27.8218 22.585 36.9538 21.3375 18.1769 23.6714 20.9098 17.5762 21.2659 23.3143 18.1299 17.99 16.2479 16.1669 15.5827
threshold=1.0000000180025095e-35 63.53283768805742 90281.721522461958 90761.754453320245 92691.47500000002 0.040287455944947807 90296.590000000011 23.384961586459788 92787.970121944396 92968.196135129067 1.1003216695046849 131.35158705050532 -1.0000000180025095e-35 0.15061542391777036 0.34572838246822363 90094.73000000001 75.732464507690324 87.916714159972273 148.81853097237195 92577.905000000013 1.0202998662570384 61.894862911667992 13.581825996947597 2.5000000000000004 -0.26277871429920191 53.480056833589138 89849.415000000023 0.33306731283664709 92501.72500000002 -0.2534870952367782
decision_type=2 2 2 2 2 2 2 2 2 2 2 2 2 2 2 2 2 2 2 2 2 2 2 2 2 2 2 2 2 2
left_child=-1 5 -3 7 -5 6 -2 -4 10 -10 14 12 -12 -14 18 -16 -17 -18 22 -8 21 -21 27 28 26 -26 -25 -7 29 -24
right_child=1 2 3 4 -6 8 19 -9 9 -11 11 -13 13 -15 15 16 17 -19 -20 20 -22 -23 23 24 25 -27 -28 -29 -30 -31
leaf_value=-0.037973266035791431 0.085172179030875372 0.12256792694330217 -0.042964268268810384 0.12478441381454469 0.024658699297449654 0.0063645713286421884 -0.014176246023702403 0.0162685045176609 0.048588069031635928 -0.0039691896258041313 -0.022486395014649524 0.071622903321100315 -0.010790472257543695 0.063386657248939507 0.044262659486848863 -0.028732797456401827 0.040640621863909675 -0.014938957892949335 -0.032832373415722566 0.059206893186016789 -0.025455246125347913 0.0037311288645563261 -0.0065090242881394398 0.00019547345943684723 -0.018506257580328218 0.0023802220389652047 0.052487055820069822 0.044684482763210936 0.00078162441075417327 -0.031735935851810844
leaf_weight=189 24 20 27 25 27 355 54 55 63 82 35 23 22 23 20 185 37 156 51 41 20 29 112 29 123 669 38 30 144 135
leaf_count=189 24 20 27 25 27 355 54 55 63 82 35 23 22 23 20 185 37 156 51 41 20 29 112 29 123 669 38 30 144 135
internal_value=-6.90896e-12 0.0027042 0.0387759 0.0262696 0.0727961 0.000482184 0.0196738 -0.00323497 -0.000900401 0.018866 -0.00221093 0.020202 0.00541849 0.0271223 -0.00331867 -0.0132088 -0.0162496 -0.00428381 -0.000984001 0.00875738 0.0225176 0.0362241 9.43417e-06 -0.00286763 0.00153233 -0.000863512 0.0298534 0.00935054 -0.012534 -0.020297
internal_weight=2843 2654 154 134 52 2500 168 82 2332 145 2187 103 80 45 2084 398 378 193 1686 144 90 70 1635 1250 859 792 67 385 391 247
internal_count=2843 2654 154 134 52 2500 168 82 2332 145 2187 103 80 45 2084 398 378 193 1686 144 90 70 1635 1250 859 792 67 385 391 247
is_linear=0
shrinkage=0.05


Tree=11
num_leaves=31
num_cat=0
split_feature=56 26 4 1 0 17 0 23 26 4 17 22 23 0 24 16 23 4 4 16 16 0 3 17 0 22 1 1 4 3
split_gain=105.39 76.793 60.13 65.6651 48.7594 23.9469 43.3637 21.6316 29.4274 25.3698 22.8863 22.6276 22.548 20.9644 19.5528 38.18 21.072 21.8136 19.4061 19.2977 19.0414 17.9674 43.1527 21.637 19.4477 17.7052 17.8296 17.2576 23.5616 16.9015
threshold=1.0000000180025095e-35 63.53283768805742 18.646269928473792 90798.930492815198 92464.440000000017 0.040287455944947807 90296.590000000011 6.5000000000000009 0.13699202984571454 10.210590282772907 0.081379845432954664 63.565089285559516 5.5000000000000009 89849.415000000023 90140.110000000015 70.364427121093243 12.500000000000002 46.37720049801348 31.511534868296071 16.691100707648193 39.918123699185891 91969.675000000003 101.49662358060768 0.079843052656658461 92555.960000000006 67.327528884466389 90088.172166427947 92381.199223228192 25.067562060441364 89.400862791829212
decision_type=2 2 2 2 2 2 2 2 2 2 2 2 2 2 2 2 2 2 2 2 2 2 2 2 2 2 2 2 2 2
left_child=-1 5 -3 20 -5 6 -2 8 13 -9 18 14 -10 -7 15 -12 17 -16 -11 -18 -4 22 -15 24 27 26 -14 28 -23 -13
right_child=1 2 3 4 -6 7 -8 9 12 10 11 29 25 21 16 -17 19 -19 -20 -21 -22 23 -24 -25 -26 -27 -28 -29 -30 -31
leaf_value=-0.036074602761596596 0.080913563383122292 0.11770804837346077 -0.029372744186705838 0.12554945403879339 0.026836548636442633 -0.030883404589705888 0.0083195135760534972 0.05026454961016065 -0.017281269124597664 -0.0087409969533808404 0.065530321667236949 0.058820428820326925 -0.0016527467760546453 0.061527074573020785 0.063904312141239636 -0.012317760076580777 0.0094333971349481981 -0.006798984777803223 -0.037115047176396757 -0.016300495633223496 0.018808580653579987 0.042326842780238481 0.010155475596548058 -0.0079924390526620436 0.065401137340813875 -0.02158912021236924 0.051362164244055757 -0.0096390064416283922 -0.0062945778362261942 0.010473358973568464
leaf_weight=189 24 20 37 22 29 26 144 21 186 693 28 20 29 62 20 36 92 24 66 350 46 69 120 127 20 26 35 55 39 188
leaf_count=189 24 20 37 22 29 26 144 21 186 693 28 20 29 62 20 36 92 24 66 350 46 69 120 127 20 26 35 55 39 188
internal_value=-5.27227e-11 0.00256899 0.0368371 0.0247668 0.0694186 0.000458075 0.0186901 -0.000855381 0.00584683 -0.00431543 -0.00507099 0.00107443 -0.00734017 0.0128731 -0.00423815 0.0217408 -0.00765924 0.0253389 -0.0112083 -0.0109441 -0.00266984 0.0151854 0.0276557 0.0078642 0.0188685 0.0132048 0.0273398 0.013159 0.0247691 0.0151221
internal_weight=2843 2654 154 134 51 2500 168 2332 794 1538 1517 758 276 518 550 64 486 44 759 442 83 492 182 310 183 90 64 163 108 208
internal_count=2843 2654 154 134 51 2500 168 2332 794 1538 1517 758 276 518 550 64 486 44 759 442 83 492 182 310 183 90 64 163 108 208
is_linear=0
shrinkage=0.05


Tree=12
num_leaves=31
num_cat=0
split_feature=56 26 1 1 0 52 17 0 44 4 23 26 23 16 0 40 22 0 44 23 5 1 40 16 44 17 20 23 52 48
split_gain=95.1148 69.3329 51.4376 61.8637 42.615 25.9796 20.1587 42.9542 17.839 18.9494 18.7601 21.4739 20.7027 17.1742 16.4046 21.3635 18.8711 15.5298 15.3181 14.6104 14.0088 13.7997 16.4161 16.2921 12.8748 18.6527 19.1083 17.5255 14.7052 23.8464
threshold=1.0000000180025095e-35 0.61705607175827037 90247.611960545924 90798.930492815198 92691.47500000002 -189.75292583200289 0.040287455944947807 90296.590000000011 1.8838198336582579 9.7609053945142783 6.5000000000000009 0.13772848993539807 5.5000000000000009 25.022534273035792 92577.905000000013 1.0202998662570384 61.894862911667992 89849.415000000023 0.9302507782807139 15.500000000000002 90064.024503433597 89916.294557106929 1.160679804753987 16.432615246079411 3.9332192954631848 0.066001287350411664 -241.87166442741082 8.5000000000000018 135.81081409862239 1.0468521560666229
decision_type=2 2 2 2 2 10 2 2 2 2 2 2 2 2 2 2 2 2 2 2 2 2 2 2 2 2 2 2 10 2
left_child=-1 5 -3 19 -5 -2 7 -7 9 -8 11 17 -13 -14 -9 16 -16 -11 -15 -4 -19 -12 23 -23 25 27 -27 -10 29 -28
right_child=1 2 3 4 -6 6 8 14 24 10 21 12 13 18 15 -17 -18 20 -20 -21 -22 22 -24 -25 -26 26 28 -29 -30 -31
leaf_value=-0.034270872845851556 -0.028040628890112902 0.101494552854759 0.031312527855017994 0.11267825472354889 0.022083936472147431 0.081487945564415146 0.040592175034376295 -0.013883409938878483 0.015837318908112744 -0.028658061183017232 0.02323611244941369 -0.017539055076024563 0.043411904182285077 0.02166995996107849 0.055830573608599054 -0.024598458971595391 0.0031285971258606378 0.053344026385318669 -0.034347053293300712 -0.014963901864195411 0.011375509521400713 -0.00055607683786167389 0.021351740659423631 -0.012858574995319144 -0.027998685464262964 -0.0002940215219400431 0.017297348291391419 -0.033499307987383674 0.0021941923329399692 0.06172871750915937
leaf_weight=189 78 24 23 25 27 23 26 54 36 23 39 164 30 26 41 20 29 21 23 66 374 433 49 711 20 76 63 36 36 58
leaf_count=189 78 24 23 25 27 23 26 54 36 23 39 164 30 26 41 20 29 21 23 66 374 433 49 711 20 76 63 36 36 58
internal_value=-5.4164e-12 0.00244054 0.0338283 0.0223106 0.0656389 0.000359796 0.0012786 0.0180379 3.13588e-05 -0.00180327 -0.00238556 0.00440986 -0.00740992 0.0136176 0.00790354 0.0209757 0.0339969 0.0112812 -0.00462374 -0.00300482 0.0136067 -0.00603148 -0.00698826 -0.00820212 0.0108641 0.0134125 0.020286 -0.00883099 0.0302483 0.038595
internal_weight=2843 2654 165 141 52 2489 2411 167 2244 1919 1893 661 243 79 144 90 70 418 49 89 395 1232 1193 1144 325 305 233 72 157 121
internal_count=2843 2654 165 141 52 2489 2411 167 2244 1919 1893 661 243 79 144 90 70 418 49 89 395 1232 1193 1144 325 305 233 72 157 121
is_linear=0
shrinkage=0.05


Tree=13
num_leaves=31
num_cat=0
split_feature=56 26 5 16 40 17 0 2 1 23 23 22 26 3 2 24 1 1 16 23 17 45 28 17 40 37 16 26 24 5
split_gain=85.8411 63.1516 52.6385 56.48 19.8175 19.5257 35.317 20.7672 33.417 20.5895 23.6386 32.3531 22.5602 21.901 31.1187 21.8593 23.7296 18.1609 45.7781 17.1018 16.9288 16.0478 16.3846 15.4896 15.1714 24.5706 16.4455 14.6557 13.709 13.6403
threshold=1.0000000180025095e-35 63.53283768805742 90281.721522461958 39.918123699185891 1.0139023668112732 0.040287455944947807 90296.590000000011 92787.970121944396 92964.702496707367 6.5000000000000009 22.500000000000004 58.194544471276075 0.048368487507104853 108.61432476289262 92041.935787652648 92056.810000000012 92400.941795124134 89916.294557106929 57.980771129491302 5.5000000000000009 0.075552379030608116 4.4153166735747771 2.5450000000055302 0.14545822313444359 1.1003216695046849 -1.0000000180025095e-35 16.432615246079411 64.912385431696421 90127.460000000006 92559.091883526926
decision_type=2 2 2 2 2 2 2 2 2 2 2 2 2 2 2 2 2 2 2 2 2 2 2 2 2 2 2 2 2 2
left_child=-1 5 -3 -4 27 6 -2 9 -9 12 17 -12 13 14 -7 -16 20 18 -11 29 -17 -8 -23 -13 26 -26 28 -5 -19 -14
right_child=1 2 3 4 -6 7 21 8 -10 10 11 23 19 -15 15 16 -18 24 -20 -21 -22 22 -24 -25 25 -27 -28 -29 -30 -31
leaf_value=-0.032557328983589456 0.073021674746026596 0.10905989321880044 -0.031457449495792392 0.082323833789224879 0.014700528568500888 0.042857252552662081 0.032671789528632707 0.046940694820007373 -0.002055712732026118 0.081227506995201121 -0.017784421463661337 0.067315465073672032 -0.013501197473019172 -0.0039313760778504963 -0.03891062259420075 0.040675826513996496 -0.031776779265650971 0.02513172612054318 -0.014105102915645524 0.014638052824116551 -0.0024554408554519928 0.025274667527639506 -0.017767444853462391 0.010876511000096798 -0.019754647508671043 0.038108089224023874 -0.014176683707584896 0.031571052432060244 -0.0049108728213321587 0.018531177401248562
leaf_weight=189 24 20 36 33 40 104 44 58 87 20 34 31 265 121 22 65 22 42 34 97 35 33 67 20 32 43 766 25 396 38
leaf_count=189 24 20 36 33 40 104 44 58 87 20 34 31 265 121 22 65 22 42 34 97 35 33 67 20 32 43 766 25 396 38
internal_value=-4.45361e-11 0.00231851 0.0333942 0.0221009 0.0417753 0.000404249 0.0168674 -0.000781776 0.0175429 -0.00199672 -0.00556939 0.0199958 0.00459113 0.0135077 0.0220162 0.00696434 0.0152369 -0.00719958 0.0212033 -0.00363435 0.0255799 0.00750836 -0.00356355 0.0451825 -0.00839876 0.01342 -0.0097579 0.0604476 -0.00203008 -0.00948394
internal_weight=2843 2654 154 134 98 2500 168 2332 145 2187 1418 85 769 369 248 144 122 1333 54 400 100 144 100 51 1279 75 1204 58 438 303
internal_count=2843 2654 154 134 98 2500 168 2332 145 2187 1418 85 769 369 248 144 122 1333 54 400 100 144 100 51 1279 75 1204 58 438 303
is_linear=0
shrinkage=0.05


Tree=14
num_leaves=31
num_cat=0
split_feature=56 26 4 1 24 17 24 2 1 23 40 23 26 4 24 1 3 24 21 21 17 26 20 21 45 28 40 37 4 20
split_gain=77.4716 56.9943 50.9789 52.6723 38.9346 17.622 31.8736 18.7424 30.1589 18.582 21.6384 21.3338 23.5558 19.6839 19.1913 40.5471 26.8295 16.4833 45.2521 14.6981 14.6209 17.6722 17.4183 16.5027 14.4831 14.7871 13.4014 22.1738 16.4862 14.9745
threshold=1.0000000180025095e-35 63.53283768805742 18.646269928473792 90798.930492815198 92064.395000000004 0.040287455944947807 90315.970000000016 92787.970121944396 92964.702496707367 6.5000000000000009 1.0228460344443233 22.500000000000004 -0.20959565788507453 41.167986075348345 91973.395000000019 90088.172166427947 99.045487451477427 89996.10000000002 57.980771129491302 51.363443393941431 0.081379845432954664 0.25703229010105139 -70.189601697268841 14.935282191866316 4.4153166735747771 2.5450000000055302 1.1003216695046849 -1.0000000180025095e-35 31.511534868296071 -86.84403109098254
decision_type=2 2 2 2 2 2 2 2 2 2 2 2 2 2 2 2 2 2 2 2 2 2 2 2 2 2 2 2 2 2
left_child=-1 5 -3 19 -5 6 -2 9 -9 10 13 17 -13 14 15 -7 -17 18 -11 -4 21 22 -16 -23 -8 -26 28 -28 -19 -30
right_child=1 2 3 4 -6 7 24 8 -10 11 -12 12 -14 -15 20 16 -18 26 -20 -21 -22 23 -24 -25 25 -27 27 -29 29 -31
leaf_value=-0.030929462729938448 0.069370591205855217 0.10618784856051207 -0.02329734989752372 0.11281765656811851 0.024050446772016586 -0.0051496520276915862 0.031038200190629472 0.04459366036322096 -0.0019529275101376699 0.074007777351400128 0.044612724965554663 -0.026954497751735508 0.03407346574676922 -0.034542148831464788 -0.014253283700063117 0.05905698365913551 0.013541562859292911 -0.0074081044341622136 -0.014009051988832653 0.01893467189450013 -0.013187734349873026 0.011618562243305722 0.022313333106195106 -0.031588224018467413 0.024010935470913399 -0.016879072681385606 -0.020545513450258204 0.034165642197932243 0.0037568118299047154 -0.036977220041636415
leaf_weight=189 24 20 45 21 30 123 44 58 87 23 32 21 64 34 42 61 69 1072 40 38 173 39 145 51 33 67 31 46 30 91
leaf_count=189 24 20 45 21 30 123 44 58 87 23 32 21 64 34 42 61 69 1072 40 38 173 39 145 51 33 67 31 46 30 91
internal_value=-4.22267e-11 0.00220259 0.0317245 0.0206106 0.0606017 0.000384036 0.016024 -0.000742688 0.0166657 -0.00189688 0.00436158 -0.00529092 0.018996 0.0026139 0.00441092 0.0154286 0.0348988 -0.0068396 0.0181241 -0.00396221 -0.00178346 0.00533906 0.0141005 -0.0128653 0.00713294 -0.00338537 -0.00807795 0.0121391 -0.00938283 -0.0268779
internal_weight=2843 2654 154 134 51 2500 168 2332 145 2187 769 1418 85 737 703 253 130 1333 63 83 450 277 187 90 144 100 1270 77 1193 121
internal_count=2843 2654 154 134 51 2500 168 2332 145 2187 769 1418 85 737 703 253 130 1333 63 83 450 277 187 90 144 100 1270 77 1193 121
is_linear=0
shrinkage=0.05


Tree=15
num_leaves=31
num_cat=0
split_feature=26 1 1 0 1 4 20 2 26 32 17 22 2 2 2 17 22 21 4 53 20 17 2 1 2 4 26 26 0 5
split_gain=59.6184 42.8245 48.9011 33.4874 21.4611 28.8892 27.2376 26.8806 26.4063 23.7888 40.9527 21.2436 20.4726 40.8988 28.7359 24.8891 19.9444 19.7583 19.0797 21.4309 18.4959 17.7651 17.547 19.3087 30.009 17.3754 13.6542 19.0369 13.3107 22.1899
threshold=0.61705607175827037 90247.611960545924 90798.930492815198 92691.47500000002 92578.869495636856 10.847308586293869 -123.10105938336486 92663.896326247326 0.28024774789810186 2.5000000000000004 0.039681859011588862 53.16615154762615 90285.488600645578 91027.944248060419 90149.756449237699 0.075552379030608116 41.477658565368692 92.524197959011602 23.999074950873759 45.72779547761629 183.8026156433597 0.13217993717609514 92415.339597122002 92164.373540797314 92041.935787652648 15.288400911092376 0.042805770412087406 -0.069580279290676034 92483.320000000022 92522.78103662371
decision_type=2 2 2 2 2 2 2 2 2 2 2 2 2 2 2 2 2 2 2 2 2 2 2 2 2 2 2 2 2 2
left_child=4 -2 -3 -4 9 -6 -7 8 16 11 -11 -1 14 21 17 22 -8 18 -12 -20 26 -14 23 24 -15 -13 27 -17 -27 -30
right_child=1 2 3 -5 5 6 7 -9 -10 10 12 25 13 15 -16 20 -18 -19 19 -21 -22 -23 -24 -25 -26 28 -28 -29 29 -31
leaf_value=-0.016377783679621134 0.090911586272219819 -0.0038467639952563166 0.098881644725799564 0.018573304079473021 0.055324115306138989 0.038647261891819301 -0.012268834041529581 -0.015001226126906615 -0.022870584064059788 0.068128988824107437 0.00023078824510794151 0.01696602472383529 0.047539073990255198 0.05294342184296022 -0.019864739869295281 -0.010530393410332595 0.028484153299156087 -0.024591027709345025 0.058218922153772681 0.0028649922977719046 0.029842085839482026 0.0013693720981446578 -0.011117423379695729 0.055835629366338263 -0.016768514290206919 -0.014928872222443844 -0.01697379192145888 0.031460366997776962 0.028899578820422014 -0.023328284129048839
leaf_weight=541 24 89 25 27 30 52 38 168 45 22 251 100 74 26 258 79 143 60 34 36 32 29 38 40 38 186 231 41 53 33
leaf_count=541 24 89 25 27 30 52 38 168 45 22 251 100 74 26 258 79 143 60 34 36 32 29 38 40 38 186 231 41 53 33
internal_value=-1.0733e-10 0.0291699 0.0186607 0.0571831 -0.00179725 0.00782987 0.00463519 0.000146284 0.0114064 -0.00387832 0.000495462 -0.0100533 -0.000678916 0.00573227 -0.00697974 8.05015e-05 0.0199283 0.00174554 0.00666826 0.0297512 -0.00654837 0.0345398 0.0179598 0.0285841 0.011552 -0.000855708 -0.00986602 0.00381645 -0.00740782 0.00885865
internal_weight=2843 165 141 52 2678 476 446 394 226 2202 1289 913 1267 628 639 525 181 381 321 70 383 103 142 104 64 372 351 120 272 86
internal_count=2843 165 141 52 2678 476 446 394 226 2202 1289 913 1267 628 639 525 181 381 321 70 383 103 142 104 64 372 351 120 272 86
is_linear=0
shrinkage=0.05


Tree=16
num_leaves=31
num_cat=0
split_feature=56 26 4 16 17 17 0 17 26 0 44 22 4 0 40 22 4 20 23 26 41 26 26 0 16 23 26 16 0 1
split_gain=67.23 46.7079 44.6241 45.448 20.1378 14.5855 26.4479 14.7671 18.9284 21.3124 17.506 14.2995 13.8854 13.2089 18.331 15.9064 12.7113 17.6732 15.1921 17.1108 12.0377 12.0149 29.6885 17.0562 14.1995 21.693 12.2204 16.3556 11.2474 15.3013
threshold=1.0000000180025095e-35 63.53283768805742 18.646269928473792 51.363443393941431 0.1796621027551851 0.040287455944947807 90296.590000000011 0.057716640347325009 -0.27491588890552515 89849.415000000023 1.8838198336582579 53.861423345542079 11.056901806127248 92577.905000000013 1.0202998662570384 61.894862911667992 12.975142186723788 -33.234721351273372 4.5000000000000009 0.13772848993539807 -0.13142857142857137 0.2575422078371048 0.012913397513329901 92620.455000000016 14.935282191866316 8.5000000000000018 -0.25415396690368647 20.183911861207481 90092.200000000012 92029.749269055974
decision_type=2 2 2 2 2 2 2 2 2 2 2 2 2 2 2 2 2 2 2 2 2 2 2 2 2 2 2 2 2 2
left_child=-1 5 -3 -4 11 6 -2 12 9 -9 16 -5 -7 -8 15 -15 17 -10 19 28 -6 22 23 26 -24 -26 -14 -28 -18 -30
right_child=1 2 3 4 20 7 13 8 10 -11 -12 -13 21 14 -16 -17 18 -19 -20 -21 -22 -23 24 -25 25 -27 27 -29 29 -31
leaf_value=-0.028812623102828939 0.063228893586589646 0.098445012681186203 -0.022571866462628046 0.036796769434991092 0.045252640321850779 0.023543517716119396 -0.01301463380869892 -0.0027012191160961435 0.047486821908889143 0.058061564893972489 0.012068768819813962 0.094604506790637977 -0.025720900600481402 0.050372379250461008 -0.023950599087402227 0.0019869638374075296 -0.025319845415651798 0.0036507590950743576 -0.007164714159089914 -0.012541453436256234 -0.0063437684654043276 -0.017922672571148723 0.060545425303280359 0.030465421461584891 0.03796999116748339 -0.0256908733073784 0.029244384587067986 -0.016019909913472932 0.027345782330444268 0.0041336428021260443
leaf_weight=189 24 20 45 23 20 34 54 27 29 31 283 20 128 41 20 29 21 111 822 112 26 236 20 22 32 23 29 64 111 197
leaf_count=189 24 20 45 23 20 34 54 27 29 31 283 20 128 41 20 29 21 111 822 112 26 236 20 22 32 23 29 64 111 197
internal_value=-6.56313e-12 0.00205184 0.0287773 0.0183791 0.0390846 0.000405556 0.0146344 -0.000619508 0.00169079 0.0297754 0.000724655 0.0636841 -0.00747183 0.00653533 0.0182653 0.030327 -0.00156357 0.0127311 -0.0031481 0.00433866 0.0160895 -0.0093753 -0.00303197 -0.0115194 0.0244674 0.0113482 -0.0156989 -0.00190524 0.0100851 0.0124991
internal_weight=2843 2654 154 134 89 2500 168 2332 1744 58 1686 43 588 144 90 70 1403 140 1263 441 46 554 318 243 75 55 221 93 329 308
internal_count=2843 2654 154 134 89 2500 168 2332 1744 58 1686 43 588 144 90 70 1403 140 1263 441 46 554 318 243 75 55 221 93 329 308
is_linear=0
shrinkage=0.05


Tree=17
num_leaves=31
num_cat=0
split_feature=56 26 4 16 17 1 4 20 26 3 16 26 26 26 17 0 31 47 22 40 32 22 30 26 17 22 23 44 0 26
split_gain=60.6751 42.1539 40.2733 41.0169 18.1744 13.8127 24.1104 24.4377 16.6947 21.086 15.4255 24.0214 28.0279 27.7986 22.1384 19.549 18.8154 14.1039 12.9053 12.5066 12.3421 13.0701 13.8591 14.3016 16.1283 16.0222 14.2306 13.1605 12.4338 12.3796
threshold=1.0000000180025095e-35 63.53283768805742 18.646269928473792 51.363443393941431 0.1796621027551851 92578.869495636856 10.847308586293869 -123.10105938336486 0.27955417335033422 127.3790201201293 13.581825996947597 0.34540662169456487 -0.25637920200824732 -0.32322071492671961 0.042261203826613504 90211.335000000021 55.584999999999134 3.2431837074657421 53.861423345542079 1.0180595808214787 2.5000000000000004 22.412862897051244 67.519999999996813 0.049974292516708305 0.12391207755529167 54.891738291244259 6.5000000000000009 0.84978200393419046 91969.675000000003 0.34383997321128845
decision_type=2 2 2 2 2 2 2 2 2 2 2 2 2 2 2 2 2 8 2 2 2 2 2 2 2 2 2 2 2 2
left_child=-1 5 -3 -4 18 10 -7 -8 9 19 11 12 13 -2 -14 -13 -12 -16 -5 -9 29 -22 23 24 26 -26 28 -25 -23 -18
right_child=1 2 3 4 -6 6 7 8 -10 -11 16 15 14 -15 17 -17 20 -19 -20 -21 21 22 -24 27 25 -27 -28 -29 -30 -31
leaf_value=-0.0273719917214106 0.036505578777619771 0.093522761873900906 -0.021443272602433963 0.034956930043256805 0.015284980550084426 0.051521261235078178 0.037687802150407262 0.021181884070947059 -0.013889814342110186 -0.020167844412991635 -0.01164446206957861 0.031363718062639233 0.057067242155180255 -0.029791074561694587 0.025943259286708133 -0.022879485460473414 -0.015255788241316064 0.0033281763797481608 0.089874281659722333 -0.011672890819609165 -0.027246786706382409 0.042312230225149045 0.037053753525921794 -0.016210537966311216 -0.010497388584783428 0.036508863012899052 -0.0083798897960646584 0.0047872815491718148 0.01291625316653933 0.0049110682630756249
leaf_weight=189 21 20 45 23 46 30 51 168 128 52 519 20 34 64 134 98 208 142 20 35 32 74 33 126 103 22 33 183 70 120
leaf_count=189 21 20 45 23 46 30 51 168 128 52 519 20 34 64 134 98 208 142 20 35 32 74 33 126 103 22 33 183 70 120
internal_value=5.34321e-12 0.00194925 0.0273384 0.0174601 0.0371304 0.000385278 0.00817047 0.00517387 0.000844337 0.0082403 -0.00138895 0.00610986 0.0120235 -0.0134119 0.0189977 -0.0136857 -0.00391481 0.014308 0.0604999 0.0155173 8.08925e-05 0.00394244 0.00549222 0.00378759 0.0115254 -0.00222429 0.0212356 -0.00377494 0.0280225 -0.00787767
internal_weight=2843 2654 154 134 89 2500 464 434 383 255 2036 513 395 85 310 118 1523 276 43 203 1004 676 644 611 302 125 177 309 144 328
internal_count=2843 2654 154 134 89 2500 464 434 383 255 2036 513 395 85 310 118 1523 276 43 203 1004 676 644 611 302 125 177 309 144 328
is_linear=0
shrinkage=0.05


Tree=18
num_leaves=31
num_cat=0
split_feature=56 26 1 1 0 52 2 5 3 23 22 17 0 17 20 45 28 23 23 26 3 2 24 1 16 48 17 1 16 53
split_gain=54.7593 38.1221 37.5373 39.4539 26.2179 19.6709 11.9069 24.8651 14.137 15.6797 18.0615 13.8926 25.0286 13.6949 13.0573 12.1631 12.2589 11.6893 11.6407 14.4394 17.4712 21.0405 18.4959 18.5622 14.452 13.6729 13.0726 12.5706 35.9737 11.5067
threshold=1.0000000180025095e-35 0.61705607175827037 90247.611960545924 90798.930492815198 92691.47500000002 -189.75292583200289 92787.970121944396 92968.196135129067 192.44077155303162 22.500000000000004 58.194544471276075 0.040287455944947807 90296.590000000011 0.14545822313444359 -77.667037929875619 4.4153166735747771 2.5450000000055302 15.500000000000002 6.5000000000000009 0.048368487507104853 108.61432476289262 92041.935787652648 92056.810000000012 92400.941795124134 3.71523290895728 1.353093923022844 0.075552379030608116 89916.294557106929 70.364427121093243 169.78982878536223
decision_type=2 2 2 2 2 10 2 2 2 2 2 2 2 2 2 2 2 2 2 2 2 2 2 2 2 2 2 2 2 2
left_child=-1 5 -3 17 -5 -2 8 -8 9 11 -11 12 -7 -12 -9 -14 -17 -4 19 20 21 -13 -23 26 -21 -26 -24 28 -20 -29
right_child=1 2 3 4 -6 6 7 14 -10 10 13 18 15 -15 -16 16 -18 -19 27 24 -22 22 23 -25 25 -27 -28 29 -30 -31
leaf_value=-0.026003392821266538 -0.024403847045957661 0.082930886403967952 0.025766006533218467 0.086784898400306704 0.015725921742894031 0.062327515835995266 0.039264164060415302 0.030929902382194997 -0.025047407551082198 -0.010902884101065305 0.061114383104347414 0.03572574479197993 0.02806502346118743 0.0080455758050084116 -0.014879383058287204 0.021463315324349839 -0.015767341631172754 -0.015626700516176328 0.066785021774146872 0.037511305670653076 -0.004974656077086902 -0.03608605644919656 0.03599322190078405 -0.028981653201792926 -0.0092495569921457084 0.016779925589604925 -0.0019085944337504251 -0.0070349788822915184 -0.015745527555625288 0.0088622814455447951
leaf_weight=189 78 24 23 25 27 23 61 21 54 26 31 103 44 20 60 33 67 66 23 21 117 22 65 21 317 60 35 1028 31 128
leaf_count=189 78 24 23 25 27 23 61 21 54 26 31 103 44 20 60 33 67 66 23 21 117 22 65 21 317 60 35 1028 31 128
internal_value=-3.88249e-11 0.00185179 0.0251262 0.0152871 0.0498889 0.000308888 0.00110839 0.0151541 0.000229371 0.000845599 0.0230128 4.72499e-05 0.0138938 0.0403031 -0.0030029 0.00615791 -0.00348122 -0.00492971 -0.00112595 0.0037193 0.010931 0.0184959 0.00608567 0.0137533 -0.00285823 -0.00510693 0.0227276 -0.00417326 0.0194064 -0.00527473
internal_weight=2843 2654 165 141 52 2489 2411 142 2269 2215 77 2138 167 51 81 144 100 89 1971 761 363 246 143 121 398 377 100 1210 54 1156
internal_count=2843 2654 165 141 52 2489 2411 142 2269 2215 77 2138 167 51 81 144 100 89 1971 761 363 246 143 121 398 377 100 1210 54 1156
is_linear=0
shrinkage=0.05


Tree=19
num_leaves=31
num_cat=0
split_feature=56 26 5 16 5 0 1 1 20 2 26 2 5 40 38 44 44 16 3 16 52 48 1 23 37 34 16 28 3 45
split_gain=49.4203 34.6973 38.2391 35.8626 13.137 27.8857 15.3181 12.0144 18.7034 21.0872 27.8412 16.9109 21.9338 14.2585 14.8044 17.6815 15.1287 13.8177 13.6077 14.829 13.1679 12.6825 12.4015 20.1936 14.6608 13.0319 20.1812 15.1102 14.0185 18.0306
threshold=1.0000000180025095e-35 63.53283768805742 90281.721522461958 32.288286140307314 90836.592319747724 92464.440000000017 90400.051024692439 92578.869495636856 -108.83697385825216 92663.896326247326 0.28024774789810186 92787.970121944396 92968.196135129067 1.0160747441184819 1.0000000180025095e-35 0.92257921254453024 3.0258839845939542 2.5961616062985757 53.05658081789894 141.76954604843505 -123.68851910914123 0.88700075599509065 92222.318834767924 2.5000000000000004 0.47017543859649125 191.50000000000003 108.44655189803014 6.860000000000583 105.64773010777803 2.5870467623597073
decision_type=2 2 2 2 2 2 2 2 2 2 2 2 2 2 10 2 2 2 2 2 10 2 2 2 2 2 2 2 2 2
left_child=-1 7 -3 -4 6 -6 -5 13 21 10 -10 -11 -13 17 16 -16 -15 20 -19 22 -2 -9 23 -20 25 -25 27 28 29 -27
right_child=1 2 3 4 5 -7 -8 8 9 11 -12 12 -14 14 15 -17 -18 18 19 -21 -22 -23 -24 24 -26 26 -28 -29 -30 -31
leaf_value=-0.024703222623577825 -0.019440408656373621 0.08928489518948482 -0.029192750780459714 0.045239174188602543 0.094159330129623409 0.017415251570015118 -0.010439331606030465 0.059557208639604078 0.023277984209243586 -0.025762398433871569 -0.020742031154740187 0.032814171661933261 -0.013407095542854883 -0.0020849049835237848 0.043294205914975875 -0.003609528741799295 0.036139854403405357 -0.012175860583717141 0.031418905469278495 -0.027697089759973238 0.02679083023651211 0.010631045684791528 -0.0071294445784690352 -0.011462374595989691 0.037163957208395007 0.055207872113516167 -0.035977855401820157 0.00071517805042125963 -0.006899467061157339 0.011051086105406284
leaf_weight=189 20 20 34 21 20 29 30 27 178 80 45 42 66 241 54 32 29 408 60 52 67 26 426 188 27 43 29 278 32 50
leaf_count=189 20 20 34 21 20 29 30 27 178 80 45 42 66 241 54 32 29 408 60 52 67 26 426 188 27 43 29 278 32 50
internal_value=6.05263e-14 0.0017592 0.0247936 0.015168 0.0302507 0.0487394 0.0124871 0.000340277 0.00760103 0.00399617 0.014395 -0.00833864 0.00456784 -0.00131443 0.00777521 0.0258417 0.00202072 -0.00324057 -0.00430027 -0.00158868 0.016163 0.0355557 -0.000390412 0.00367016 0.00109687 -0.000473798 0.00430827 0.00720727 0.0216457 0.0314677
internal_weight=2843 2654 154 134 100 49 51 2500 464 411 223 188 108 2036 356 86 270 1680 1593 1185 87 53 1133 707 647 620 432 403 125 93
internal_count=2843 2654 154 134 100 49 51 2500 464 411 223 188 108 2036 356 86 270 1680 1593 1185 87 53 1133 707 647 620 432 403 125 93
is_linear=0
shrinkage=0.05


Tree=20
num_leaves=31
num_cat=0
split_feature=56 26 5 16 48 26 53 17 24 17 26 24 44 4 26 26 1 24 26 4 20 23 23 23 26 20 44 40 22 16
split_gain=44.6018 31.3143 34.5108 32.366 12.6515 12.6505 13.0234 11.1777 19.9685 11.108 15.6142 18.5261 14.0927 11.2859 10.6837 12.565 11.6031 14.6924 9.76929 9.73148 14.1357 12.1663 11.2575 12.9478 14.4825 25.9274 16.6093 16.4903 12.8222 11.4668
threshold=1.0000000180025095e-35 63.53283768805742 90281.721522461958 32.288286140307314 1.3742667542693734 65.253509775549304 80.653257939716156 0.040287455944947807 90315.970000000016 0.057716640347325009 -0.27491588890552515 89849.415000000023 1.8838198336582579 11.056901806127248 -0.32053245604038233 0.28024774789810186 92607.280981156495 92594.825000000012 0.35192827880382543 12.975142186723788 -33.234721351273372 6.5000000000000009 9.5000000000000018 12.500000000000002 0.15061542391777036 -25.382018381658558 0.82039750447705451 1.1003216695046849 38.255832707319215 63.563016732177182
decision_type=2 2 2 2 2 2 2 2 2 2 2 2 2 2 2 2 2 2 2 2 2 2 2 2 2 2 2 2 2 2
left_child=-1 7 -3 -4 5 -5 -7 8 -2 13 11 -11 19 -9 -10 16 17 -16 -14 20 -12 -21 -23 29 28 26 -26 -27 -25 -24
right_child=1 2 3 4 -6 6 -8 9 14 10 12 -13 18 -15 15 -17 -18 -19 -20 21 -22 22 23 24 25 27 -28 -29 -30 -31
leaf_value=-0.023468061903166394 0.055003885280651359 0.084820650964975361 -0.027733111951281045 0.058842485447071102 -0.0047488342970609665 0.047087003625929359 -0.0099731079256162054 0.021444638547323206 -0.015844104523066341 -0.0033420684023035899 0.042089774575212908 0.053309708160738795 0.007902502085524522 -0.0082331935095513367 0.012856286964737451 -0.020174154426370348 0.0002534317078463959 0.06771723038476446 0.041248160274699332 0.0027909848910510644 0.0028856659312271053 -0.032574599817758655 0.035020657684654004 -0.034637684178435144 0.0093294730884427163 -0.011818644850782985 0.060209850837355076 0.030682871893048289 -0.0098420734551769723 -0.010426465162764425
leaf_weight=189 24 20 34 38 22 20 20 34 41 27 29 31 259 554 26 21 33 23 24 540 111 41 35 72 53 262 23 25 189 23
leaf_count=189 24 20 34 38 22 20 20 34 41 27 29 31 259 554 26 21 33 23 24 540 111 41 35 72 53 262 23 25 189 23
internal_value=1.36915e-11 0.00167124 0.0235539 0.0144096 0.0287382 0.0381832 0.0185569 0.000323263 0.0127795 -0.000574096 0.00142963 0.0269373 0.000552144 -0.00651713 0.00574207 0.0143346 0.0231722 0.0386073 0.0107304 -0.00150092 0.0110065 -0.00288733 -0.0071284 -0.00559864 -0.00769902 -0.00124001 0.0247275 -0.00811642 -0.0166822 0.0169985
internal_weight=2843 2654 154 134 100 78 40 2500 168 2332 1744 58 1686 588 144 103 82 49 283 1403 140 1263 723 682 624 363 76 287 261 58
internal_count=2843 2654 154 134 100 78 40 2500 168 2332 1744 58 1686 588 144 103 82 49 283 1403 140 1263 723 682 624 363 76 287 261 58
is_linear=0
shrinkage=0.05


Tree=21
num_leaves=31
num_cat=0
split_feature=56 26 5 1 0 16 1 1 26 3 24 2 5 34 16 26 26 26 26 17 20 23 26 17 5 2 20 0 0 5
split_gain=40.2531 28.2612 31.146 30.1079 21.5076 12.4698 13.5345 10.3794 16.7281 14.6588 14.276 13.2869 27.4201 13.4909 12.8508 20.1896 25.1952 22.657 17.5355 16.393 15.1574 16.7351 20.6863 22.0113 19.4142 15.6491 14.8698 13.2903 18.8953 13.1547
threshold=1.0000000180025095e-35 63.53283768805742 90281.721522461958 90798.930492815198 92040.570000000022 23.384961586459788 90400.051024692439 92578.869495636856 0.2572267353534699 38.289845863687567 92620.390000000014 92787.970121944396 93592.290900937282 185.50000000000003 13.581825996947597 0.34540662169456487 -0.25637920200824732 -0.32322071492671961 0.35432271659374243 0.042261203826613504 139.04061572506205 6.5000000000000009 0.048368487507104853 0.12391207755529167 92018.395126766627 92136.111948889782 -173.47950824414568 90060.505000000019 90756.265000000029 89991.757106633231
decision_type=2 2 2 2 2 2 2 2 2 2 2 2 2 2 2 2 2 2 2 2 2 2 2 2 2 2 2 2 2 2
left_child=-1 7 -3 5 -5 -4 -7 14 9 -9 -10 13 -13 -12 15 16 17 -2 -17 -18 21 22 23 24 26 -26 -16 -25 -29 -23
right_child=1 2 3 4 -6 6 -8 8 10 -11 11 12 -14 -15 20 18 19 -19 -20 -21 -22 29 -24 27 25 -27 -28 28 -30 -31
leaf_value=-0.022294658524964855 0.031984495548974902 0.080579616054892556 -0.033012953294113419 0.082520479531515215 0.016984919578798354 0.033735478158902238 -0.015879399555602244 0.042689768343073566 0.031246155887842183 0.010204898781504171 0.019037392539903525 0.055992709313120163 -0.01800460371399118 -0.025985237820581958 0.0014403506253774349 -0.025305843971692388 0.050406621160971769 -0.027867803936533167 0.016555338209339729 0.013611856681981008 0.010871787165738701 0.015370340463011823 -0.0089947233302683852 -0.036526285394123108 -0.026062331288572285 0.014646480113388503 0.045245957183406543 0.02922485958251855 -0.027018126774263303 -0.01194813290656915
leaf_weight=189 21 20 27 21 31 27 28 41 25 227 20 21 31 99 26 82 34 64 36 276 163 47 282 33 31 99 76 32 28 706
leaf_count=189 21 20 27 21 31 27 28 41 25 227 20 21 31 99 26 82 34 64 36 276 163 47 282 33 31 99 76 32 28 706
internal_value=-7.16605e-12 0.00158768 0.0223762 0.0136892 0.0434512 -0.00518433 0.00847699 0.0003071 0.00705573 0.0151746 -0.00404557 -0.00920518 0.0118789 -0.0184184 -0.0012309 0.00561354 0.011035 -0.0130808 -0.0125346 0.0176474 -0.00353635 -0.0052632 0.000914365 0.00951241 0.0177509 0.00493899 0.0340798 -0.0110396 0.00297813 -0.010243
internal_weight=2843 2654 154 134 52 82 55 2500 464 268 196 171 52 119 2036 513 395 85 118 310 1523 1360 607 325 232 130 102 93 60 753
internal_count=2843 2654 154 134 52 82 55 2500 464 268 196 171 52 119 2036 513 395 85 118 310 1523 1360 607 325 232 130 102 93 60 753
is_linear=0
shrinkage=0.05


Tree=22
num_leaves=31
num_cat=0
split_feature=56 26 4 16 52 40 26 17 0 45 28 2 24 40 4 44 4 37 4 4 16 1 2 26 17 44 20 2 3 31
split_gain=36.3284 25.5228 29.4033 35.4781 16.6407 16.205 11.3245 8.56893 19.2632 9.96311 9.89506 9.62025 20.1058 12.9963 17.1225 17.6528 14.2208 15.4656 10.9683 12.211 17.3939 12.0332 12.5494 12.7039 11.9948 11.8832 11.8179 11.3383 16.18 10.8182
threshold=1.0000000180025095e-35 0.61705607175827037 18.318470258251445 51.363443393941431 -189.75292583200289 1.0208554822145437 64.912385431696421 0.040287455944947807 90296.590000000011 4.4153166735747771 2.5450000000055302 92787.970121944396 92896.965000000011 1.0325855574305105 32.15588259038897 1.170077633827826 19.157510551783389 -0.43921568627450974 41.167986075348345 23.397194755112746 129.8320558924911 89916.294557106929 90285.488600645578 0.13942606002092364 0.12391207755529167 1.9596832064307945 159.45535949585047 90149.756449237699 67.517531954916493 54.580000000009029
decision_type=2 2 2 2 10 2 2 2 2 2 2 2 2 2 2 2 2 2 2 2 2 2 2 2 2 2 2 2 2 2
left_child=-1 4 -3 -4 -2 6 -5 8 -6 -10 -11 13 -13 18 15 16 17 -15 19 24 21 -21 25 -24 29 27 -25 28 -23 -9
right_child=1 2 3 5 7 -7 -8 11 9 10 -12 12 -14 14 -16 -17 -18 -19 -20 20 -22 22 23 26 -26 -27 -28 -29 -30 -31
leaf_value=-0.021179925457195003 -0.022483918605408132 0.07738442316651345 -0.023000141177722751 0.062180899123887759 0.054398532746278719 -4.9804655774947135e-05 0.020842332057654858 -0.0074643218511482702 0.024948284498614984 0.018808137941541098 -0.014640993772269184 0.045659866343651503 0.0020033589955941538 -0.0028661640117997708 0.041852912477947569 -0.014705647129772438 -0.0066423397045582535 0.047170615798615395 -0.018957780972941891 0.044624998770831599 -0.023611319194338759 0.033217989102653833 0.018013036716967645 -0.0067859533133741937 -0.018404894211878207 0.027284078216180209 0.030798777043819427 -0.029678338762830228 -0.02675978175618432 0.0024970479875315813
leaf_weight=189 78 20 47 37 23 31 30 524 44 33 67 35 107 23 37 72 40 47 91 21 49 23 226 128 129 20 25 57 22 568
leaf_count=189 78 20 47 37 23 31 30 524 44 33 67 35 107 23 37 72 40 47 91 21 49 23 226 128 129 20 25 57 22 568
internal_value=-7.03352e-11 0.00150829 0.0205521 0.0127132 0.000245844 0.029841 0.0436711 0.00098119 0.0119079 0.00512116 -0.00360278 0.00016802 0.0127638 -0.000682882 0.0108455 0.00454174 0.01714 0.03073 -0.00202367 -0.00116374 0.0048718 0.0075455 0.00599127 0.010481 -0.00398625 -0.00795644 -0.000644658 -0.0148663 0.00389552 -0.00228295
internal_weight=2843 2654 165 145 2489 98 67 2411 167 144 100 2244 142 2102 219 182 110 70 1883 1792 571 522 501 379 1221 122 153 102 45 1092
internal_count=2843 2654 165 145 2489 98 67 2411 167 144 100 2244 142 2102 219 182 110 70 1883 1792 571 522 501 379 1221 122 153 102 45 1092
is_linear=0
shrinkage=0.05


Tree=23
num_leaves=31
num_cat=0
split_feature=56 26 5 2 0 16 1 26 20 23 5 2 17 22 5 23 47 3 17 1 2 1 16 3 22 23 26 2 40 17
split_gain=32.7864 23.3713 27.1979 25.9341 19.788 10.3073 11.599 8.8927 22.5347 15.5672 56.2917 11.9093 11.6002 11.3081 18.2651 22.0785 16.8228 16.0051 14.6851 16.9333 13.4246 22.7496 20.991 17.4203 18.2336 15.3378 13.5032 13.4236 13.0439 12.3719
threshold=1.0000000180025095e-35 63.53283768805742 90281.721522461958 90741.863495777667 92040.570000000022 23.384961586459788 90400.051024692439 0.34603440761566168 -23.668406048501421 17.500000000000004 92302.282435759189 92787.970121944396 0.2029582602294098 40.028125443799006 92682.942399502281 18.500000000000004 5.0139940196247457 104.3467470831136 0.091338017540767008 91023.018359530994 92663.896326247326 92651.649465465467 13.581825996947597 106.51471489391395 54.317287391314686 19.500000000000004 0.34383997321128845 92881.193674464113 1.0440330859902487 0.069037029386109963
decision_type=2 2 2 2 2 2 2 2 2 2 2 2 2 2 2 2 8 2 2 2 2 2 2 2 2 2 2 2 2 2
left_child=-1 7 -3 5 -5 -4 -7 13 -9 -10 -11 -12 -13 14 15 16 17 18 -2 -20 21 22 25 26 -25 29 -24 -22 -19 -15
right_child=1 2 3 4 -6 6 -8 8 9 10 11 12 -14 20 -16 -17 -18 28 19 -21 27 -23 23 24 -26 -27 -28 -29 -30 -31
leaf_value=-0.020120929220996838 0.0015131723289898143 0.074727114886045456 -0.030398195430084513 0.07905605111271144 0.015264917351305486 0.03079514304796855 -0.014744822966769853 0.020906012608302812 -0.019239220802150417 0.054335034817555229 -0.026290614860382207 0.03266820653918244 -0.020539016141556204 0.016035798681901529 0.025193516777030064 -0.035568262830423983 -0.019703406871146509 -0.020935068665338414 0.057594754739568155 0.0081553392891967023 -0.027741355784533045 0.0369113882817328 -0.0060428683715720542 -0.0021179907452610748 0.025233120596138921 0.050668782396958427 0.032188657034809394 0.0087512150539883551 0.022488437184975261 -0.0052111620726322553
leaf_weight=189 188 20 27 20 31 27 29 66 224 38 82 21 20 287 49 59 118 98 29 43 63 55 613 126 118 26 24 42 21 90
leaf_count=189 188 20 27 20 31 27 29 66 224 38 82 21 20 287 49 59 118 98 29 43 63 55 613 126 118 26 24 42 21 90
internal_value=2.85776e-11 0.00143288 0.0203376 0.0122198 0.040281 -0.00502268 0.00721195 0.000268345 -0.00608788 -0.0107154 0.00114381 -0.0152893 0.00671346 0.0016674 -0.00407111 -0.00665019 -0.00321726 0.00191563 0.00886694 0.0280684 0.00407169 0.00542171 0.00407286 -0.000250975 0.0111092 0.0135252 -0.00460243 -0.0131443 -0.0132721 0.0109636
internal_weight=2843 2654 154 134 51 83 56 2500 451 385 161 123 41 2049 605 556 497 379 260 72 1444 1339 1284 881 244 403 637 105 119 377
internal_count=2843 2654 154 134 51 83 56 2500 451 385 161 123 41 2049 605 556 497 379 260 72 1444 1339 1284 881 244 403 637 105 119 377
is_linear=0
shrinkage=0.05


Tree=24
num_leaves=31
num_cat=0
split_feature=56 26 4 16 45 1 52 3 4 26 5 24 2 26 16 5 26 3 4 4 37 1 24 20 3 5 31 3 26 22
split_gain=29.5897 21.0926 29.2306 25.4847 11.6235 10.9475 8.38586 9.51392 7.29064 13.5309 12.1083 21.4082 14.7728 24.6924 11.9 19.5742 18.547 21.5108 17.0896 19.9489 16.91 16.5263 20.0848 15.1046 11.8945 15.7964 11.3398 10.4407 11.2325 9.96956
threshold=1.0000000180025095e-35 63.53283768805742 18.646269928473792 51.363443393941431 1.014149791434958 90850.360381943741 -189.75292583200289 79.722364807818479 12.975142186723788 0.34572838246822363 92028.268078828012 91998.340000000011 92787.970121944396 0.05333711020648476 13.581825996947597 92593.612019499516 -0.2534870952367782 39.263967411593946 16.61578458298963 19.326906866148516 -1.0000000180025095e-35 92651.649465465467 92964.830000000002 135.84489378764707 66.063890555910646 92677.608394767012 33.384999999994768 109.02165409670319 0.13616789132356641 39.483554680922062
decision_type=2 2 2 2 2 2 10 2 2 2 2 2 2 2 2 2 2 2 2 2 2 2 2 2 2 2 2 2 2 2
left_child=-1 6 -3 -4 -5 -6 7 -2 10 14 11 -8 13 29 15 16 18 -18 -10 -20 -19 23 24 26 25 -23 -16 28 -25 -12
right_child=1 2 3 4 5 -7 8 -9 9 -11 12 -13 -14 -15 21 -17 17 20 19 -21 -22 22 -24 27 -26 -27 -28 -29 -30 -31
leaf_value=-0.019114882960205987 -0.024682123284583215 0.075706078791990872 -0.019760213022430737 -0.0051233875819227913 0.016852457027005798 0.057279175947504972 0.010602638228227955 0.014825821379199626 -0.024607388397797626 -0.009406599883171593 -0.016844967035231768 0.068663807511329653 0.032265305383638906 -0.027555341588532817 -0.017992225414621574 -0.014629119916079457 0.070200969482010059 -0.0044274404408121163 0.055632047457620508 -0.011981663160258905 0.028280456809161771 0.031876295588670243 -0.018913758681579074 -0.0290752812604686 0.041192014067401667 -0.022812791508824929 -0.0024882297344329275 0.0312777731385009 0.013505903937088294 0.017709617137544507
leaf_weight=189 64 20 45 22 34 33 77 20 47 340 27 20 33 70 134 68 22 58 20 24 124 31 33 21 58 23 984 51 59 92
leaf_count=189 64 20 45 22 34 33 77 20 47 340 27 20 33 70 134 68 22 58 20 24 124 31 33 21 58 23 984 51 59 92
internal_value=4.95471e-12 0.00136123 0.0193207 0.010905 0.0264099 0.0367641 0.000254928 -0.0152755 0.000794892 -0.000276382 0.00783709 0.022574 0.00139798 -0.00399155 0.00149042 0.00955416 0.0151286 0.023502 -0.00364249 0.0187518 0.0178571 -0.000609389 0.0153686 -0.00246433 0.0254697 0.0085828 -0.00434649 0.0135987 0.00232834 0.0098695
internal_weight=2843 2654 154 134 89 67 2500 84 2416 2097 319 97 222 189 1757 363 295 204 91 44 182 1394 145 1249 112 54 1118 131 80 119
internal_count=2843 2654 154 134 89 67 2500 84 2416 2097 319 97 222 189 1757 363 295 204 91 44 182 1394 145 1249 112 54 1118 131 80 119
is_linear=0
shrinkage=0.05


Tree=25
num_leaves=31
num_cat=0
split_feature=26 4 16 3 52 1 4 20 2 26 2 40 4 4 22 24 26 3 37 0 45 4 23 26 40 4 16 26 53 26
split_gain=22.3586 20.9936 29.5328 15.0695 12.18 8.86736 16.575 15.9608 16.8075 15.4305 12.2425 11.5414 17.791 13.0614 11.1501 11.9407 11.1132 19.8401 12.9319 9.95899 9.36837 9.16068 12.5488 16.2211 13.4339 12.2957 14.5486 10.8019 10.2744 10.0751
threshold=0.53426662087440502 15.883428115708005 61.86235887883975 147.27607392765324 -189.75292583200289 92578.869495636856 10.847308586293869 -123.10105938336486 92663.896326247326 0.28024774789810186 92578.532311095696 1.0160747441184819 16.768328626993981 29.702262695788551 47.401142893636411 92050.430000000008 -0.25637920200824732 34.814199815786615 0.43921568627450985 89791.795000000013 2.6429820105189994 41.167986075348345 6.5000000000000009 0.048368487507104853 1.0041839341492287 29.431178632578071 4.1808373175437819 0.14791755378246307 76.747347048137854 -0.25262126326560969
decision_type=2 2 2 2 10 2 2 2 2 2 2 2 2 2 2 2 2 2 2 2 2 2 2 2 2 2 2 2 2 2
left_child=4 -2 -3 -4 -1 11 -7 -8 9 10 -9 16 14 -14 -13 -16 -6 -18 19 -19 -20 22 23 24 -21 26 -25 -27 -26 -24
right_child=1 2 3 -5 5 6 7 8 -10 -11 -12 12 13 -15 15 -17 17 18 20 21 -22 -23 29 25 28 27 -28 -29 -30 -31
leaf_value=-0.019947827500540631 0.049614243151154369 -0.017697799996687816 0.057643804226622547 0.013492422548177488 -0.011256311871271119 0.041555609231193863 0.030058067624590231 0.048444710586530465 -0.01217147793379679 -0.017827422692525116 0.010101441596338087 0.0027482692985550355 -0.0071209174037996526 0.01904985116173824 0.058391171472612774 0.014483069830263654 0.047862094417214396 0.027799166105687619 0.044956140398331318 0.02282508566093288 0.0055785502746320244 -0.029291570096143655 0.0041196119196579926 0.030768650793470444 -0.014359474614872759 -0.0036553258227335441 -0.013747358439707369 0.037100666894673791 0.023985119383782151 -0.010935033503868005
leaf_weight=84 38 65 27 68 379 30 49 24 168 44 157 38 196 63 32 30 20 25 23 133 44 35 140 20 58 37 223 29 25 539
leaf_count=84 38 65 27 68 379 30 49 24 168 44 157 38 196 63 32 30 20 25 23 133 44 35 140 20 58 37 223 29 25 539
internal_value=1.63915e-11 0.0162063 0.00827194 0.0260407 -0.00121318 -0.000598686 0.00559089 0.00314984 -0.000205129 0.00872975 0.0151856 -0.00199719 0.00616124 -0.000755055 0.0240744 0.0371453 -0.00369018 -0.00156763 -0.00231038 -0.00344507 0.0190962 -0.0040755 -0.00334247 0.00246267 0.0129746 -0.00488549 -0.0100835 0.0142526 -0.0028099 -0.00783098
internal_weight=2843 198 160 95 2645 2561 472 442 393 225 181 2089 359 259 100 62 1730 1351 1331 1264 67 1239 1204 525 216 309 243 66 83 679
internal_count=2843 198 160 95 2645 2561 472 442 393 225 181 2089 359 259 100 62 1730 1351 1331 1264 67 1239 1204 525 216 309 243 66 83 679
is_linear=0
shrinkage=0.05


Tree=26
num_leaves=31
num_cat=0
split_feature=56 26 4 2 0 3 5 17 0 5 5 26 53 20 26 24 23 22 26 23 0 16 20 30 4 44 23 20 22 16
split_gain=25.6947 17.8503 25.556 21.7446 15.2008 8.96073 9.23846 7.29257 14.4869 8.72169 15.991 12.8391 9.07978 8.31326 27.885 20.9573 14.4038 13.3752 14.4045 21.1496 39.7278 13.0263 12.9798 12.7117 12.5537 15.3465 10.5093 10.0333 9.73951 8.83137
threshold=1.0000000180025095e-35 63.53283768805742 18.646269928473792 90672.585815004859 92731.375000000015 112.92696848630446 90414.332676092672 0.040287455944947807 90296.590000000011 92584.55650323302 92605.310049244086 0.2546923309564591 -29.837498898852733 -117.59054871242391 0.25090818107128149 92397.760000000024 16.500000000000004 37.347980452141535 0.19189056754112244 19.500000000000004 91139.280000000013 97.811564025489602 -36.049466600590598 78.894999999996813 31.855306383303887 2.1258436178719502 19.500000000000004 16.037573421265751 31.69256922219385 107.06151527412131
decision_type=2 2 2 2 2 2 2 2 2 2 2 2 2 2 2 2 2 2 2 2 2 2 2 2 2 2 2 2 2 2
left_child=-1 7 -3 5 -5 6 -4 8 -2 11 -11 -10 -12 14 15 16 21 26 23 22 -21 28 -20 -19 25 27 -15 -22 -9 -24
right_child=1 2 3 4 -6 -7 -8 13 9 10 12 -13 -14 17 -16 -17 -18 18 19 20 24 -23 29 -25 -26 -27 -28 -29 -30 -31
leaf_value=-0.017812416974514252 0.046276848856359722 0.070512228794395934 0.023883571072171133 0.056432615022640679 0.0024424743076617069 -0.02823025123526653 -0.019987587034702301 0.03765551383392169 -0.025187908520185671 0.048600118279457094 -0.020220060625837911 0.021093973331153395 0.021177726575674918 -0.0084360542628486215 0.058909950451925402 0.036381501560099422 -0.023047831258736551 0.0033090039077145758 0.020028063481220524 0.072167704707902416 0.022692388908762951 -0.0069878510731671535 -0.0093747495517293288 0.042658941802524386 -0.035385625408962368 0.047399407420307405 -0.038676851801574236 -0.011103843837710363 0.0023191964683624412 -0.043133408442699875
leaf_weight=189 24 20 30 32 22 30 20 39 43 25 27 23 26 222 24 40 64 905 37 23 32 105 618 21 20 20 33 70 39 20
leaf_count=189 24 20 30 32 22 30 20 39 43 25 27 23 26 222 24 40 64 905 37 23 32 105 618 21 20 20 33 70 39 20
internal_value=-2.20608e-12 0.00126848 0.0177901 0.00992109 0.0344366 -0.0066269 0.00633511 0.000250751 0.010312 0.0043178 0.015637 -0.00905937 8.82878e-05 -0.00047407 0.0071361 0.00280658 -0.00263066 -0.00164516 -9.95009e-05 -0.00484072 0.0112062 0.00450978 -0.0087633 0.00420139 0.00133213 0.00735144 -0.0123496 -0.000501104 0.0199874 -0.010433
internal_weight=2843 2654 154 134 54 80 50 2500 168 144 78 66 53 2332 311 287 247 2021 1766 840 165 183 675 926 142 122 255 102 78 638
internal_count=2843 2654 154 134 54 80 50 2500 168 144 78 66 53 2332 311 287 247 2021 1766 840 165 183 675 926 142 122 255 102 78 638
is_linear=0
shrinkage=0.05


Tree=27
num_leaves=31
num_cat=0
split_feature=56 26 5 2 0 16 1 30 52 26 20 23 5 2 22 5 23 47 3 4 4 16 2 1 16 2 23 26 17 23
split_gain=23.1895 16.1099 23.0856 19.6506 16.0542 7.52729 10.2228 6.73704 11.0393 7.55589 18.0049 12.302 40.6058 9.00313 7.77081 13.7784 18.2549 14.6076 10.7703 12.223 16.9372 9.87146 9.39998 18.6888 16.4365 12.0127 10.7052 13.7407 13.7884 22.8534
threshold=1.0000000180025095e-35 63.53283768805742 90281.721522461958 90741.863495777667 92691.47500000002 23.384961586459788 90400.051024692439 66.049999999995649 -1.0000000180025095e-35 0.34645093977451324 -23.668406048501421 17.500000000000004 92302.282435759189 92787.970121944396 40.028125443799006 92682.942399502281 18.500000000000004 5.0139940196247457 104.3467470831136 22.223877953898018 25.726972042505484 43.833636514271426 92663.896326247326 92651.649465465467 13.581825996947597 92881.193674464113 19.500000000000004 0.28024774789810186 0.069037029386109963 4.5000000000000009
decision_type=2 2 2 2 2 2 2 2 8 2 2 2 2 2 2 2 2 8 2 2 2 2 2 2 2 2 2 2 2 2
left_child=-1 7 -3 5 -5 -4 -7 9 -9 14 -11 -12 -13 -14 15 16 17 18 19 21 -21 -2 23 24 26 -24 27 28 29 -16
right_child=1 2 3 4 -6 6 -8 8 -10 10 11 12 13 -15 22 -17 -18 -19 -20 20 -22 -23 25 -25 -26 -27 -28 -29 -30 -31
leaf_value=-0.016921795991362718 -0.008407232814427951 0.067009737901389602 -0.027272537847359973 0.063602649040209749 0.0073993389391236843 0.027008003217202647 -0.015745209931829495 -0.0021466283108262968 0.033666970036350767 0.018694898333223003 -0.018802402247006241 0.047278057334811559 -0.02372594032365876 0.0058919659570643781 0.069256568191173887 0.02406361356985233 -0.033024806110188369 -0.018135610986027426 -0.011370976471475194 0.054952750190232817 0.0094083466216627713 0.028872403715338026 -0.025895069545755784 0.032653675837950279 -0.0010147330272057325 0.0097500826781376816 0.042895466119050984 -0.010052527668265004 -0.0063777041713227378 0.014631184853381619
leaf_weight=189 115 20 27 24 27 27 29 48 39 61 202 35 79 38 21 41 56 118 105 26 95 21 60 55 863 39 25 75 66 217
leaf_count=189 115 20 27 24 27 27 29 48 39 61 202 35 79 38 21 41 56 118 105 26 95 21 60 55 863 39 25 75 66 217
internal_value=-1.40155e-11 0.00120506 0.0169006 0.00942158 0.033848 -0.00558739 0.00486795 0.000238213 0.0139077 -0.000254638 -0.00639378 -0.010717 2.8141e-05 -0.0141064 0.00102051 -0.00387293 -0.00600987 -0.00285813 0.00212182 0.00763445 0.0191947 -0.00265082 0.0030075 0.00412036 0.00288174 -0.011853 0.0112051 0.00911474 0.0138435 0.0194511
internal_weight=2843 2654 154 134 51 83 56 2500 87 2413 415 354 152 117 1998 577 536 480 362 257 121 136 1421 1322 1267 99 404 379 304 238
internal_count=2843 2654 154 134 51 83 56 2500 87 2413 415 354 152 117 1998 577 536 480 362 257 121 136 1421 1322 1267 99 404 379 304 238
is_linear=0
shrinkage=0.05


Tree=28
num_leaves=31
num_cat=0
split_feature=56 26 4 47 16 53 3 32 2 44 44 45 26 17 3 22 5 26 4 3 30 1 16 40 2 1 16 3 22 26
split_gain=20.9285 14.5736 19.357 35.039 26.5748 12.2577 12.9895 9.64269 8.93089 6.66615 10.6999 10.3867 6.44331 16.3153 16.6667 8.6432 13.1479 12.5258 16.4739 13.5111 12.7604 12.6351 21.3028 9.94763 8.143 16.5965 15.3908 10.5299 13.5055 10.0027
threshold=1.0000000180025095e-35 0.53426662087440502 16.844398714782638 4.4464923975707036 51.363443393941431 10.504100547439336 165.5485012645394 1.5000000000000002 90741.863495777667 3.9332192954631848 3.1171727109716358 1.5136681306374484 0.34645093977451324 0.081379845432954664 86.604666733992048 40.028125443799006 92682.942399502281 -0.26837015151977528 23.208215312500794 110.25494386778929 21.860000000000586 92394.797474954554 72.908339465077333 1.0228460344443233 92663.896326247326 92651.649465465467 13.581825996947597 106.51471489391395 54.317287391314686 0.34383997321128845
decision_type=2 2 2 8 2 2 2 2 2 2 2 2 2 2 2 2 2 2 2 2 2 2 2 2 2 2 2 2 2 2
left_child=-1 7 3 -3 -4 6 -6 -2 -7 10 12 -12 15 -14 -15 16 17 21 -19 20 -20 22 -9 -21 25 26 -17 29 -29 -28
right_child=1 2 4 -5 5 8 -8 9 -10 -11 11 -13 13 14 -16 24 -18 18 19 23 -22 -23 -24 -25 -26 -27 27 28 -30 -31
leaf_value=-0.016075706245407228 -0.020232305328439303 -0.0025776201975531879 -0.02220546231536126 0.089895049757545906 0.0682400603609329 -0.012922102330873412 0.01390629012814977 0.052335872966796163 0.025989910394980994 -0.028170103356242183 0.043876424425148539 -0.0026412604021884148 -0.020395906917378307 0.035007480080380585 -0.0035970923710929971 0.011457603609816023 0.022524757547812028 -0.020235363694095513 -0.00097491809340951208 -0.02568618496588897 0.032343331785939101 -0.010056732898112387 -0.0053578192659188067 0.014712250502780081 -0.010304174352686553 0.032248738020336114 -0.0052768050726025636 -0.0023935652742650185 0.021762522468430419 0.02261367640731966
leaf_weight=189 57 20 54 21 22 30 22 32 29 20 28 21 125 33 183 405 44 201 91 64 42 50 32 20 99 52 590 126 107 34
leaf_count=189 57 20 54 21 22 30 22 32 29 20 28 21 125 33 183 405 44 201 91 64 42 50 32 20 99 52 590 126 107 34
internal_value=-4.11282e-11 0.0011448 0.014194 0.0447864 0.0062049 0.0210997 0.0410732 9.27914e-05 0.00620414 0.000575714 0.000817377 0.0239403 0.000331101 -0.00601909 0.00230083 0.0014198 -0.00374258 -0.00591507 -0.00992171 -0.000368518 0.00954663 0.00877597 0.023489 -0.0160675 0.0035242 0.00456607 0.00342542 -0.000370419 0.00869957 -0.00375713
internal_weight=2843 2654 198 41 157 103 44 2456 59 2399 2379 49 2330 341 216 1989 576 532 418 217 133 114 64 84 1413 1314 1262 857 233 624
internal_count=2843 2654 198 41 157 103 44 2456 59 2399 2379 49 2330 341 216 1989 576 532 418 217 133 114 64 84 1413 1314 1262 857 233 624
is_linear=0
shrinkage=0.05


Tree=29
num_leaves=31
num_cat=0
split_feature=56 26 4 26 28 1 3 44 44 40 1 4 4 24 26 5 3 48 26 3 26 26 4 5 5 40 3 4 5 37
split_gain=18.888 13.5055 21.1219 17.5008 9.51084 7.44165 5.92972 5.86333 9.11279 10.3443 6.60003 14.1423 15.4623 18.9298 13.3686 7.94276 20.9797 10.7386 10.1018 13.0915 10.3485 10.0697 19.0755 9.63747 16.0695 14.5981 12.5056 12.073 11.6107 16.1902
threshold=1.0000000180025095e-35 63.53283768805742 18.646269928473792 65.253509775549304 33.935000000004955 90665.237500630275 71.304467814323615 3.9332192954631848 3.1171727109716358 1.0166679471368691 92578.869495636856 10.847308586293869 21.580295300880859 92964.830000000002 0.2572267353534699 92267.057436949384 36.038862579671054 1.5026240717508821 -0.20959565788507453 39.465293491594281 0.04627656377851961 -0.27155026793479914 15.203207944080987 90609.765962553749 90975.213494315554 1.0594982208068349 100.46360799218301 24.897029804402933 92031.765243924325 -1.0000000180025095e-35
decision_type=2 2 2 2 2 2 2 2 2 2 2 2 2 2 2 2 2 2 2 2 2 2 2 2 2 2 2 2 2 2
left_child=-1 7 -3 4 -4 6 -5 8 10 -10 15 -12 -13 14 -14 16 -2 18 -17 -20 -21 22 -18 25 27 -23 28 -25 29 -26
right_child=1 2 3 5 -6 -7 -8 -9 9 -11 11 12 13 -15 -16 17 21 -19 19 20 -22 23 -24 24 26 -27 -28 -29 -30 -31
leaf_value=-0.015271921006460038 0.050512740690083741 0.063389156558550902 0.012333353585563601 -0.0026730584150010893 0.054485718581987468 0.00999927570939892 -0.039818054047368823 -0.026761598363518713 0.002196310261457131 0.048274621285963805 0.03867524928102891 -0.0045923905054977409 0.036211582834255844 -0.013790022752179608 -0.001766044757096097 -0.017532050326220086 0.055942695523085811 0.014283345349540469 0.03163222552090883 0.019682579518606268 -0.0085535442841941298 -0.0071069098462642512 -0.00070413250609167996 0.049545783772613976 -0.023474070752182833 0.028103301517905729 -0.010997924302916039 0.0064024406375692185 -0.0029826668082373522 0.01862163771577972
leaf_weight=189 21 20 32 22 23 36 21 20 29 21 30 251 84 41 32 186 23 60 25 36 329 584 42 31 26 31 163 34 213 188
leaf_count=189 21 20 32 22 23 36 21 20 29 21 30 251 84 41 32 186 23 60 25 36 329 584 42 31 26 31 163 34 213 188
internal_value=-1.65084e-11 0.00108756 0.0154585 0.00830467 0.0299607 -0.00677231 -0.0208136 0.000202313 0.000419764 0.0215492 -1.49978e-05 0.00554209 0.00310583 0.0154132 0.025735 -0.00123689 0.000925382 -0.00584701 -0.00794392 -0.00337112 -0.00576861 0.000145356 0.0193401 -0.000837054 0.00338347 -0.00533209 0.000784021 0.0269785 0.00528158 0.0135072
internal_weight=2843 2654 154 134 55 79 43 2500 2480 50 2430 438 408 157 116 1992 1356 636 576 390 365 1335 65 1270 655 615 590 65 427 214
internal_count=2843 2654 154 134 55 79 43 2500 2480 50 2430 438 408 157 116 1992 1356 636 576 390 365 1335 65 1270 655 615 590 65 427 214
is_linear=0
shrinkage=0.05


end of trees

feature_importances:
ai_score=117
signal_price=70
ema_short=62
atr=62
adx=61
ema_spread=60
ema_long=58
hour=58
center=56
atr_percent=56
rsi=38
price_vs_center=31
is_simulated=27
volume_shock=26
price=24
cloud_dist_atr=17
volume_density=9
tick_imbalance_proxy=9
dom_pressure=8
day_of_week=7
order_imbalance_proxy=7
cloud_width=6
wick_lower=6
absorption_ratio=5
volatility_shock=5
wick_upper=4
candle_size=4
tick_volume=3
close=2
is_stalemate=1
dom_imbalance=1

parameters:
[boosting: gbdt]
[objective: regression]
[metric: rmse]
[tree_learner: serial]
[device_type: cpu]
[data_sample_strategy: bagging]
[data: ]
[valid: ]
[num_iterations: 1000]
[learning_rate: 0.05]
[num_leaves: 31]
[num_threads: 0]
[seed: 0]
[deterministic: 0]
[force_col_wise: 0]
[force_row_wise: 0]
[histogram_pool_size: -1]
[max_depth: -1]
[min_data_in_leaf: 20]
[min_sum_hessian_in_leaf: 0.001]
[bagging_fraction: 1]
[pos_bagging_fraction: 1]
[neg_bagging_fraction: 1]
[bagging_freq: 0]
[bagging_seed: 3]
[bagging_by_query: 0]
[feature_fraction: 0.9]
[feature_fraction_bynode: 1]
[feature_fraction_seed: 2]
[extra_trees: 0]
[extra_seed: 6]
[early_stopping_round: 0]
[early_stopping_min_delta: 0]
[first_metric_only: 0]
[max_delta_step: 0]
[lambda_l1: 0]
[lambda_l2: 0]
[linear_lambda: 0]
[min_gain_to_split: 0]
[drop_rate: 0.1]
[max_drop: 50]
[skip_drop: 0.5]
[xgboost_dart_mode: 0]
[uniform_drop: 0]
[drop_seed: 4]
[top_rate: 0.2]
[other_rate: 0.1]
[min_data_per_group: 100]
[max_cat_threshold: 32]
[cat_l2: 10]
[cat_smooth: 10]
[max_cat_to_onehot: 4]
[top_k: 20]
[monotone_constraints: ]
[monotone_constraints_method: basic]
[monotone_penalty: 0]
[feature_contri: ]
[forcedsplits_filename: ]
[refit_decay_rate: 0.9]
[cegb_tradeoff: 1]
[cegb_penalty_split: 0]
[cegb_penalty_feature_lazy: ]
[cegb_penalty_feature_coupled: ]
[path_smooth: 0]
[interaction_constraints: ]
[verbosity: -1]
[saved_feature_importance_type: 0]
[use_quantized_grad: 0]
[num_grad_quant_bins: 4]
[quant_train_renew_leaf: 0]
[stochastic_rounding: 1]
[linear_tree: 0]
[max_bin: 255]
[max_bin_by_feature: ]
[min_data_in_bin: 3]
[bin_construct_sample_cnt: 200000]
[data_random_seed: 1]
[is_enable_sparse: 1]
[enable_bundle: 1]
[use_missing: 1]
[zero_as_missing: 0]
[feature_pre_filter: 1]
[pre_partition: 0]
[two_round: 0]
[header: 0]
[label_column: ]
[weight_column: ]
[group_column: ]
[ignore_column: ]
[categorical_feature: ]
[forcedbins_filename: ]
[precise_float_parser: 0]
[parser_config_file: ]
[objective_seed: 5]
[num_class: 1]
[is_unbalance: 0]
[scale_pos_weight: 1]
[sigmoid: 1]
[boost_from_average: 1]
[reg_sqrt: 0]
[alpha: 0.9]
[fair_c: 1]
[poisson_max_delta_step: 0.7]
[tweedie_variance_power: 1.5]
[lambdarank_truncation_level: 30]
[lambdarank_norm: 1]
[label_gain: ]
[lambdarank_position_bias_regularization: 0]
[eval_at: ]
[multi_error_top_k: 1]
[auc_mu_weights: ]
[num_machines: 1]
[local_listen_port: 12400]
[time_out: 120]
[machine_list_filename: ]
[machines: ]
[gpu_platform_id: -1]
[gpu_device_id: -1]
[gpu_use_dp: 0]
[num_gpu: 1]

end of parameters

pandas_categorical:[]
