tree
version=v4
num_class=1
num_tree_per_iteration=1
label_index=0
max_feature_idx=56
objective=regression
feature_names=signal_price ema_short ema_long atr adx center distance_ok slope_ok trend_filter_ok htf_trend_ok volatility_ok chop_ok spread_ok bars_since_last trend_direction ema_cross_event ema_spread atr_percent reclaim_state is_reclaim_signal price_vs_center cloud_width rsi hour price spread ai_score tick_count wick_lower wick_ratio wick_upper candle_size day_of_week real_volume tick_volume best_ask_vol best_bid_vol dom_pressure is_stalemate liquidity_ok volume_shock dom_imbalance spread_to_atr tick_velocity cloud_dist_atr volume_density volatility_skew absorption_ratio volatility_shock aggressor_buy_vol avg_dom_imbalance aggressor_sell_vol tick_imbalance_proxy order_imbalance_proxy close pip_scale is_simulated
feature_infos=[25414.490000000002:25874.639999999999] [25457.208722095798:25861.839327370824] [25477.707990180108:25855.198796182787] [2.184918372871953:37.113210509213431] [7.8064521696033999:74.559859018043397] [25473.950998582841:25858.388344274936] none none none none none none none none none none [0.0050467733276582999:50.958675421530138] [0.0085044770752845007:0.144332776336658] none none [-98.66848144842568:78.304464746318729] [0.0050467733276582999:50.958675421530138] [0.61162079500228117:97.536945785901139] [1:23] [25414.490000000002:25874.639999999999] none [-0.4237558245658874:53.950846132352673] none [0:40.75] [0:50] [0:34] [0.75:118.05000000000292] [1:4] none [6:188] [52:2100] none [-0.88349514563106801:0.73477898248540452] [0:1] [1:1] [0.25572515211585423:2.4804503000627345] [-0.88349514563106801:0.73477898248540452] none [0:0] [0.0003847709953067:5.935738988118568] [1.3129918556385207:36.296524509270078] none [1.3130029647341479:36.30769219597633] [0.1941086643796017:6.9955295942089268] none [-0.88349514563106801:0.73477898248540452] none [-177.99999990582009:173.99999990719999] [-181.9999338182059:179.99995739645976] [25414.490000000002:25874.639999999999] none [0:1]
tree_sizes=2618 2799

Tree=0
num_leaves=31
num_cat=0
split_feature=44 2 34 3 24 2 3 16 3 35 52 17 16 4 16 44 40 16 40 2 2 1 23 4 0 1 1 23 5 2
split_gain=73.9226 49.2962 69.0621 133.954 56.5308 53.8949 42.8307 40.5025 37.6289 75.9724 43.5545 36.4018 32.3798 29.7987 30.6329 28.1992 26.7496 26.1242 23.6089 20.8023 48.9135 63.6349 42.3452 41.4124 19.4823 58.8434 18.7953 18.0328 17.4305 16.5434
threshold=1.5378783365965953 25667.451292460271 114.50000000000001 9.2860014360580347 25661.190000000006 25787.975202711619 7.0852340136970833 0.74705077984443957 8.8785898378604831 297.00000000000006 -92.393274779521036 0.023398569493408006 5.7221119087796213 48.82598208416406 7.9254007565498785 0.40680471589905592 1.2291873338918766 12.47080719289627 1.0965475115736165 25737.415229455233 25705.387985241377 25715.422467610249 10.500000000000002 25.044851172717404 25702.815000000006 25688.956161362246 25644.365228323291 8.5000000000000018 25512.742660957872 25626.011826158552
decision_type=2 2 2 2 2 2 2 2 2 2 10 2 2 2 2 2 2 2 2 2 2 2 2 2 2 2 2 2 2 2
left_child=7 2 3 4 6 11 -2 15 10 -10 -9 12 -3 14 29 24 -4 -7 -16 20 28 27 23 -23 25 26 -1 -22 -12 -11
right_child=1 5 16 -5 -6 17 -8 8 9 13 19 -13 -14 -15 18 -17 -18 -19 -20 -21 21 22 -24 -25 -26 -27 -28 -29 -30 -31
leaf_value=1.3092802377674508 1.2494656015916286 1.256929309455229 1.2477703333186139 1.4051762825574881 1.349656800290266 1.3372279508924241 1.3135043694986535 1.2113252851224026 1.3516571238169601 1.277419199248085 1.2065851318078638 1.2351051584674997 1.3115064562156549 1.3130525423511485 1.2299080131606925 1.2549958991903734 1.3021755703257551 1.2629473229642314 1.2850102022684637 1.2239040758803195 1.2924083076495279 1.3408004067724606 1.2304702651114869 1.2426373124331569 1.259633605892742 1.3733448634931353 1.2484353525010226 1.3557271307728711 1.244232672266731 1.2534635355582495
leaf_weight=22 79 154 117 28 28 29 39 102 21 110 32 181 33 21 167 168 28 20 22 101 23 22 74 21 41 21 30 22 784 209
leaf_count=22 79 154 117 28 28 29 39 102 21 110 32 181 33 21 167 168 28 20 22 101 23 22 74 21 41 21 30 22 784 209
internal_value=1.25541 1.26897 1.28376 1.305 1.28579 1.25765 1.27063 1.25045 1.24759 1.25839 1.24256 1.25109 1.26656 1.25469 1.25227 1.26802 1.25828 1.30691 1.23632 1.24551 1.24774 1.27283 1.2534 1.29286 1.28721 1.30271 1.27418 1.32336 1.24276 1.26172
internal_weight=2749 736 319 174 146 417 118 2013 1731 550 1181 368 187 529 508 282 145 49 189 1079 978 162 117 43 114 73 52 45 816 319
internal_count=2749 736 319 174 146 417 118 2013 1731 550 1181 368 187 529 508 282 145 49 189 1079 978 162 117 43 114 73 52 45 816 319
is_linear=0
shrinkage=1


Tree=1
num_leaves=31
num_cat=0
split_feature=56 44 16 2 26 2 2 17 23 2 35 20 3 26 17 52 44 17 16 26 28 44 37 4 22 4 0 32 5 23
split_gain=177.3 59.1038 60.6732 38.4466 63.1493 60.5785 47.69 46.2036 41.6986 30.8224 28.7986 77.5564 27.6812 44.7424 28.0073 26.7373 26.6825 31.1511 24.5252 22.995 21.6153 27.4959 20.3858 20.3752 29.9722 22.121 19.354 18.9571 27.5189 34.0545
threshold=1.0000000180025095e-35 1.4596018734302036 0.74705077984443957 25667.451292460271 0.34667281806468964 25525.807298543081 25787.975202711619 0.023398569493408006 4.5000000000000009 25655.438766978034 218.00000000000003 2.2579612841868344 3.3196009909639979 0.13452539592981336 0.017373479230576156 52.523437454412438 0.40680471589905592 0.022934704849222502 13.281106570587045 -0.061385199427604599 6.3750000000000009 0.92086148165803394 -0.17458935466637807 43.346195299854493 36.363636348935344 27.689451552029045 25673.940000000006 2.5000000000000004 25526.954461526064 16.500000000000004
decision_type=2 2 2 2 2 2 2 2 2 2 2 2 2 2 2 8 2 2 2 2 2 2 2 2 2 2 2 2 2 2
left_child=-1 2 16 4 8 -6 7 19 -3 27 11 -4 13 -12 -14 -7 17 22 -8 -5 23 -22 -2 25 -25 -16 -19 -10 -29 -30
right_child=1 3 10 6 5 15 18 -9 9 -11 12 -13 14 -15 20 -17 -18 26 -20 -21 21 -23 -24 24 -26 -27 -28 28 29 -31
leaf_value=-0.062492239912715533 0.029199110259018515 0.066493543713457059 -0.01198806111002341 0.042498099516358294 0.14353026866912841 0.082036475464701664 0.07519295865839179 -0.018849697744694707 -0.025270143547323626 0.050725393520819173 -0.034750937504900825 0.10860146276652814 -0.035309078259160742 0.029467325424352153 -0.0067799274505233199 0.0044742754995822911 0.0070930587289234001 0.041538769037773211 0.0050244112871587277 0.0041776705466210848 -0.0055150456884275048 0.048500212416739061 0.090519768976126666 0.054841249333373435 -0.0040259674733833361 -0.022476813320053267 -0.022646420602889166 -0.013594190748956273 0.055986480194391043 -0.009140224601416027
leaf_weight=109 23 36 40 57 20 20 33 195 51 37 36 20 96 110 787 25 150 24 20 125 62 38 33 29 85 314 23 68 49 34
leaf_count=109 23 36 40 57 20 20 33 195 51 37 36 20 96 110 787 25 150 24 20 125 62 38 33 29 85 314 23 68 49 34
internal_value=1.61699e-10 0.00258017 -0.00222048 0.0142389 0.0268035 0.071126 0.00430411 -0.00193923 0.0163273 0.00877082 -0.00578296 0.0282084 -0.00709284 0.0136327 -0.00923737 0.0389464 0.0205484 0.0401436 0.0487143 0.0161791 -0.00733404 0.0150108 0.0653345 -0.00917311 0.010949 -0.0112566 0.010129 0.00108608 0.00998785 0.0293081
internal_weight=2749 2640 1870 770 340 65 430 377 275 239 1617 60 1557 146 1411 45 253 103 53 182 1315 100 56 1215 114 1101 47 202 151 83
internal_count=2749 2640 1870 770 340 65 430 377 275 239 1617 60 1557 146 1411 45 253 103 53 182 1315 100 56 1215 114 1101 47 202 151 83
is_linear=0
shrinkage=0.05


end of trees

feature_importances:
ema_long=9
ema_spread=6
cloud_dist_atr=5
atr=4
adx=4
atr_percent=4
hour=4
ema_short=3
ai_score=3
signal_price=2
center=2
best_ask_vol=2
volume_shock=2
tick_imbalance_proxy=2
price_vs_center=1
rsi=1
price=1
wick_lower=1
day_of_week=1
tick_volume=1
dom_pressure=1
is_simulated=1

parameters:
[boosting: gbdt]
[objective: regression]
[metric: rmse]
[tree_learner: serial]
[device_type: cpu]
[data_sample_strategy: bagging]
[data: ]
[valid: ]
[num_iterations: 1000]
[learning_rate: 0.05]
[num_leaves: 31]
[num_threads: 0]
[seed: 0]
[deterministic: 0]
[force_col_wise: 0]
[force_row_wise: 0]
[histogram_pool_size: -1]
[max_depth: -1]
[min_data_in_leaf: 20]
[min_sum_hessian_in_leaf: 0.001]
[bagging_fraction: 1]
[pos_bagging_fraction: 1]
[neg_bagging_fraction: 1]
[bagging_freq: 0]
[bagging_seed: 3]
[bagging_by_query: 0]
[feature_fraction: 0.9]
[feature_fraction_bynode: 1]
[feature_fraction_seed: 2]
[extra_trees: 0]
[extra_seed: 6]
[early_stopping_round: 0]
[early_stopping_min_delta: 0]
[first_metric_only: 0]
[max_delta_step: 0]
[lambda_l1: 0]
[lambda_l2: 0]
[linear_lambda: 0]
[min_gain_to_split: 0]
[drop_rate: 0.1]
[max_drop: 50]
[skip_drop: 0.5]
[xgboost_dart_mode: 0]
[uniform_drop: 0]
[drop_seed: 4]
[top_rate: 0.2]
[other_rate: 0.1]
[min_data_per_group: 100]
[max_cat_threshold: 32]
[cat_l2: 10]
[cat_smooth: 10]
[max_cat_to_onehot: 4]
[top_k: 20]
[monotone_constraints: ]
[monotone_constraints_method: basic]
[monotone_penalty: 0]
[feature_contri: ]
[forcedsplits_filename: ]
[refit_decay_rate: 0.9]
[cegb_tradeoff: 1]
[cegb_penalty_split: 0]
[cegb_penalty_feature_lazy: ]
[cegb_penalty_feature_coupled: ]
[path_smooth: 0]
[interaction_constraints: ]
[verbosity: -1]
[saved_feature_importance_type: 0]
[use_quantized_grad: 0]
[num_grad_quant_bins: 4]
[quant_train_renew_leaf: 0]
[stochastic_rounding: 1]
[linear_tree: 0]
[max_bin: 255]
[max_bin_by_feature: ]
[min_data_in_bin: 3]
[bin_construct_sample_cnt: 200000]
[data_random_seed: 1]
[is_enable_sparse: 1]
[enable_bundle: 1]
[use_missing: 1]
[zero_as_missing: 0]
[feature_pre_filter: 1]
[pre_partition: 0]
[two_round: 0]
[header: 0]
[label_column: ]
[weight_column: ]
[group_column: ]
[ignore_column: ]
[categorical_feature: ]
[forcedbins_filename: ]
[precise_float_parser: 0]
[parser_config_file: ]
[objective_seed: 5]
[num_class: 1]
[is_unbalance: 0]
[scale_pos_weight: 1]
[sigmoid: 1]
[boost_from_average: 1]
[reg_sqrt: 0]
[alpha: 0.9]
[fair_c: 1]
[poisson_max_delta_step: 0.7]
[tweedie_variance_power: 1.5]
[lambdarank_truncation_level: 30]
[lambdarank_norm: 1]
[label_gain: ]
[lambdarank_position_bias_regularization: 0]
[eval_at: ]
[multi_error_top_k: 1]
[auc_mu_weights: ]
[num_machines: 1]
[local_listen_port: 12400]
[time_out: 120]
[machine_list_filename: ]
[machines: ]
[gpu_platform_id: -1]
[gpu_device_id: -1]
[gpu_use_dp: 0]
[num_gpu: 1]

end of parameters

pandas_categorical:[]
