tree
version=v4
num_class=1
num_tree_per_iteration=1
label_index=0
max_feature_idx=56
objective=regression
feature_names=signal_price ema_short ema_long atr adx center distance_ok slope_ok trend_filter_ok htf_trend_ok volatility_ok chop_ok spread_ok bars_since_last trend_direction ema_cross_event ema_spread atr_percent reclaim_state is_reclaim_signal price_vs_center cloud_width rsi hour price spread ai_score tick_count wick_lower wick_ratio wick_upper candle_size day_of_week real_volume tick_volume best_ask_vol best_bid_vol dom_pressure is_stalemate liquidity_ok volume_shock dom_imbalance spread_to_atr tick_velocity cloud_dist_atr volume_density volatility_skew absorption_ratio volatility_shock aggressor_buy_vol avg_dom_imbalance aggressor_sell_vol tick_imbalance_proxy order_imbalance_proxy close pip_scale is_simulated
feature_infos=[47521.949999999997:48888.25] [47562.397688514036:48882.275316218627] [47572.121746741708:48877.910763379659] [2.4765260105227802:54.648942267980622] [9.0310286989889423:66.451912457067891] [47569.664249788977:48879.156719088081] none none none none none none none none none none [0.0015426542950428999:74.374996023614841] [0.0051994814440881002:0.1138699924737679] none none [-98.189137245542085:131.04198985991579] [0.0015426542950428999:74.374996023614841] [3.2119914342080023:99.999999961111115] [1:23] [47521.949999999997:48889.75] none [-0.34531432390213013:100.54475181739396] none [0:48] [0:50] [0:44] [0:155] [1:4] none [1:244] [20:1330] none [-0.79020979020979021:0.81818181818181823] [0:1] [1:1] [0.082026060596624206:3.5311464994863586] [-0.79020979020979021:0.81818181818181823] none [0:0] [0.00014792444419230001:6.2736223316197997] [0.6666031873148589:1000] none [0.66666666603174596:100000000] [0:6.491969887504653] none [-0.79020979020979021:0.81818181818181823] none [-203.60188677323839:178.98550722043692] [-197.96224547525983:228.33634201844919] [47521.949999999997:48889.75] none [0:1]
tree_sizes=2601 2799 2784 2796 2785 2809 2795 2789 2789 2815 2791 2805 2807 2782 2807 2795 2811 2805 2797 2795 2815 2806 2831 2813 2805 2791 2808 2813 2823 2828 2834 2791 2832 2843 2818 2841 2808 2815 2799

Tree=0
num_leaves=31
num_cat=0
split_feature=17 23 0 2 38 16 23 5 22 5 3 23 2 3 34 4 20 5 34 4 0 4 0 0 23 16 3 17 22 28
split_gain=82.1403 99.1588 138.386 298.17 144.777 159.274 73.3587 168.487 65.8745 37.6686 37.4102 87.3344 36.9477 82.104 36.5591 32.641 39.9741 32.5177 30.3921 29.0862 26.9941 24.4165 33.8949 34.9206 24.2818 29.0459 24.2551 23.2367 30.5883 20.2612
threshold=0.017497033270193602 16.500000000000004 47956.17500000001 48055.351300324983 1.0000000180025095e-35 2.8939949804081961 14.500000000000002 47756.849166361782 49.999999983171527 47898.840330188315 29.176917573045618 15.500000000000002 48159.948425951581 4.8309930423921168 139.50000000000003 13.61020178612605 2.5117326443534771 48849.780344149425 30.500000000000004 25.641276762051501 47933.17500000001 20.015679871092839 48172.000000000007 48138.500000000007 22.500000000000004 10.39969013852733 7.4458776683384054 0.028965372157865505 56.683848781982725 2.2500000000000004
decision_type=2 2 2 2 8 2 2 2 2 2 2 2 2 2 2 2 2 2 2 2 2 2 2 2 2 2 2 2 2 2
left_child=6 2 4 -4 27 -6 9 8 26 15 11 17 13 -11 24 -1 -17 -5 -15 -16 -21 22 23 -9 25 -3 -8 -2 -29 -13
right_child=1 14 3 10 5 -7 7 21 -10 12 -12 29 -14 18 19 16 -18 -19 -20 20 -22 -23 -24 -25 -26 -27 -28 28 -30 -31
leaf_value=1.2252250440014421 1.195284255371202 1.2273158775559114 1.4202760024267467 1.2163897412744373 1.4101927898931761 1.2380850432788966 1.3027137723131592 1.2024576790738364 1.3646738690458282 1.3197791213431109 1.1900433915588517 1.2888041423182446 1.2039037853479988 1.2301247630921694 1.2653374877140948 1.1873564986378735 1.2151791328093935 1.2897103064428528 1.195771245204108 1.2655001505758126 1.1940532614211996 1.188833008303493 1.176043773434635 1.2883382458649215 1.187622708526761 1.2034473655273841 1.2257762143123407 1.2019568211529141 1.2761429369650292 1.3599750312339027
leaf_weight=122 139 368 33 62 20 41 21 20 28 23 20 20 263 287 74 382 195 20 83 20 39 69 20 29 69 195 20 33 24 20
leaf_count=122 139 368 33 62 20 41 21 20 28 23 20 20 263 287 74 382 195 20 83 20 39 69 20 29 69 195 20 33 24 20
internal_value=1.22159 1.23145 1.2506 1.28489 1.22724 1.29451 1.21404 1.24176 1.30556 1.2098 1.25343 1.26382 1.21841 1.22812 1.22063 1.20173 1.19676 1.23427 1.22242 1.24446 1.21827 1.20986 1.2309 1.25328 1.21562 1.21905 1.26518 1.20631 1.23319 1.32439
internal_weight=2759 1197 432 175 257 61 1562 207 69 1355 142 122 656 393 765 699 577 82 370 133 59 138 69 49 632 563 41 196 57 40
internal_count=2759 1197 432 175 257 61 1562 207 69 1355 142 122 656 393 765 699 577 82 370 133 59 138 69 49 632 563 41 196 57 40
is_linear=0
shrinkage=1


Tree=1
num_leaves=31
num_cat=0
split_feature=56 26 35 2 47 3 35 22 23 0 24 4 26 24 44 0 22 3 16 26 5 24 20 23 37 0 3 24 26 5
split_gain=197.362 121.847 109.338 151.27 202.193 105.317 80.94 62.6562 46.4074 70.5208 227.863 45.6339 38.6172 56.4055 57.6127 34.8367 25.7147 23.8587 37.3729 36.6021 24.2537 40.432 21.5758 29.888 29.2405 20.3385 39.2505 19.5521 22.806 19.392
threshold=1.0000000180025095e-35 0.34638892114162451 1273.5000000000002 47760.375576514831 3.5899784448495251 9.1829777441792277 916.50000000000011 63.783146122503915 22.500000000000004 47962.250000000007 48038.950000000004 19.139268935675474 0.21519819538176202 48117.950000000004 1.5241298847238938 48128.000000000007 49.999999990512826 26.27937810971947 25.944456954011624 0.27834790945053106 47591.654291379768 47610.250000000007 -17.666159042814364 11.500000000000002 1.0000000180025095e-35 47627.05000000001 3.1783992215931574 48882.700000000004 -0.20698063075542442 48147.515209511774
decision_type=2 2 2 2 10 2 2 2 2 2 2 2 2 2 2 2 2 2 2 2 2 2 2 2 2 2 2 2 2 2
left_child=-1 8 3 4 -3 11 15 -8 9 17 -11 -5 13 14 -12 -7 -14 19 -19 20 -2 -22 -23 25 -25 -24 -27 28 -15 -13
right_child=1 2 -4 5 -6 6 7 -9 -10 10 12 29 16 27 -16 -17 -18 18 -20 -21 21 22 23 24 -26 26 -28 -29 -30 -31
leaf_value=-0.05965808571288081 -0.025129473103088853 0.2449677934497595 -0.0027205887905753408 0.039815869486253513 0.043493618545207113 0.067702464026308834 0.054771036729216571 0.17577713766823644 -0.037726862724973928 0.16900548630140044 0.086001347050674859 -0.0024242037896155602 0.073730027661831288 0.014499209685877801 -0.0010955255526380661 -0.007256345550018934 0.019274382451707921 0.068104231834411624 -0.018351386785507202 -0.028442946427268908 0.039778796437565454 -0.032277485840570407 -0.023284002747164953 0.0005993617029162124 0.054684140442348109 0.052541139265221942 -0.0061867866200136529 0.044061631392687567 -0.011177025043804141 -0.048695248161112113
leaf_weight=132 138 20 231 57 33 31 20 23 90 22 37 84 27 107 39 31 110 25 25 225 53 68 147 64 41 31 346 20 451 31
leaf_count=132 138 20 231 57 33 31 20 23 90 22 37 84 27 107 39 31 110 25 25 225 53 68 147 64 41 31 346 20 451 31
internal_value=3.54841e-10 0.00299767 0.0236624 0.0421306 0.119522 0.0273229 0.0667821 0.119495 -0.00261363 -0.00101435 0.0102831 0.00323441 0.00586855 0.000812132 0.0413069 0.0302231 0.0300065 -0.00891186 0.0248764 -0.0104298 -0.0058656 -0.00232105 -0.00552233 -0.00262988 0.0217182 -0.00750878 -0.0013577 -0.00451244 -0.00625345 -0.0148973
internal_weight=2759 2627 561 330 53 277 105 43 2066 1976 813 172 791 654 76 62 137 1163 50 1113 888 750 697 629 105 524 377 578 558 115
internal_count=2759 2627 561 330 53 277 105 43 2066 1976 813 172 791 654 76 62 137 1163 50 1113 888 750 697 629 105 524 377 578 558 115
is_linear=0
shrinkage=0.05


Tree=2
num_leaves=31
num_cat=0
split_feature=56 26 35 2 1 3 16 44 23 0 2 26 4 26 3 2 20 3 16 26 5 23 1 2 5 2 26 0 16 5
split_gain=178.119 109.967 98.6774 136.521 182.899 95.0485 73.4179 122.05 41.8827 63.645 197.781 41.9501 41.1846 38.0463 57.273 23.3595 21.7686 21.5325 33.729 33.0334 21.889 34.8116 62.396 37.673 23.1158 21.6334 19.5061 18.6192 17.7498 17.5012
threshold=1.0000000180025095e-35 0.34638892114162451 1273.5000000000002 47760.375576514831 47727.645760748732 9.1829777441792277 24.34559511661551 1.4522281889976705 22.500000000000004 47962.250000000007 48055.351300324983 0.21519819538176202 19.139268935675474 -0.059508247300982441 4.8309930423921168 48131.380841610604 -6.5587478094947116 26.27937810971947 25.944456954011624 0.27834790945053106 47591.654291379768 11.500000000000002 47631.969074035012 47812.566307991154 47600.222475030321 47828.012023927084 0.14586590230464933 48800.750000000007 2.0983838680840798 48147.515209511774
decision_type=2 2 2 2 2 2 2 2 2 2 2 2 2 2 2 2 2 2 2 2 2 2 2 2 2 2 2 2 2 2
left_child=-1 8 3 4 -3 12 7 28 9 17 -11 13 -5 14 -12 -15 -13 19 -19 20 -2 -22 24 -24 -23 -25 -17 -28 -7 -14
right_child=1 2 -4 5 -6 6 -8 -9 -10 10 11 16 29 15 -16 26 -18 18 -20 -21 21 22 23 25 -26 -27 27 -29 -30 -31
leaf_value=-0.056675182960250162 -0.023872999790414792 0.041235974340727836 -0.0025845591181453756 0.037825076027136105 0.23285627812147142 0.014424929209053517 0.0016861065481366081 0.19671669363975527 -0.035840519148752921 0.13799477394284873 0.091581305991048412 0.077246987571318954 -0.0023029937641695143 -0.048495730144136093 0.0080650045373492282 -0.012391487969608423 0.021811362004228993 0.064699020624160761 -0.017433817803859712 -0.027020799300879139 -0.0083690044079470418 0.01360123420506716 -0.034307370827359671 0.056326003229388827 0.07289316694562635 -0.0075741839284698175 -0.0096889554091763724 0.030321710893795609 0.074470129964174708 -0.046260486534165757
leaf_weight=132 138 33 231 57 20 20 33 20 90 29 23 21 84 34 191 285 113 25 25 225 565 25 59 26 48 27 54 63 32 31
leaf_count=132 138 33 231 57 20 20 33 20 90 29 23 21 84 34 191 285 113 25 25 225 565 25 59 26 48 27 54 63 32 31
internal_value=-8.77065e-11 0.00284778 0.0224793 0.040024 0.113546 0.0259568 0.063443 0.0917483 -0.00248295 -0.000963628 0.00976893 0.00502588 0.00307269 -0.000225506 0.0170411 -0.00870038 0.030499 -0.00846627 0.0236326 -0.00990827 -0.00557232 -0.002205 0.0166202 -0.00682287 0.0525877 0.0237731 -0.0053346 0.0118552 0.0513758 -0.0141524
internal_weight=2759 2627 561 330 53 277 105 72 2066 1976 813 784 172 650 214 436 134 1163 50 1113 888 750 185 112 73 53 402 117 52 115
internal_count=2759 2627 561 330 53 277 105 72 2066 1976 813 784 172 650 214 436 134 1163 50 1113 888 750 185 112 73 53 402 117 52 115
is_linear=0
shrinkage=0.05


Tree=3
num_leaves=31
num_cat=0
split_feature=56 26 35 2 47 3 35 22 40 23 0 24 4 26 24 20 22 3 16 26 5 24 20 23 1 2 2 1 3 23
split_gain=160.753 99.245 89.0563 123.21 168.875 85.7813 66.9663 52.6389 49.4785 37.7991 57.4396 189.302 37.1691 30.9427 47.1864 41.8224 21.6712 19.4331 30.5216 29.8126 19.7548 33.1834 18.9186 24.6242 25.5926 34.7642 21.783 19.3999 42.8215 17.9988
threshold=1.0000000180025095e-35 0.34638892114162451 1273.5000000000002 47760.375576514831 3.5899784448495251 9.1829777441792277 916.50000000000011 63.783146122503915 0.97110183568632868 22.500000000000004 47962.250000000007 48038.950000000004 19.139268935675474 0.21519819538176202 48117.950000000004 -9.3543628890144568 49.999999990512826 26.27937810971947 22.049295781323448 0.27834790945053106 47591.654291379768 47610.250000000007 -17.666159042814364 11.500000000000002 47631.969074035012 47814.503405401774 47828.012023927084 47628.78968473991 3.1783992215931574 2.5000000000000004
decision_type=2 2 2 2 10 2 2 2 2 2 2 2 2 2 2 2 2 2 2 2 2 2 2 2 2 2 2 2 2 2
left_child=-1 9 3 4 -3 12 8 -8 -7 10 17 -12 -5 14 15 -13 -15 19 -19 20 -2 -22 -23 27 -25 -26 -27 -24 -29 -16
right_child=1 2 -4 5 -6 6 7 -9 -10 -11 11 13 -14 16 29 -17 -18 18 -20 -21 21 22 23 24 25 26 -28 28 -30 -31
leaf_value=-0.053841423401326853 -0.022679350148562507 0.22251373797655108 -0.0024553310118506774 0.035933821187599711 0.03838613909302336 -0.0096986706802822866 0.048893260257318619 0.15980529124322146 0.08135625226795673 -0.034048493509956944 0.15395076720213349 -0.0034557530985159035 -0.013444784304693988 0.06700244587673633 0.007762151528320208 0.07114053170329758 0.017011267647824506 0.066522291844541379 -0.012176495577607837 -0.025669759677102166 0.036045020582365264 -0.030048438669045403 -0.020658505582057778 0.060749250703624316 -0.030925284232944251 0.071975946178038916 -0.00093556254869326956 0.058146331195944347 -0.0052563186790622728 -0.010680528122496489
leaf_weight=132 138 20 231 57 33 37 20 23 25 90 22 34 115 27 205 42 110 22 28 225 53 68 169 28 36 21 20 29 326 373
leaf_count=132 138 20 231 57 33 37 20 23 25 90 22 34 115 27 205 42 110 22 28 225 53 68 169 28 36 21 20 29 326 373
internal_value=-6.14514e-12 0.00270539 0.0213554 0.0380228 0.107868 0.0246589 0.0602709 0.108218 0.027017 -0.0023588 -0.000915447 0.00928048 0.00291906 0.00525678 0.000730598 0.0377685 0.0268635 -0.00804296 0.022451 -0.00941285 -0.0052937 -0.00209475 -0.0049949 -0.00228641 0.0198138 0.00492823 0.0364094 -0.00671489 -7.69473e-05 -0.00413944
internal_weight=2759 2627 561 330 53 277 105 43 62 2066 1976 813 172 791 654 76 137 1163 50 1113 888 750 697 629 105 77 41 524 355 578
internal_count=2759 2627 561 330 53 277 105 43 62 2066 1976 813 172 791 654 76 137 1163 50 1113 888 750 697 629 105 77 41 524 355 578
is_linear=0
shrinkage=0.05


Tree=4
num_leaves=31
num_cat=0
split_feature=56 26 2 47 2 32 17 20 23 5 24 4 26 4 2 5 16 31 2 16 20 34 20 23 23 26 2 2 24 29
split_gain=145.079 89.5686 69.9942 237.828 42.8489 46.7999 211.673 37.7665 34.1137 51.921 76.4795 45.8874 43.3187 32.9088 30.3458 37.7859 28.6047 26.1607 22.5512 22.2786 18.1217 22.3234 17.2726 19.77 26.4707 19.8324 17.1108 31.3566 15.3069 15.0765
threshold=1.0000000180025095e-35 0.34638892114162451 47760.375576514831 3.1698717907071665 48167.808735955201 2.5000000000000004 0.022091742867963202 7.3356930156835043 22.500000000000004 47939.971995239095 48117.950000000004 29.329001498513637 0.21519819538176202 20.015679871092839 48014.802114541286 48057.775112698982 7.3214500417232609 32.325000000000735 48155.94770371855 2.9539130579190744 -6.5587478094947116 136.50000000000003 -6.1671446489995345 21.500000000000004 2.5000000000000004 0.048832179978489855 48157.417162637787 48824.351268686696 48878.450000000004 0.51112401802960339
decision_type=2 2 2 10 2 2 2 2 2 2 2 2 2 2 2 2 2 2 2 2 2 2 2 2 2 2 2 2 2 2
left_child=-1 8 3 -3 5 17 13 -5 9 -2 11 -11 22 19 -13 -16 -17 18 -4 -7 -14 -22 -12 24 26 -26 -24 -28 -27 -29
right_child=1 2 4 7 -6 6 -8 -9 -10 10 12 14 20 -15 15 16 -18 -19 -20 -21 21 -23 23 -25 25 28 27 29 -30 -31
leaf_value=-0.051149350720824618 -0.0078752735660145446 0.21279858157038689 -0.0051090326692543962 -0.017452097379577324 -0.02145827111588525 0.0048851168404022852 0.19341131635010245 0.057364201978329692 -0.032346069489916168 0.10289040775253222 -0.01966593322872337 -0.014835551226961202 0.070272569571222576 -0.0088742840312958007 0.10240412880444812 0.064019994318485263 -0.0073608227074146272 0.046680803307228624 0.042816009705087976 0.070763634935472955 0.0057249680362687801 0.055050536128692332 0.052341329544782635 0.035808710473262381 0.0077588482923686593 -0.027171655870316658 -0.019624309812608209 0.058672265269394432 0.017432532226666807 0.0094481934420764455
leaf_weight=132 1131 20 199 37 77 21 20 31 90 26 134 29 21 59 21 25 32 36 28 33 81 32 25 37 86 153 58 28 22 35
leaf_count=132 1131 20 199 37 77 21 20 31 90 26 134 29 21 59 21 25 32 36 28 33 81 32 25 37 86 153 58 28 22 35
internal_value=1.89653e-10 0.00257012 0.0202876 0.0612333 0.0126698 0.0193058 0.0434769 0.0166553 -0.00224086 -0.000869675 0.00850705 0.043311 0.00200575 0.0169399 0.0288337 0.0450697 0.0239466 0.00708236 0.000802426 0.0451442 0.0276199 0.0196933 -0.00393247 0.000815921 -0.00236524 -0.0119022 0.0146838 0.00690331 -0.0215643 0.0313256
internal_weight=2759 2627 561 88 473 396 133 68 2066 1976 845 133 712 113 107 78 57 263 227 54 134 113 578 444 407 261 146 121 175 63
internal_count=2759 2627 561 88 473 396 133 68 2066 1976 845 133 712 113 107 78 57 263 227 54 134 113 578 444 407 261 146 121 175 63
is_linear=0
shrinkage=0.05


Tree=5
num_leaves=31
num_cat=0
split_feature=56 26 35 34 17 23 26 23 0 24 40 26 24 44 22 44 20 17 26 16 5 24 20 23 26 0 3 44 0 23
split_gain=130.934 80.8357 73.6159 71.6778 160.574 50.6885 51.9132 30.7876 47.1945 161.751 30.3992 25.4941 36.6338 46.4987 35.2711 23.5003 20.0825 17.3284 27.574 26.5027 17.8196 29.9562 17.2191 22.2117 23.0015 16.7274 31.7466 16.618 29.715 16.6049
threshold=1.0000000180025095e-35 0.34638892114162451 1273.5000000000002 58.500000000000007 0.024987990410803504 15.500000000000002 0.34733074903488165 22.500000000000004 47962.250000000007 48038.950000000004 0.98173819063916934 0.24576915800571444 48117.950000000004 1.5241298847238938 49.999999990512826 0.632386929605806 -6.1671446489995345 0.053822636771923109 0.27834790945053106 25.944456954011624 47591.654291379768 47610.250000000007 -17.666159042814364 11.500000000000002 -0.25126361846923823 47627.05000000001 3.1783992215931574 1.243355922150821 47929.17500000001 21.500000000000004
decision_type=2 2 2 2 2 2 2 2 2 2 2 2 2 2 2 2 2 2 2 2 2 2 2 2 2 2 2 2 2 2
left_child=-1 7 3 5 -5 6 -3 8 17 -10 -6 12 13 -11 -13 -7 -14 18 20 -19 -2 -22 -23 25 -25 -24 -27 -8 -29 -18
right_child=1 2 -4 4 10 15 27 -9 9 11 -12 14 16 -15 -16 -17 29 19 -20 -21 21 22 23 24 -26 26 -28 28 -30 -31
leaf_value=-0.048591884722312295 -0.021151618554722518 0.052399264953353189 -0.0023751682318516234 0.17190143759695017 0.00076101582306317792 0.09379337642055291 -0.026683624622635016 -0.030728765190061597 0.14214474623176185 0.07385126051266451 0.07426699149337683 0.083392334712499933 -0.019729756284505129 -0.0043951118317170027 0.012991893369584315 0.033836036001924766 -0.00091156327406406279 0.056555705087689256 -0.024270441907408118 -0.015545617967844009 0.03463653321334003 -0.02825848954894087 -0.02028514128115003 0.054562901472672821 0.0037227687905127919 0.048073187363409112 -0.0047433938117794738 0.051801099992978078 -0.021797779091866688 0.03401827554696718
leaf_weight=132 138 44 231 28 39 26 71 90 22 37 22 22 140 39 93 44 423 26 224 25 53 68 147 32 73 31 346 24 32 37
leaf_count=132 138 44 231 28 39 26 71 90 22 37 22 22 140 39 93 44 423 26 224 25 53 68 147 32 73 31 346 24 32 37
internal_value=-8.38668e-11 0.00244162 0.0192732 0.0344271 0.072773 0.0202661 0.0055949 -0.00212882 -0.000826191 0.00841583 0.0272714 0.00469644 0.000994092 0.0336985 0.0264598 0.0561059 -0.00314847 -0.00728686 -0.00859391 0.0212119 -0.00463947 -0.00160124 -0.00435676 -0.00177279 0.0192169 -0.00597874 -0.000400386 -0.0106208 0.0097446 0.00189801
internal_weight=2759 2627 561 330 89 241 171 2066 1976 813 61 791 676 76 115 70 600 1163 1112 51 888 750 697 629 105 524 377 127 56 460
internal_count=2759 2627 561 330 89 241 171 2066 1976 813 61 791 676 76 115 70 600 1163 1112 51 888 750 697 629 105 524 377 127 56 460
is_linear=0
shrinkage=0.05


Tree=6
num_leaves=31
num_cat=0
split_feature=56 2 34 54 4 16 20 23 54 54 2 17 40 23 22 2 23 3 2 3 3 1 54 40 16 34 1 23 2 5
split_gain=118.168 34.4785 31.1959 47.1576 40.6973 32.3028 80.2977 105.357 26.9903 61.058 18.4566 18.006 49.4159 45.6063 39.0249 26.7716 41.7257 30.4822 37.4533 39.4408 23.5595 18.7931 22.2894 18.3717 17.8027 15.9285 15.8525 17.5189 21.486 15.1011
threshold=1.0000000180025095e-35 47586.87738678632 139.50000000000003 47892.17500000001 26.697815501436121 15.465323130604681 20.750390303709583 16.500000000000004 47610.250000000007 47598.950000000004 47588.418351118227 0.017497033270193602 1.4646962424773935 4.5000000000000009 63.636363614765848 48163.668114930493 15.500000000000002 7.0824281653263172 47916.253443983565 4.8309930423921168 10.998186270371766 47925.132746765994 48130.250000000007 1.2595460851013598 3.6872832884781856 120.50000000000001 48876.409142816141 2.5000000000000004 48819.900153396338 47641.588195343691
decision_type=2 2 2 2 2 2 2 2 2 2 2 2 2 2 2 2 2 2 2 2 2 2 2 2 2 2 2 2 2 2
left_child=-1 -2 5 -4 -5 6 8 -8 9 10 -3 15 13 -13 23 16 17 18 29 -20 -16 -21 -23 25 -24 -15 27 28 -17 -10
right_child=1 2 3 4 -6 -7 7 -9 11 -11 -12 12 -14 14 20 26 -18 -19 19 21 -22 22 24 -25 -26 -27 -28 -29 -30 -31
leaf_value=-0.046162291458158783 -0.026626235893410111 0.042136303856968885 0.072510857985502011 0.037061755110013798 -0.012982226971017067 -0.018224766696174 0.12689083229750395 0.0069583347755821151 0.0016336192896395079 0.079191534298782562 -0.013443661122819632 0.054914043648611938 0.084216650165617468 -0.0087307278042247239 0.072612240566657146 -0.02534117752375702 0.046091417593803884 -0.0192872674877827 0.080715229589006177 0.056151360305110844 0.015017997511521181 -0.0033172423513384446 0.048403498453107922 0.037322549600727284 -0.006970843184916746 0.019714141118932854 0.025992066264152527 -0.035972223488137216 0.012384405484996162 -0.016716413966707557
leaf_weight=132 99 20 38 77 86 185 30 47 292 36 59 42 20 468 26 90 48 195 23 22 56 147 47 26 21 55 20 105 65 182
leaf_count=132 99 20 38 77 86 185 30 47 292 36 59 42 20 468 26 90 48 195 23 22 56 147 47 26 21 55 20 105 65 182
internal_value=-4.4256e-11 0.00231954 0.00345309 0.0223517 0.0106582 0.00182068 0.00355196 0.0536853 0.00168259 0.0252213 0.000627216 0.000294407 0.00676527 0.00446359 0.00110556 -0.00327306 0.000633288 -0.00171546 0.0029528 0.0182028 0.0332796 0.0121362 0.00763229 -0.00370003 0.0313026 -0.00573939 -0.0169034 -0.0202031 -0.00952077 -0.00541217
internal_weight=2759 2627 2528 201 163 2327 2142 77 2065 115 79 1950 693 673 631 1257 977 929 734 260 82 237 215 549 68 523 280 260 155 474
internal_count=2759 2627 2528 201 163 2327 2142 77 2065 115 79 1950 693 673 631 1257 977 929 734 260 82 237 215 549 68 523 280 260 155 474
is_linear=0
shrinkage=0.05


Tree=7
num_leaves=31
num_cat=0
split_feature=56 26 35 2 1 3 21 20 26 23 5 2 0 26 26 3 2 21 34 26 3 0 3 17 22 20 23 21 21 20
split_gain=106.647 69.3957 63.3388 98.3558 131.552 62.7071 51.8328 89.2619 28.3309 26.6482 40.8374 62.3954 83.7974 30.3727 22.5296 42.6249 21.8342 19.501 17.6928 16.7776 15.7219 15.2385 25.084 17.0605 22.6609 15.2101 27.7099 17.4422 15.6024 14.7683
threshold=1.0000000180025095e-35 0.34638892114162451 1273.5000000000002 47760.375576514831 47727.645760748732 9.1829777441792277 25.944456954011624 20.750390303709583 0.39436674118041998 22.500000000000004 47939.971995239095 48065.503268983826 47962.250000000007 0.21519819538176202 -0.059508247300982441 4.8309930423921168 48131.380841610604 2.0983838680840798 31.500000000000004 0.14586590230464933 6.1398680205103462 48646.500000000007 13.384126340930022 0.068038593484935114 53.124999982568362 -6.1671446489995345 14.500000000000002 1.599291701680706 3.0015010692860846 1.7271872508293888
decision_type=2 2 2 2 2 2 2 2 2 2 2 2 2 2 2 2 2 2 2 2 2 2 2 2 2 2 2 2 2 2
left_child=-1 9 3 4 -3 8 7 17 18 10 -2 12 -12 14 15 -13 -16 -7 20 25 -5 23 -23 24 -15 -18 27 -27 -28 -17
right_child=1 2 -4 5 -6 6 -8 -9 -10 -11 11 13 -14 21 16 29 19 -19 -20 -21 -22 22 -24 -25 -26 26 28 -29 -30 -31
leaf_value=-0.043854176275657887 -0.0070322599670379141 0.032934194171067438 -0.0022817748804528568 -0.0092785916534591142 0.19544608622090892 -0.0021208892739377917 -0.0026967834914103151 0.15514158502261599 -0.025033314303072984 -0.028639043598798 -0.0012031433851613354 0.076679467766181286 0.10744670088535974 0.096643879264593127 -0.046041633057243687 -0.0010323367684289719 -0.031899110383043688 0.061618553201357534 -0.023063687624579127 0.01162885701060932 0.039718531887046993 0.037417342956980758 -0.029552780595366604 0.0020064969631758602 0.030264043911463687 -0.038773891183916692 0.043184468856988817 -0.0036986571944440574 -0.011133669236442075 0.041850321306644574
leaf_weight=132 1131 33 231 22 20 20 32 23 64 90 36 23 35 20 34 158 66 30 22 117 64 29 27 22 36 53 39 107 20 23
leaf_count=132 1131 33 231 22 20 20 32 23 64 90 36 23 35 20 34 158 66 30 22 117 64 29 27 22 36 53 39 107 20 23
internal_value=-6.59425e-12 0.00220356 0.0177987 0.0318551 0.0942594 0.0199149 0.0503628 0.0736219 0.00132746 -0.00203114 -0.000819239 0.00749665 0.0523566 0.00338159 -0.00115056 0.0125641 -0.00756751 0.0361228 0.0169487 -0.00431347 0.0271844 0.0250276 0.00512818 0.0393144 0.0539711 -0.0108582 -0.00451713 -0.0153173 0.0247715 0.00441684
internal_weight=2759 2627 561 330 53 277 105 73 172 2066 1976 845 71 774 640 204 436 50 108 402 86 134 56 78 56 285 219 160 59 181
internal_count=2759 2627 561 330 53 277 105 73 172 2066 1976 845 71 774 640 204 436 50 108 402 86 134 56 78 56 285 219 160 59 181
is_linear=0
shrinkage=0.05


Tree=8
num_leaves=31
num_cat=0
split_feature=56 26 35 2 52 3 32 3 26 23 5 5 0 26 40 26 3 2 34 24 17 1 20 26 21 35 1 3 20 34
split_gain=96.2487 62.6296 57.1633 88.7661 120.056 56.5932 47.4454 69.1777 25.5687 24.05 36.8558 56.4049 68.2832 27.7687 19.9899 19.4422 38.9436 19.7053 15.9677 15.3537 20.4174 25.2514 16.9419 15.315 14.4764 14.4726 15.4922 14.189 14.132 19.2011
threshold=1.0000000180025095e-35 0.34638892114162451 1273.5000000000002 47760.375576514831 30.222222202074075 9.1829777441792277 2.5000000000000004 10.998186270371766 0.39436674118041998 22.500000000000004 47939.971995239095 48065.046944872105 47962.250000000007 0.21519819538176202 0.92086221021351333 -0.059508247300982441 4.8309930423921168 48131.380841610604 31.500000000000004 48882.700000000004 0.012866637654688451 48849.854924051942 -6.1671446489995345 0.062545496970415115 6.4165649816396799 270.50000000000006 48815.840327232763 6.1398680205103462 -6.5587478094947116 136.50000000000003
decision_type=2 2 2 2 8 2 2 2 2 2 2 2 2 2 2 2 2 2 2 2 2 2 2 2 2 2 2 2 2 2
left_child=-1 9 3 4 -3 8 14 -8 18 10 -2 12 -12 15 -7 16 -13 -17 27 20 25 22 -22 -24 -10 26 -19 -5 -15 -30
right_child=1 2 -4 5 -6 6 7 -9 24 -11 11 13 -14 28 -16 17 -18 19 -20 -21 21 -23 23 -25 -26 -27 -28 -29 29 -31
leaf_value=-0.04166146742575097 -0.0066806468447685469 0.030962029821944959 -0.0021676864477027675 -0.0088146617794832727 0.18621078284457326 -0.022288457422771239 0.036665797481934236 0.15451294798403981 -0.044095433256714736 -0.027207091412403517 -0.0011429866193793715 0.07284549435843593 0.094350571949512532 0.061442151807603387 0.040460302610881627 -0.043739551481078658 0.0036859113108735049 -0.025988959656520323 -0.02191050315953114 0.038607403985224664 -0.026754176007075744 0.054696836216109136 0.02602563174120311 -0.0056284218583771565 0.0040557607611710275 -0.03615787848346419 0.025618121472675389 0.037732605295605029 0.0038217240662808405 0.049567934963852173
leaf_weight=132 1131 33 231 22 20 22 33 20 37 90 36 23 39 21 30 34 177 33 22 20 55 21 58 112 27 77 26 64 81 32
leaf_count=132 1131 33 231 22 20 22 33 20 37 90 36 23 39 21 30 34 177 33 22 20 55 21 58 112 27 77 26 64 81 32
internal_value=5.06311e-11 0.00209338 0.0169088 0.0302623 0.0895465 0.0189191 0.0478447 0.0811364 0.00126109 -0.00192958 -0.000778277 0.00712182 0.0485137 0.00309014 0.0139128 -0.00126825 0.0116393 -0.00718913 0.0161012 -0.0040978 -0.00633368 0.00226121 -0.00263278 0.0051712 -0.0237816 -0.0218803 -0.00324686 0.0258252 0.0237763 0.0167764
internal_weight=2759 2627 561 330 53 277 105 53 172 2066 1976 845 75 770 52 636 200 436 108 402 382 246 225 170 64 136 59 86 134 113
internal_count=2759 2627 561 330 53 277 105 53 172 2066 1976 845 75 770 52 636 200 436 108 402 382 246 225 170 64 136 59 86 134 113
is_linear=0
shrinkage=0.05


Tree=9
num_leaves=31
num_cat=0
split_feature=56 26 35 2 47 17 35 29 40 26 23 0 2 26 22 26 17 2 22 34 52 17 16 26 4 2 48 20 23 16
split_gain=86.8644 56.5232 51.5898 80.1114 110.478 51.0754 44.1152 45.8422 33.2456 23.0757 21.7051 32.7981 114.202 24.5992 25.805 19.1223 32.341 18.5476 18.9283 14.4109 14.4012 17.2736 19.8313 19.1751 14.6178 18.5613 15.4711 14.1885 13.7499 33.4923
threshold=1.0000000180025095e-35 0.34638892114162451 1273.5000000000002 47760.375576514831 3.5899784448495251 0.019152505602984853 916.50000000000011 0.76610965617945259 0.97110183568632868 0.39436674118041998 22.500000000000004 47962.250000000007 48055.351300324983 0.24576915800571444 49.999999990512826 -0.059508247300982441 0.010007801685996352 48131.380841610604 65.321772864587672 31.500000000000004 96.388888844863331 0.054567236249592359 25.944456954011624 0.27834790945053106 12.635425049986724 47618.567387112773 1.9048539394475348 12.004570560715688 14.500000000000002 8.56335322163517
decision_type=2 2 2 2 10 2 2 2 2 2 2 2 2 2 2 2 2 2 2 2 8 2 2 2 2 2 2 2 2 2
left_child=-1 10 3 4 -3 9 8 -8 -7 19 11 20 -13 15 -15 16 -14 -17 -19 -5 21 23 -23 24 25 -2 27 28 -26 -30
right_child=1 2 -4 5 -6 6 7 -9 -10 -11 -12 12 13 14 -16 17 -18 18 -20 -21 -22 22 -24 -25 26 -27 -28 -29 29 -31
leaf_value=-0.039578392966227102 -0.0081078379675198122 0.17779745975509287 -0.0020593020199189262 0.024533906737802726 0.028870162480708325 -0.01163397642305574 0.033929682823575356 0.13720963938117384 0.063004411246627576 -0.022592566147068283 -0.025846737026909573 0.104401537801685 0.069506446001204578 0.073598004464822064 0.013189476035121415 -0.041552573902642026 0.0055046838366858237 -0.009155098419793159 0.015479080417889705 -0.020814978221262045 -0.038683483004570009 0.059081994945352725 -0.0088475170234839137 -0.020137354235833928 -0.0084676572301451182 0.043067783284680666 0.026485150946757283 -0.043664931416511538 0.028124033092310475 -0.025331383612420821
leaf_weight=132 34 20 231 86 33 37 22 21 25 64 90 29 22 22 90 34 192 321 103 22 33 22 21 206 619 37 37 25 84 45
leaf_count=132 34 20 231 86 33 37 22 21 25 64 90 29 22 22 90 34 192 321 103 22 33 22 21 206 619 37 37 25 84 45
internal_value=-5.81101e-11 0.00198871 0.0160633 0.0287492 0.0850691 0.0179732 0.0454525 0.0843687 0.0184621 0.00119804 -0.0018331 -0.000739364 0.00696515 0.003361 0.0250554 -0.000254744 0.0120843 -0.00602015 -0.00317085 0.0152962 -0.00612524 -0.00517442 0.0259071 -0.00640396 -0.00319274 0.0185611 -0.00509956 -0.00661138 -0.00537296 0.00947679
internal_weight=2759 2627 561 330 53 277 105 43 62 172 2066 1976 813 784 112 672 214 458 424 108 1163 1130 43 1087 881 71 810 773 748 129
internal_count=2759 2627 561 330 53 277 105 43 62 172 2066 1976 813 784 112 672 214 458 424 108 1163 1130 43 1087 881 71 810 773 748 129
is_linear=0
shrinkage=0.05


Tree=10
num_leaves=31
num_cat=0
split_feature=56 26 2 54 2 54 54 23 2 54 20 54 23 44 26 20 20 2 54 22 16 47 34 3 3 26 2 29 2 4
split_gain=78.3951 51.2083 123.501 34.2322 24.325 23.7028 48.0992 28.7514 27.0875 60.7367 137.39 27.1985 29.9005 25.1859 18.9849 25.6841 18.8048 19.8591 18.2609 17.938 28.1173 17.8512 16.0711 17.3805 15.8327 15.4935 20.6033 15.1461 14.8877 14.3183
threshold=1.0000000180025095e-35 0.43316359817981726 47768.966002659152 48150.250000000007 47586.87738678632 47612.000000000007 47598.950000000004 14.500000000000002 47916.253443983565 48117.950000000004 18.810912551143549 47962.250000000007 6.5000000000000009 1.6883203428153852 0.14586590230464933 -8.3479515525298673 -6.1671446489995345 48161.136202793881 47929.950000000004 51.928389281269624 8.8432132050837442 10.238636345606524 138.50000000000003 30.114553315132298 3.0132735319722124 0.35100986063480383 48145.325734184589 0.99999250006249951 47588.418351118227 15.129492026051816
decision_type=2 2 2 2 2 2 2 2 2 2 2 2 2 2 2 2 2 2 2 2 2 8 2 2 2 2 2 2 2 2
left_child=-1 4 -3 19 -2 6 28 -8 21 10 11 12 18 27 16 -16 -11 -18 -10 20 29 22 24 -24 -7 26 -17 -13 -6 -4
right_child=1 2 3 -5 5 8 7 -9 9 14 -12 13 -14 -15 15 25 17 -19 -20 -21 -22 -23 23 -25 -26 -27 -28 -29 -30 -31
leaf_value=-0.037599473943312964 -0.024388339094208518 0.12785065530512771 0.030230605881661179 0.07088098313127246 0.037134526315189542 0.02220697523682082 0.021076564341783524 0.10304658613370166 -0.04282247489318252 -0.024875363726098849 0.1302769609623485 0.027764586181867692 0.020599530667711335 0.0064958078261369324 0.044873168280250147 -0.030052048493834107 0.013845221037239147 -0.01046619671118346 -0.00018095478220414875 -0.01355115288606612 0.07124017016030848 -0.03734728261909407 0.055473714872178705 -0.0081201023289135515 -0.0086398747480435304 -0.019477721726787942 0.011256882484520173 0.08352122513079567 -0.011113392584957183 -0.021978796986413415
leaf_weight=132 99 26 24 21 21 44 20 23 38 133 27 21 130 39 38 34 120 280 74 80 20 46 22 21 762 70 269 29 67 29
leaf_count=132 99 26 24 21 21 44 20 23 38 133 27 21 130 39 38 34 120 280 74 80 20 46 22 21 762 70 269 29 67 29
internal_value=-5.03257e-11 0.00188928 0.0262074 0.0110193 -0.000114688 0.000917568 0.0215789 0.064921 -0.000314398 0.00428865 0.0218248 0.0129783 0.00428634 0.0366125 -0.00236172 0.00571307 -0.00858824 -0.00317277 -0.0146486 0.00280301 0.0207254 -0.00701067 -0.00536699 0.0244163 -0.00695593 0.00172357 0.00662156 0.0601034 0.000400315 0.0016632
internal_weight=2759 2627 200 174 2427 2328 131 43 2197 1302 358 331 242 89 944 411 533 400 112 153 73 895 849 43 806 373 303 50 88 53
internal_count=2759 2627 200 174 2427 2328 131 43 2197 1302 358 331 242 89 944 411 533 400 112 153 73 895 849 43 806 373 303 50 88 53
is_linear=0
shrinkage=0.05


Tree=11
num_leaves=31
num_cat=0
split_feature=56 26 40 5 3 35 29 0 5 47 34 23 5 5 0 26 22 20 26 20 26 1 23 23 24 29 17 17 24 4
split_gain=70.7516 46.684 46.2837 85.3705 39.7089 48.6865 31.7189 20.5802 23.3374 30.3008 20.8135 19.1023 28.1444 44.0513 52.5358 21.7711 22.4682 15.0618 29.4688 14.3453 23.1302 24.4906 21.9958 17.5719 15.1282 15.1328 14.2303 14.0989 15.2706 14.9438
threshold=1.0000000180025095e-35 0.34638892114162451 1.0957848719126149 47758.015790933561 10.463910102200545 1322.0000000000002 0.042572436955227506 48178.100000000006 47864.148445342529 5.6666666587962977 140.50000000000003 22.500000000000004 47939.971995239095 48065.046944872105 47962.250000000007 0.24576915800571444 49.999999990512826 7.3356930156835043 0.39486707746982574 -7.6981719467746226 -0.059508247300982441 48124.992017063007 2.5000000000000004 21.500000000000004 48882.700000000004 0.52744328174315103 0.012344946943416002 0.044513012792973108 47913.67500000001 19.139268935675474
decision_type=2 2 2 2 2 2 2 2 2 10 2 2 2 2 2 2 2 2 2 2 2 2 2 2 2 2 2 2 2 2
left_child=-1 11 6 -4 -5 -6 -3 8 17 10 27 12 -2 14 -14 19 -17 -8 -19 -15 21 -21 -23 24 25 -22 -27 29 -29 -10
right_child=1 2 3 4 5 -7 7 -9 9 -11 -12 -13 13 15 -16 16 -18 18 -20 20 23 22 -24 -25 -26 26 -28 28 -30 -31
leaf_value=-0.035719501069097812 -0.0058102629329452576 0.0631344584748149 0.12093836076987477 -0.0037255700549407716 0.11284750217483158 0.013584096456567447 -0.023269454720675164 -0.023967818579957136 0.027605120561157284 0.063682017475366601 0.052155003301799299 -0.024206343467424937 -0.00072548432249782812 -0.014250316300221081 0.083036044803567424 0.068362052035941326 0.011994381205230539 0.052308884977052605 -0.02319476800704641 0.065223813286194435 0.0059974607677114287 0.038405221269079831 -0.0097939935458790789 0.028569344123825433 0.035749500058591364 -0.036781611151638485 -0.0084643436307087535 0.006954886324703694 -0.050162198546935211 -0.012918652316688428
leaf_weight=132 1131 23 26 69 21 30 76 61 65 31 25 90 36 152 39 22 90 24 28 26 110 41 56 40 20 63 150 25 22 35
leaf_count=132 1131 23 26 69 21 30 76 61 65 31 25 90 36 152 39 22 90 24 28 26 110 41 56 40 20 63 150 25 22 35
internal_value=-2.43928e-11 0.00179481 0.0145859 0.038799 0.0210021 0.0544573 0.00606756 0.00271925 0.00763741 0.0181798 0.00997883 -0.00167847 -0.000652402 0.0062512 0.0428305 0.00268828 0.0230666 -0.00908218 0.0116531 -0.000780376 0.00326593 0.0221298 0.0105789 -0.00279219 -0.00644951 -0.00906245 -0.0168399 0.00280601 -0.0197808 0.0134218
internal_weight=2759 2627 561 146 120 51 415 392 331 203 172 2066 1976 845 75 770 112 128 52 658 506 123 97 383 343 323 213 147 47 100
internal_count=2759 2627 561 146 120 51 415 392 331 203 172 2066 1976 845 75 770 112 128 52 658 506 123 97 383 343 323 213 147 47 100
is_linear=0
shrinkage=0.05


Tree=12
num_leaves=31
num_cat=0
split_feature=56 26 2 0 2 24 24 23 2 24 22 0 23 44 24 22 16 47 26 20 20 2 1 5 1 26 2 1 16 16
split_gain=63.8533 43.4512 108.851 28.7651 21.5348 20.9365 42.7671 24.9028 22.7094 51.4601 127.914 17.0887 28.6955 21.3695 16.4887 16.1762 25.0588 15.9553 15.4053 22.4474 16.316 17.0636 26.8651 13.9514 30.1181 13.9158 18.0727 13.3895 25.9102 15.9076
threshold=1.0000000180025095e-35 0.43316359817981726 47768.966002659152 48151.000000000007 47586.87738678632 47612.000000000007 47598.950000000004 14.500000000000002 47916.253443983565 48117.950000000004 73.076923044132158 47962.250000000007 6.5000000000000009 1.5241298847238938 47929.950000000004 51.928389281269624 8.8432132050837442 10.238636345606524 0.14586590230464933 -8.3479515525298673 -6.1671446489995345 48154.477061895617 48132.805976553682 47827.749990784134 47804.54299066298 0.35100986063480383 48145.325734184589 47641.178683465238 6.6038590055339261 2.1272530038391837
decision_type=2 2 2 2 2 2 2 2 2 2 2 2 2 2 2 2 2 8 2 2 2 2 2 2 2 2 2 2 2 2
left_child=-1 4 -3 15 -2 6 -6 -8 17 10 11 12 14 -13 -10 16 -4 23 20 -20 -11 22 -22 24 27 26 -21 28 29 -7
right_child=1 2 3 -5 5 8 7 -9 9 18 -12 13 -14 -15 -16 -17 -18 -19 19 25 21 -23 -24 -25 -26 -27 -28 -29 -30 -31
leaf_value=-0.033933525555061572 -0.022979984853905861 0.11952987061097071 0.0013391742377348668 0.064720625785135086 0.00027839548525993122 0.0078658872252602256 0.02031324937939644 0.096600073689351917 -0.040447105423816923 -0.023014256810853468 0.1368293446573344 0.05187846519984305 0.021436056271042739 0.0067633632640793639 0.00036179483343492933 -0.0132150250255836 0.067023027809336777 -0.03513918974861989 0.041649120634323675 -0.028395831924589245 -0.0028575625204368786 -0.0082433254215137346 0.056082531552890252 -0.01630181615091358 0.034087214110821322 -0.018782956406856621 0.01029314189864977 -0.013889617213539575 0.049564036497702968 -0.014158202362657329
leaf_weight=132 99 26 53 21 88 178 20 23 38 133 22 52 122 53 71 80 20 46 38 34 58 313 29 204 55 70 269 234 26 152
leaf_count=132 99 26 53 21 88 178 20 23 38 133 22 52 122 53 71 80 20 46 38 34 58 313 29 204 55 70 269 234 26 152
internal_value=1.20524e-11 0.00170507 0.0241057 0.00984694 -0.000140881 0.000830369 0.0202486 0.0611178 -0.000327477 0.0038872 0.0200287 0.0123811 0.00477877 0.0291061 -0.0138652 0.00231526 0.0193348 -0.00645877 -0.00223426 0.00503955 -0.00784316 -0.00279877 0.0167891 -0.00490483 -0.0013002 0.00130989 0.0059518 -0.00459902 0.00150771 -0.00227854
internal_weight=2759 2627 200 174 2427 2328 131 43 2197 1302 358 336 231 105 109 153 73 895 944 411 533 400 87 849 645 373 303 590 356 330
internal_count=2759 2627 200 174 2427 2328 131 43 2197 1302 358 336 231 105 109 153 73 895 944 411 533 400 87 849 645 373 303 590 356 330
is_linear=0
shrinkage=0.05


Tree=13
num_leaves=31
num_cat=0
split_feature=56 26 2 0 2 24 24 23 20 23 16 52 22 16 2 1 4 4 44 5 5 0 5 16 23 0 20 0 24 17
split_gain=57.6276 39.2147 98.2376 25.9605 19.4351 18.8952 38.5973 22.4748 20.7123 88.8072 24.5002 17.673 14.5991 22.6156 12.9101 15.8357 12.2011 11.8674 11.4556 11.405 22.8831 25.8526 31.5117 29.9033 24.7441 18.6932 16.1703 15.5975 14.6638 13.5867
threshold=1.0000000180025095e-35 0.43316359817981726 47768.966002659152 48151.000000000007 47586.87738678632 47612.000000000007 47598.950000000004 14.500000000000002 22.746042426155896 14.500000000000002 16.506281905323263 121.63005533959482 51.928389281269624 8.8432132050837442 47588.418351118227 47593.744145420635 15.129492026051816 26.19963539030174 3.0611637265866758 47916.180118135577 48125.380260225233 47962.250000000007 48057.775112698982 7.3214500417232609 6.5000000000000009 48126.80000000001 -20.112645662421642 47931.950000000004 47929.950000000004 0.013129774048681401
decision_type=2 2 2 2 2 2 2 2 2 2 2 8 2 2 2 2 2 2 2 2 2 2 2 2 2 2 2 2 2 2
left_child=-1 4 -3 12 -2 6 14 -8 11 -10 -11 19 13 16 -6 -16 -4 -12 -19 -7 21 24 -23 -24 28 -22 -27 -26 -21 -29
right_child=1 2 3 -5 5 8 7 -9 9 10 17 -13 -14 -15 15 -17 -18 18 -20 20 25 22 23 -25 27 26 -28 29 -30 -31
leaf_value=-0.03223684953920769 -0.021830985287787638 0.11355337926114982 0.02764312631140153 0.061484594572158095 0.034471973120456655 -0.0060964270493678134 0.019297587350010872 0.091770069949004968 0.10686970306155474 0.028836191191187351 0.0089117704584860992 -0.038326066625163413 -0.012554273606801872 0.063671875447034829 -0.02631413016389025 0.026806326899677515 -0.020551986491371847 -0.02823171601893092 0.014608819335699082 -0.038424749701823059 -0.034867428364448776 0.085637450412563654 0.048742023129493765 -0.014919777846496021 0.035076582447990133 0.03776937333437113 -0.0023515163887174624 -0.03223907920931067 -0.00021323318517691382 0.018912606439827121
leaf_weight=132 99 26 24 21 21 776 20 23 23 68 67 33 80 20 47 20 29 71 20 38 43 23 39 35 69 26 737 21 74 34
leaf_count=132 99 26 24 21 21 776 20 23 23 68 67 33 80 20 47 20 29 71 20 38 43 23 39 35 69 26 737 21 74 34
internal_value=-6.61403e-11 0.00161982 0.0229004 0.00935459 -0.000133837 0.000788851 0.0192362 0.0580619 -0.000311103 0.0132678 0.00374192 -0.0020468 0.0021995 0.018368 0.000264476 -0.0104573 0.00127222 -0.00705814 -0.0188162 -0.00142162 0.00176332 0.0127891 0.0345197 0.0186317 0.00385751 -0.00279201 -0.000984356 0.0192443 -0.0131779 -0.000618037
internal_weight=2759 2627 200 174 2427 2328 131 43 2197 249 226 1948 153 73 88 67 53 158 91 1915 1139 333 97 74 236 806 763 124 112 55
internal_count=2759 2627 200 174 2427 2328 131 43 2197 249 226 1948 153 73 88 67 53 158 91 1915 1139 333 97 74 236 806 763 124 112 55
is_linear=0
shrinkage=0.05


Tree=14
num_leaves=31
num_cat=0
split_feature=56 26 40 5 17 22 0 28 22 23 5 5 0 26 22 34 44 4 4 47 35 47 26 17 1 52 34 20 16 17
split_gain=52.0089 35.4068 39.0403 71.7844 36.1422 45.6135 23.6296 22.3994 17.234 16.7988 21.9165 34.1841 55.0613 17.7245 19.2448 14.8388 15.5308 16.9847 14.8799 14.3178 13.5564 13.3532 13.3337 23.7251 16.0496 13.6587 13.0415 12.3069 11.5495 11.2593
threshold=1.0000000180025095e-35 0.34638892114162451 1.0957848719126149 47758.015790933561 0.023205534816557554 76.100803088358631 48178.100000000006 0.54999999999927252 48.912529535934119 22.500000000000004 47939.971995239095 48057.775112698982 47962.250000000007 0.24576915800571444 49.999999990512826 140.50000000000003 0.82130311716962345 24.554009146942658 14.567554561141367 5.6666666587962977 1329.5000000000002 5.6348484787856306 -0.059508247300982441 0.010007801685996352 48127.451389500457 13.999999953333335 134.50000000000003 1.7271872508293888 11.582301052864983 0.0061637874673547508
decision_type=2 2 2 2 2 2 2 2 2 2 2 2 2 2 2 2 2 2 2 10 2 8 2 2 2 10 2 2 2 2
left_child=-1 9 6 -4 -5 -6 7 8 -3 10 29 12 -12 22 -15 16 18 19 20 -18 -9 -10 23 -13 -24 -26 28 -25 -16 -2
right_child=1 2 3 4 5 -7 -8 15 21 -11 11 13 -14 14 26 -17 17 -19 -20 -21 -22 -23 24 27 25 -27 -28 -29 -30 -31
leaf_value=-0.030625006308158238 0.021680172538311272 -0.0043407449397541908 0.11023663282394409 -0.0041990470508454555 0.093405684715669068 -0.0040767159490358263 -0.022580709690792542 0.034647125248253967 0.028878559377522039 -0.022611939461850045 -0.00089767085802223946 0.059139595248482446 0.091678633386718819 0.062993034301325676 0.01377309019716972 0.041290300400198807 0.010961157091539997 -0.016138070862035496 -0.028097734550460125 0.05622618389129639 -0.016999265927545453 0.077595949376171286 -0.04790173598698208 -0.00051407890098000117 -0.008310658029454512 0.011996296970257621 0.044287481675432491 0.038526597378127608 -0.030828298326759113 -0.0060055315752078299
leaf_weight=132 38 23 26 71 28 21 66 24 39 90 36 22 29 22 47 23 58 37 71 25 27 22 21 165 326 111 22 23 21 1093
leaf_count=132 38 23 26 71 28 21 66 24 39 90 36 22 29 22 47 23 58 37 71 25 27 22 21 165 326 111 22 23 21 1093
internal_value=5.72847e-11 0.00153883 0.0126784 0.0349162 0.0185968 0.0516275 0.00485492 0.0100433 0.0325421 -0.00148599 -0.000523778 0.0055683 0.0404056 0.00266519 0.0210724 0.00291163 -0.000735931 0.0120358 -0.0132983 0.0245952 0.00730492 0.0464488 -0.000421051 0.0100112 -0.00520441 -0.0031526 0.0108252 0.00426217 -8.68023e-07 -0.00507533
internal_weight=2759 2627 561 146 120 49 415 349 84 2066 1976 845 65 780 112 265 242 120 122 83 51 61 668 210 458 437 90 188 68 1131
internal_count=2759 2627 561 146 120 49 415 349 84 2066 1976 845 65 780 112 265 242 120 122 83 51 61 668 210 458 437 90 188 68 1131
is_linear=0
shrinkage=0.05


Tree=15
num_leaves=31
num_cat=0
split_feature=56 26 40 0 29 3 5 48 45 32 1 24 44 29 5 24 22 17 44 5 5 17 16 16 23 1 3 3 24 5
split_gain=46.9381 33.0131 79.2042 17.1088 34.282 17.5622 17.2665 16.9142 15.5926 14.1857 13.588 41.584 21.1731 13.0607 11.7761 35.1417 70.5091 17.9978 13.6485 17.3395 21.0262 13.3339 20.6273 13.3294 13.1899 33.2544 22.7626 13.9074 13.6614 12.4523
threshold=1.0000000180025095e-35 0.43316359817981726 1.2595460851013598 47900.17500000001 0.42567105078455275 20.850209843672008 47783.218847348799 2.1400205161333612 2.3327501853101129 1.5000000000000002 47591.340159249514 47609.17500000001 1.277165874302739 0.79999786667295381 47916.180118135577 48117.950000000004 71.834935868827003 0.011889471606090952 1.3564854229756207 47954.240148485296 47921.337704001628 0.053028223109577062 22.049295781323448 8.56335322163517 11.500000000000002 47631.969074035012 11.411057012234506 3.0132735319722124 47619.17500000001 47825.914270717803
decision_type=2 2 2 2 2 2 2 2 2 2 2 2 2 2 2 2 2 2 2 2 2 2 2 2 2 2 2 2 2 2
left_child=-1 7 3 4 -3 13 -6 9 -9 -2 -11 12 -12 -5 21 16 17 -16 19 20 -19 23 -23 24 27 -26 -27 28 -13 -28
right_child=1 2 -4 5 6 -7 -8 8 -10 10 11 14 -14 -15 15 -17 -18 18 -20 -21 -22 22 -24 -25 25 26 29 -29 -30 -31
leaf_value=-0.029093756549286122 -0.036757032549077716 0.083366898894309996 0.10619529963781436 -0.012437368595811467 -0.02276645377636529 -0.028913434765612086 0.032484773952033252 -0.0026846894691698255 0.056546474695205684 -0.014235364946399593 0.013546211411206363 -0.011792183880295072 0.079962060196946072 0.03561594537909954 0.055313480421900756 -0.0022807045510612931 0.089665553520123176 0.044740170538425446 -0.009787934220262938 0.045532249273466219 -0.0014753794440333426 0.048267562857604238 -0.010398517735302449 -0.021629904907024503 0.053382663552959765 -0.04463998595109353 0.021423104454118474 -0.010323370453713343 0.042429113249258639 -0.012572375397481348
leaf_weight=132 27 20 24 26 26 42 31 20 25 163 24 21 24 31 20 931 30 30 91 35 137 29 31 123 33 26 65 470 26 46
leaf_count=132 27 20 24 26 26 42 31 20 25 163 24 21 24 31 20 931 30 30 91 35 137 29 31 123 33 26 65 470 26 46
internal_value=1.32259e-11 0.00146189 0.0209874 0.00936816 0.0270447 -0.00438022 0.00728246 -0.00014714 0.0302215 -0.000720855 -0.000307701 0.000727978 0.0467541 0.0136969 -0.000302458 0.00275974 0.0164409 0.0094226 0.00629012 0.0135332 0.00682682 -0.00478664 0.0179568 -0.00647133 -0.00375735 0.00832448 -0.00252896 -0.0077301 0.0182026 0.00733489
internal_weight=2759 2627 200 176 77 99 57 2427 45 2382 2355 2192 48 57 2144 1274 343 313 293 202 167 870 60 810 687 170 137 517 47 111
internal_count=2759 2627 200 176 77 99 57 2427 45 2382 2355 2192 48 57 2144 1274 343 313 293 202 167 870 60 810 687 170 137 517 47 111
is_linear=0
shrinkage=0.05


Tree=16
num_leaves=31
num_cat=0
split_feature=56 26 2 0 2 48 45 47 37 20 37 22 16 23 20 3 23 2 0 3 2 40 4 4 30 26 32 23 23 40
split_gain=42.3616 29.7943 83.1251 21.2576 16.1852 15.6642 15.7813 15.3454 15.9214 34.0741 20.293 13.7742 19.6085 13.3087 63.859 24.3034 53.9866 16.9469 14.3534 13.1952 12.8693 10.2542 9.88529 9.5786 9.42573 9.61871 9.28983 9.18754 14.5954 11.3751
threshold=1.0000000180025095e-35 0.43316359817981726 47768.966002659152 48151.000000000007 47586.87738678632 2.1400205161333612 2.3327501853101129 3.4999999970833335 0.00034336159676900008 22.746042426155896 0.00068696357009960009 51.928389281269624 8.8432132050837442 10.500000000000002 13.761772125180613 6.780866369294408 14.500000000000002 48157.417162637787 47971.150000000009 10.463910102200545 47626.465412397483 1.1852682720905963 15.129492026051816 23.050853128538588 0.5250000000014553 0.34622757136821752 1.5000000000000002 2.5000000000000004 19.500000000000004 0.88295010284148423
decision_type=2 2 2 2 2 2 2 10 2 2 2 2 2 2 2 2 2 2 2 2 2 2 2 2 2 2 2 2 2 2
left_child=-1 4 -3 11 -2 7 -7 26 13 10 -10 12 22 14 17 16 -15 18 24 -17 -12 -20 -4 -19 -9 -26 -6 -22 -29 -30
right_child=1 2 3 -5 5 6 -8 8 9 -11 20 -13 -14 15 -16 19 -18 23 21 -21 27 -23 -24 -25 25 -27 -28 28 29 -31
leaf_value=-0.027639069250135713 -0.019939917112898196 0.103327125643577 0.024526037229225042 0.054650103478204641 -0.034919180707247172 -0.0025504556938540195 0.057587328584243862 0.015476786057142734 0.054906950305615154 0.073021611717084184 0.036671850502413388 -0.013327954172564205 0.058892663978040216 -0.0065415841699750336 0.092333284588087178 -0.017382915185237501 0.079013175474080655 -0.031156323046636084 0.038963837761964118 -0.0021305872263925811 0.028572074812836946 0.0050429362048571178 -0.018854818827119368 -0.0018672340451149454 -0.0069525546219360804 0.021559724328773365 -0.0049875918560965855 -0.020003899395555618 -0.010527219448122196 0.042161252172220325
leaf_weight=132 99 26 24 21 27 20 24 107 21 23 24 80 20 54 21 190 28 46 56 559 20 37 29 71 191 35 650 83 20 21
leaf_count=132 99 26 24 21 27 20 24 107 21 23 24 80 20 54 21 190 28 46 56 559 20 37 29 71 191 35 650 83 20 21
internal_value=-8.01321e-11 0.00138879 0.019938 0.00747761 -0.000139783 0.000702233 0.030252 0.000132974 0.00279307 0.0155596 0.00856683 0.00100295 0.0167081 0.00085293 0.00678097 -0.00317043 0.0226722 0.00347232 0.00810148 -0.00599967 0.00277431 0.0254684 0.000789342 -0.0133826 0.00325126 -0.00253694 -0.00618132 -0.00287528 -0.00794743 0.0164596
internal_weight=2759 2627 200 174 2427 2328 44 2284 1607 212 189 153 73 1395 564 831 82 543 426 749 168 93 53 117 333 226 677 144 124 41
internal_count=2759 2627 200 174 2427 2328 44 2284 1607 212 189 153 73 1395 564 831 82 543 426 749 168 93 53 117 333 226 677 144 124 41
is_linear=0
shrinkage=0.05


Tree=17
num_leaves=31
num_cat=0
split_feature=56 26 40 2 29 17 52 23 5 2 0 26 22 17 0 5 47 44 26 2 34 20 26 1 23 23 5 16 23 17
split_gain=38.2313 27.0526 31.1364 83.7559 24.6088 24.3951 33.2376 14.535 17.792 29.7615 58.2668 15.8582 18.0282 17.0688 14.2504 19.9143 22.1875 19.273 22.8365 17.7921 11.9494 11.926 18.2413 16.3013 18.8532 15.7844 12.771 12.5583 10.9023 12.1322
threshold=1.0000000180025095e-35 0.34638892114162451 1.0957848719126149 47760.375576514831 0.042572436955227506 0.023205534816557554 -44.603017205794615 22.500000000000004 47939.971995239095 48055.351300324983 47962.250000000007 0.24576915800571444 56.249999990976569 0.047871088383319105 48178.100000000006 47864.148445342529 5.6666666587962977 1.277165874302739 0.39486707746982574 47899.475297675082 55.500000000000007 -7.6981719467746226 -0.059508247300982441 48124.992017063007 2.5000000000000004 21.500000000000004 48128.51236373475 1.9315825471767545 16.500000000000004 0.020880903911110502
decision_type=2 2 2 2 2 2 10 2 2 2 2 2 2 2 2 2 10 2 2 2 2 2 2 2 2 2 2 2 2 2
left_child=-1 7 4 -4 -3 20 -7 8 -2 10 -10 21 13 -13 15 17 19 -6 -19 -17 -5 -11 23 -23 -25 26 -24 -28 29 -29
right_child=1 2 3 5 14 6 -8 -9 9 11 -12 12 -14 -15 -16 16 -18 18 -20 -21 -22 22 25 24 -26 -27 27 28 -30 -31
leaf_value=-0.026257114880012745 -0.0045305693399658878 0.054335170025613326 0.11227493810539063 0.0079519793172093001 -0.024763350050169521 0.0042051100896464454 0.088076558709144603 -0.020975624819596611 -0.002022633142769337 -0.012327872789558892 0.097340250208973897 0.010657565903273367 0.0031133241344694839 0.071803924318403003 -0.021086566431875356 0.047868035749221848 0.053888293442827077 0.055839943028986455 -0.015226064894634945 0.0014580544804826984 -0.036862194041411084 0.051182001156191675 -0.042503262920813134 0.035293516089640015 -0.0093299053910803724 0.02754002709873021 -0.019735968251258049 0.0038718722025805619 -0.016744253306903625 0.043472636761990466
leaf_weight=132 1131 23 26 51 82 27 21 90 36 161 25 21 66 25 61 24 31 20 26 148 21 31 22 41 56 40 84 160 55 22
leaf_count=132 1131 23 26 51 82 27 21 90 36 161 25 21 66 25 61 24 31 20 26 148 21 31 22 41 56 40 84 160 55 22
internal_value=-3.35364e-11 0.00131935 0.0110564 0.030916 0.00406968 0.0132883 0.0408989 -0.00132465 -0.000429611 0.00505936 0.0386999 0.00244193 0.0198606 0.0438893 0.00112043 0.00521296 0.0149515 -0.0102318 0.0156722 0.00793387 -0.00511882 -0.000461182 0.00327764 0.0196188 0.00953154 -0.00218363 -0.00564994 -0.00312417 0.00276356 0.00865878
internal_weight=2759 2627 561 146 415 120 48 2066 1976 845 61 784 112 46 392 331 203 128 46 172 72 672 511 128 97 383 343 321 237 182
internal_count=2759 2627 561 146 415 120 48 2066 1976 845 61 784 112 46 392 331 203 128 46 172 72 672 511 128 97 383 343 321 237 182
is_linear=0
shrinkage=0.05


Tree=18
num_leaves=31
num_cat=0
split_feature=26 2 17 3 2 40 4 2 26 34 3 4 20 0 26 3 4 37 37 34 17 20 2 26 20 0 34 22 0 20
split_gain=31.0759 28.5634 30.6826 127.764 47.3803 60.7671 27.5102 17.8882 19.5871 34.3217 59.9821 26.783 30.8572 23.2633 20.1831 19.6801 14.6426 15.1162 25.9607 14.4319 14.0106 13.6629 13.509 30.3357 13.3823 13.0916 12.7699 13.8016 12.6605 17.0508
threshold=0.34638892114162451 48167.808735955201 0.029186689012786305 10.998186270371766 47760.375576514831 1.0387079563136883 20.015679871092839 47916.253443983565 0.16810236126184461 43.500000000000007 11.351236190987246 28.993548147481949 -6.5587478094947116 48590.500000000007 -0.059508247300982441 4.8309930423921168 13.61020178612605 0.00034336159676900008 0.028188149053146004 122.50000000000001 0.029186689012786305 -15.95477480129502 47618.567387112773 0.27815321087837225 -0.066795093059754534 47938.17500000001 140.50000000000003 57.547090729676533 47653.750000000007 2.6916039939146699
decision_type=2 2 2 2 2 2 2 2 2 2 2 2 2 2 2 2 2 2 2 2 2 2 2 2 2 2 2 2 2 2
left_child=7 2 3 4 5 -2 -6 16 14 25 -11 12 -12 -14 15 -9 22 19 -19 28 -16 -4 -1 24 -24 -10 -23 -28 29 -18
right_child=1 -3 21 -5 6 -7 -8 8 9 10 11 -13 13 -15 20 -17 17 18 -20 -21 -22 26 23 -25 -26 -27 27 -29 -30 -31
leaf_value=-0.0090422052362312873 0.0069443588759750124 -0.017782355069678714 0.039245306852866306 0.1482802773267031 0.025921839194069075 0.11955797115097876 -0.012645923657342793 0.052009022948534593 0.015803570957255684 0.10812644829973579 0.084057815372943878 -0.022334641508225884 0.048627253779859256 -0.0042963308115888926 -0.0052609234434176548 0.0042584199315593456 -0.014965160245007679 0.034857911191880704 -0.010546769616741907 0.011465347133156273 -0.032260421351357191 -0.0098009370779310254 0.019822283815592531 -0.016438279325816912 0.075745306293601586 -0.032547136456040397 0.051439360938966276 -0.00011383405433514634 -0.022685573685638869 0.0048419016238011713
leaf_weight=60 25 77 22 20 86 23 100 23 21 20 20 35 33 56 436 349 369 50 85 62 54 151 20 29 23 42 20 37 257 154
leaf_count=60 25 77 22 20 86 23 100 23 21 20 20 35 33 56 436 349 369 50 85 62 54 151 20 29 23 42 20 37 257 154
internal_value=-6.44778e-11 0.0105036 0.0150036 0.0269832 0.0166159 0.060905 0.00518648 -0.00268086 0.00187102 0.0149382 0.0269883 0.0157191 0.0279382 0.015327 -0.0015701 0.00721074 -0.00715065 -0.00926245 0.00626978 -0.0117528 -0.00823638 0.00177405 0.00847989 0.0230816 0.0497346 -0.0164302 -0.00218926 0.017975 -0.0135983 -0.00913287
internal_weight=2759 561 484 254 234 48 186 2198 1089 227 164 144 109 89 862 372 1109 977 135 842 490 230 132 72 43 63 208 57 780 523
internal_count=2759 561 484 254 234 48 186 2198 1089 227 164 144 109 89 862 372 1109 977 135 842 490 230 132 72 43 63 208 57 780 523
is_linear=0
shrinkage=0.05


Tree=19
num_leaves=31
num_cat=0
split_feature=56 26 2 24 2 24 24 23 2 24 22 16 5 23 17 31 22 16 2 24 44 52 2 1 47 24 2 2 35 3
split_gain=32.5831 23.8893 70.5364 17.4195 14.2407 13.8248 30.1336 15.3585 13.333 33.0164 91.7564 12.9549 13.5365 22.4444 20.2725 15.2086 11.9099 17.0147 11.4186 30.275 18.6677 10.2699 9.71434 12.6914 9.5992 9.38592 14.8022 12.9784 10.0291 13.0833
threshold=1.0000000180025095e-35 0.43316359817981726 47768.966002659152 48150.250000000007 47586.87738678632 47612.000000000007 47598.950000000004 14.500000000000002 47916.253443983565 48111.250000000007 73.076923044132158 28.316605337596808 47939.971995239095 6.5000000000000009 0.019152505602984853 10.200000000000729 51.928389281269624 8.8432132050837442 47631.287643716736 47627.000000000007 0.85120789244339623 5.2249999882375011 47588.418351118227 47593.744145420635 10.238636345606524 48882.700000000004 48858.684995925891 48852.506994848722 1317.0000000000002 7.1184795287635305
decision_type=2 2 2 2 2 2 2 2 2 2 2 2 2 2 2 2 2 2 2 2 2 10 2 2 8 2 2 2 2 2
left_child=-1 4 -3 16 -2 6 22 -8 18 10 11 12 13 -10 -14 -15 17 -4 19 -7 -21 -22 -6 -24 -20 26 27 28 29 -11
right_child=1 2 3 -5 5 8 7 -9 9 25 -12 -13 14 15 -16 -17 -18 -19 24 20 21 -23 23 -25 -26 -27 -28 -29 -30 -31
leaf_value=-0.024240029625820392 -0.018723448965171672 0.094643327948422395 0.00026356792604585863 0.049051595700993426 0.029328432572739468 -0.0095727510297050084 0.018679217994213106 0.078589267704797836 -0.0152205883054236 2.1394274402996872e-05 0.11495855999263851 -0.029536386141553524 0.01179890939648348 0.03463226414375728 0.056338042887445129 -0.0073845311209107898 -0.012837449384387585 0.054387587662786244 -0.0068892969279458864 0.057699602151114963 0.033280050947710325 -0.0083005528755937565 -0.023840785234611722 0.023714399724267424 -0.032169687589630486 0.03202020199969411 -0.040552579931914808 0.038278656527400021 0.0050696986596498444 -0.015052493859072959
leaf_weight=132 99 26 53 21 21 150 20 23 86 349 22 20 88 62 36 33 80 20 613 32 27 33 47 20 40 20 25 20 296 245
leaf_count=132 99 26 53 21 21 150 20 23 86 349 22 20 88 62 36 33 80 20 613 32 27 33 47 20 40 20 25 20 296 245
internal_value=1.22892e-13 0.001218 0.0178277 0.00634947 -0.000150742 0.000639077 0.0164184 0.0507241 -0.000301791 0.00292763 0.0161365 0.00944703 0.0120033 0.00328475 0.0247296 0.020037 0.000488398 0.0150921 -0.00499979 0.00427735 0.026859 0.0104107 -0.00034468 -0.00964521 -0.00843787 -0.00187183 -0.0025968 -0.00155406 -0.00244917 -0.00619595
internal_weight=2759 2627 200 174 2427 2328 131 43 2197 1302 347 325 305 181 124 95 153 73 895 242 92 60 88 67 653 955 935 910 890 594
internal_count=2759 2627 200 174 2427 2328 131 43 2197 1302 347 325 305 181 124 95 153 73 895 242 92 60 88 67 653 955 935 910 890 594
is_linear=0
shrinkage=0.05


Tree=20
num_leaves=31
num_cat=0
split_feature=56 26 2 0 2 48 31 47 41 20 41 22 16 23 20 3 23 2 53 23 1 2 1 5 4 20 3 26 26 23
split_gain=29.4062 21.5601 63.6591 15.7211 12.8523 12.9255 13.3898 12.5883 13.4416 27.681 16.4364 10.7487 15.3557 10.5631 50.9561 18.8568 33.2601 13.9645 14.0483 13.479 11.1899 10.5588 9.36467 14.7653 8.15233 8.11277 8.0329 8.02261 7.89966 7.89345
threshold=1.0000000180025095e-35 0.43316359817981726 47768.966002659152 48151.000000000007 47586.87738678632 2.1400205161333612 21.950000000000731 3.4999999970833335 0.00034336159676900008 22.746042426155896 0.00068696357009960009 51.928389281269624 8.8432132050837442 10.500000000000002 13.761772125180613 6.9494810212079399 14.500000000000002 48157.417162637787 -11.645817769844196 15.500000000000002 47629.277413304393 47626.465412397483 47641.763399542149 47914.521981864695 15.129492026051816 -15.95477480129502 5.8309284377741166 -0.061886221170425339 -0.26732422411441797 2.5000000000000004
decision_type=2 2 2 2 2 2 2 10 2 2 2 2 2 2 2 2 2 2 2 2 2 2 2 2 2 2 2 2 2 2
left_child=-1 4 -3 11 27 7 -7 25 13 10 -10 12 24 14 17 16 -15 20 -19 28 -9 -12 -22 -24 -4 -6 -25 -2 -17 -23
right_child=1 2 3 -5 5 6 -8 8 9 -11 21 -13 -14 15 -16 19 -18 18 -20 -21 22 29 23 26 -26 -27 -28 -29 -30 -31
leaf_value=-0.023028028598337465 -0.0070277975975639286 0.089911159869426716 0.021806300796257953 0.046599017172342258 -0.033017217145802885 0.0022705798357492315 0.057664561625570057 -0.013585283693724446 0.049631796555504919 0.066021234149356262 0.033417960791848604 -0.012195576542289928 0.051668206499889492 -0.0051406254933681339 0.082420002340915663 0.0091246753931045529 0.055134926716218127 0.021847772785501245 -0.021059131941768113 -0.002389140993058184 0.0309998134112296 0.026745006009005014 -0.0094751707668746677 0.034505006086546934 -0.017588985582877852 -0.0045351352816331023 0.0098410381849303296 -0.036616364907887243 -0.02492218376096824 -0.0071049977120222346
leaf_weight=132 63 26 24 21 26 24 20 56 21 23 24 80 20 60 21 20 37 24 93 599 48 20 93 40 29 651 189 36 115 124
leaf_count=132 63 26 24 21 26 24 20 56 21 23 24 80 20 60 21 20 37 24 93 599 48 20 93 40 29 651 189 36 115 124
internal_value=-8.98938e-11 0.0011571 0.0169363 0.006032 -0.000143205 0.000607123 0.0274497 9.0016e-05 0.00249933 0.0142296 0.00792687 0.000463978 0.0143375 0.000716666 0.00599796 -0.00286775 0.0178511 0.00304241 -0.0122577 -0.00560579 0.00724456 0.00271376 0.0103972 0.00732598 0.000250389 -0.00562898 0.0141492 -0.0177873 -0.0198782 -0.00240361
internal_weight=2759 2627 200 174 2427 2328 44 2284 1607 212 189 153 73 1395 564 831 97 543 117 734 426 168 370 322 53 677 229 99 135 144
internal_count=2759 2627 200 174 2427 2328 44 2284 1607 212 189 153 73 1395 564 831 97 543 117 734 426 168 370 322 53 677 229 99 135 144
is_linear=0
shrinkage=0.05


Tree=21
num_leaves=31
num_cat=0
split_feature=26 40 2 3 22 29 2 23 4 37 37 34 34 26 35 2 4 20 20 3 0 2 26 26 26 26 3 2 20 26
split_gain=23.5123 24.2552 65.2591 21.5814 28.0349 20.4962 13.4678 16.4215 12.4165 12.2522 22.117 12.5003 11.9888 11.846 35.1394 45.572 23.8029 25.0662 18.4837 15.289 12.5574 11.583 26.4503 11.5814 12.0235 11.3189 15.2802 12.5712 13.4844 12.6606
threshold=0.34638892114162451 1.0957848719126149 47760.375576514831 11.078364548634683 76.100803088358631 0.042572436955227506 47916.253443983565 22.500000000000004 13.61020178612605 0.00034336159676900008 0.028188149053146004 122.50000000000001 55.500000000000007 0.16810236126184461 409.50000000000006 48341.632859348261 29.755654631123146 -2.5255986503532304 4.6522787169848536 24.183406176541563 48590.500000000007 47618.567387112773 0.27815321087837225 0.27739059925079346 0.13413494825363156 -0.059508247300982441 4.8309930423921168 48131.380841610604 6.0129815663081629 0.14603859931230542
decision_type=2 2 2 2 2 2 2 2 2 2 2 2 2 2 2 2 2 2 2 2 2 2 2 2 2 2 2 2 2 2
left_child=6 5 -3 12 -5 -2 8 13 21 11 -11 23 -4 19 18 -16 17 -17 -15 25 -19 -1 -23 24 -10 26 -8 -27 29 -29
right_child=1 2 3 4 -6 -7 7 -9 9 10 -12 -13 -14 14 15 16 -18 20 -20 -21 -22 22 -24 -25 -26 27 -28 28 -30 -31
leaf_value=-0.0080418279021978369 0.048843333011736045 0.098480104941588195 0.0068839069309772228 0.070773919257852771 -0.0062540599278041306 0.00027824932905638647 0.048190048652822559 -0.018715533530237256 -0.011883247779000076 0.032215670511126525 -0.009693117725169835 0.011211556092565579 -0.038004011332633952 0.0039399906227897321 0.080769331092315336 0.073228727597743279 -0.035467344600363597 0.045919880941510199 -0.049702311780017161 -0.029193998307625698 0.00077305698294692974 0.046591599099338056 -0.015198393940227107 -0.022739955011895172 0.0070761925746032064 -0.032688813032034567 0.0059879101159742232 -0.0098833103605534614 0.016640192452108578 0.026199837422205344
leaf_weight=60 23 26 51 27 21 392 23 91 486 50 85 62 21 42 31 20 21 20 26 41 67 43 29 193 101 34 318 244 84 27
leaf_count=60 23 26 51 27 21 392 23 91 486 50 85 62 21 42 31 20 21 20 26 41 67 43 29 193 101 34 318 244 84 27
internal_value=1.75804e-11 0.00913638 0.0266646 0.0111046 0.0370742 0.00296981 -0.0023319 0.00161773 -0.00621029 -0.00815495 0.00582866 -0.010397 -0.0062084 0.00347176 0.0135111 0.0263761 0.0132028 0.0227548 -0.0165703 0.000515949 0.0111516 0.00818315 0.021704 -0.0121146 -0.00862106 0.00218459 0.00883439 -0.00364467 -0.000862975 -0.00628831
internal_weight=2759 561 146 120 48 415 2198 1089 1109 977 135 842 72 998 227 159 128 107 68 771 87 132 72 780 587 730 341 389 355 271
internal_count=2759 561 146 120 48 415 2198 1089 1109 977 135 842 72 998 227 159 128 107 68 771 87 132 72 780 587 730 341 389 355 271
is_linear=0
shrinkage=0.05


Tree=22
num_leaves=31
num_cat=0
split_feature=56 26 2 1 20 16 26 0 1 17 26 52 2 16 17 17 2 31 44 26 16 26 26 1 26 17 17 32 20 22
split_gain=25.204 18.7169 55.254 19.9925 13.0963 60.2185 47.8117 76.1864 12.9233 14.0266 11.9307 12.1169 10.8121 10.3552 10.8121 9.11968 10.2473 8.52549 11.7251 15.7358 10.6195 10.2313 13.19 16.0421 12.7523 14.5373 12.3827 14.7771 12.0952 14.9726
threshold=1.0000000180025095e-35 0.53206264972686779 47768.966002659152 48135.106923305291 20.750390303709583 15.465323130604681 0.34085762500762945 47913.275000000009 47940.609454929559 0.053822636771923109 0.39486707746982574 43.978947344632807 47816.838488101355 0.51978113255331315 0.0063632844070858506 0.045878238951530405 47786.146762930373 21.950000000000731 0.51922214379293108 0.24627275019884107 11.352040739699982 0.34501542150974279 0.27729511260986334 47951.746264404523 0.34733074903488165 0.012947535989244101 0.015529280160695852 2.5000000000000004 -11.032563156116963 30.224192732388953
decision_type=2 2 2 2 2 2 2 2 2 2 2 8 2 2 2 2 2 2 2 2 2 2 2 2 2 2 2 2 2 2
left_child=-1 4 -3 8 10 6 -6 -8 9 15 11 13 -13 -2 -15 16 -4 21 -19 20 -20 22 28 -24 25 -23 27 -26 -16 -30
right_child=1 2 3 -5 5 -7 7 -9 -10 -11 -12 12 -14 14 17 -17 -18 18 19 -21 -22 24 23 -25 26 -27 -28 -29 29 -31
leaf_value=-0.021319232429518845 -0.010920359990133462 0.083905187524998426 -0.021374017575925049 0.052293637506663805 0.0061564185967048013 -0.0060044221930228726 0.022142938852310182 0.15307018805295231 -0.034549259937678774 0.042759170213581194 -0.029170628951703151 -0.033357208189912717 -0.0039232637542180523 0.027986587326017182 -0.010780225941088978 -0.027011611878320026 0.019575111258774997 -0.011393577239379803 0.032440781515712544 0.061318298196420075 -0.016246186924122632 -0.0023120336589359104 -0.018172011523633982 0.020577416556977458 0.046006128531215447 0.050309299412017165 -0.011145955414284328 0.00047250747756690399 0.023930737502431791 0.00087358678318000564
leaf_weight=132 194 26 22 20 42 183 25 20 24 21 38 52 78 37 203 27 50 29 24 22 21 21 193 31 28 35 79 49 76 957
leaf_count=132 194 26 22 20 42 183 25 20 24 21 38 52 78 37 203 27 50 29 24 22 21 21 193 31 28 35 79 49 76 957
internal_value=-2.92986e-11 0.00107124 0.0161862 0.00545029 -0.000107199 0.0102768 0.0445235 0.0803328 -0.00105574 0.00564297 -0.00140101 -0.000905353 -0.0156968 5.65747e-05 0.00123637 -0.00223017 0.00706288 0.000676549 0.0151666 0.0266629 0.0097202 -0.000155418 -0.00164584 -0.0128094 0.0101088 0.0305763 0.0027615 0.0170302 0.000377324 0.00256995
internal_weight=2759 2627 190 164 2437 270 87 45 144 120 2167 2129 130 1999 1805 99 72 1768 96 67 45 1672 1460 224 212 56 156 77 1236 1033
internal_count=2759 2627 190 164 2437 270 87 45 144 120 2167 2129 130 1999 1805 99 72 1768 96 67 45 1672 1460 224 212 56 156 77 1236 1033
is_linear=0
shrinkage=0.05


Tree=23
num_leaves=31
num_cat=0
split_feature=56 26 40 20 16 26 0 26 52 30 2 2 2 16 3 3 48 4 3 20 44 26 0 22 52 26 4 26 44 26
split_gain=22.7466 16.892 51.4702 11.8195 54.3472 43.1501 68.7582 10.7675 10.9355 10.1752 12.0929 24.8952 9.85443 9.34559 9.75795 8.93155 8.57987 8.02839 11.1469 12.407 8.85109 7.93812 11.6107 10.8617 7.77364 8.2689 11.3398 24.3341 10.8819 8.9075
threshold=1.0000000180025095e-35 0.53206264972686779 1.2595460851013598 20.750390303709583 15.465323130604681 0.34085762500762945 47913.275000000009 0.39486707746982574 43.978947344632807 0.45000000000072765 47786.146762930373 47898.287225936212 47811.577176129074 0.51978113255331315 3.0298623755662164 21.74683373430533 0.84135961695224049 26.697815501436121 30.114553315132298 50.083299283462402 1.2640255596333565 0.016394066624343354 47936.17500000001 45.31592802525028 24.422794095215455 0.34501542150974279 17.003320690219827 0.35073058307170873 0.77723912561025166 -0.059508247300982441
decision_type=2 2 2 2 2 2 2 2 8 2 2 2 2 2 2 2 2 2 2 2 2 2 2 2 10 2 2 2 2 2
left_child=-1 3 9 7 5 -5 -7 8 13 -3 -11 -12 -10 21 -15 16 -13 20 19 -19 -6 22 23 -2 25 29 27 28 -27 -16
right_child=1 2 -4 4 17 6 -8 -9 12 10 11 15 -14 14 24 -17 -18 18 -20 -21 -22 -23 -24 -25 -26 26 -28 -29 -30 -31
leaf_value=-0.020253270480668908 0.02011959287337959 0.035910711400210862 0.091248743254691372 0.0058485979569100205 0.028675069709840628 0.021035791724920275 0.14541667789220811 -0.027712097862049152 -0.035194292110277386 -0.026318483198842696 0.049850430678842324 0.029141136144216248 -0.0055684711972481746 0.026587258498310243 0.0027454051842671361 -0.023420725884433422 -0.012316358720030014 -0.019567160076059572 -0.039580054674297573 0.02512450615176931 -0.0058589475504546009 -0.018757209881492286 0.033684448702704338 -0.025402854721208935 0.012037226945023472 0.025529935804661365 -0.00085080472583120518 -0.010809601166031579 0.071850588491984779 -0.0052162547378311304
leaf_weight=132 20 25 20 42 28 25 20 38 41 31 28 26 89 37 632 36 24 44 32 24 55 115 21 38 138 32 121 33 21 791
leaf_count=132 20 25 20 42 28 25 20 38 41 31 28 26 89 37 632 36 24 44 32 24 55 115 21 38 138 32 121 33 21 791
internal_value=2.52525e-11 0.00101767 0.0153769 -0.000101839 0.00976297 0.0422974 0.0763162 -0.00133096 -0.000860085 0.00645081 0.00137152 0.00890125 -0.014912 5.3746e-05 0.00117455 -0.00443104 0.00924154 -0.0057042 -0.0152453 -0.00379363 0.00579108 -0.0103743 0.00182857 -0.00970546 0.000642722 -0.000321966 0.00901525 0.0228966 0.0438834 -0.00168023
internal_weight=2759 2627 190 2437 270 87 45 2167 2129 170 145 114 130 1999 1805 86 50 183 100 68 83 194 79 58 1768 1630 207 86 53 1423
internal_count=2759 2627 190 2437 270 87 45 2167 2129 170 145 114 130 1999 1805 86 50 183 100 68 83 194 79 58 1768 1630 207 86 53 1423
is_linear=0
shrinkage=0.05


Tree=24
num_leaves=31
num_cat=0
split_feature=56 26 2 1 0 2 2 0 54 23 20 16 26 0 2 26 1 3 17 52 48 26 20 23 34 54 26 20 35 26
split_gain=20.5288 15.245 49.5326 17.2582 11.9668 17.27 10.8416 12.0143 20.3187 26.9283 12.0248 52.0477 35.7484 62.0543 10.1797 9.39953 9.62002 11.3124 8.41228 7.83285 7.7145 7.48086 7.62764 7.12454 8.21757 7.24249 6.68129 23.8949 16.7994 16.761
threshold=1.0000000180025095e-35 0.53206264972686779 47768.966002659152 48135.106923305291 47900.17500000001 47786.146762930373 47586.87738678632 47612.500000000007 47598.950000000004 11.500000000000002 20.750390303709583 15.465323130604681 0.34085762500762945 47913.275000000009 47898.287225936212 0.39486707746982574 47617.906349893317 3.0298623755662164 0.044513012792973108 96.388888844863331 0.90254862066038233 -0.061886221170425339 0.1730742875998004 17.500000000000004 112.50000000000001 48444.100000000006 -0.25126361846923823 2.1562291695736442 919.50000000000011 -0.25336782634258265
decision_type=2 2 2 2 2 2 2 2 2 2 2 2 2 2 2 2 2 2 2 8 2 2 2 2 2 2 2 2 2 2
left_child=-1 6 -3 4 5 -4 21 8 20 -10 15 12 -12 -14 -7 16 -9 -18 -6 26 -8 22 -2 24 -13 -26 27 29 -29 -19
right_child=1 2 3 -5 18 14 7 10 9 -11 11 23 13 -15 -16 -17 17 19 -20 -21 -22 -23 -24 -25 25 -27 -28 28 -30 -31
leaf_value=-0.019240606937444574 -0.020025086201923462 0.078725189686967789 -0.022280025340261914 0.047965479493141172 0.0032581424897511467 0.057868955816541404 -0.01848549898181643 -0.021082171734611868 -0.0012897869572043421 0.069255757908667295 0.0075365770421922211 -0.019562349551253851 0.01998400229215622 0.13814584529027343 0.0086373799436149142 -0.026326492715528921 0.031555143019391434 -0.0072432858021825213 -0.029089463073548608 -0.024139235603312652 0.011762274675980598 -0.034485663755589889 0.015535880394279958 -0.01589653715203641 0.028097430880911448 -0.0041210512799972837 -0.0019029688854281129 0.068551252114896974 0.0065039917035028347 0.024558924648617569
leaf_weight=132 38 26 21 20 37 21 35 59 24 31 40 27 25 20 21 38 27 178 44 36 53 36 25 86 37 33 1491 24 20 54
leaf_count=132 38 26 21 20 37 21 35 59 24 31 40 27 25 20 21 38 27 178 44 36 53 36 25 86 37 33 1491 24 20 54
internal_value=-4.21599e-11 0.000966791 0.0146081 0.00444315 -0.00160162 0.0147421 -9.67468e-05 0.000589507 0.014632 0.0384722 -0.000325336 0.00959815 0.0419292 0.0725004 0.0332532 -0.00170546 -0.00121017 -0.000569488 -0.0143134 -0.00105056 -0.00026809 -0.0163034 -0.00591359 -0.00541899 0.00387038 0.0129087 -0.000580158 0.00656589 0.040348 0.000158953
internal_weight=2759 2627 190 164 144 63 2437 2338 143 55 2195 268 85 45 42 1927 1889 1830 81 1803 88 99 63 183 97 70 1767 276 44 232
internal_count=2759 2627 190 164 144 63 2437 2338 143 55 2195 268 85 45 42 1927 1889 1830 81 1803 88 99 63 183 97 70 1767 276 44 232
is_linear=0
shrinkage=0.05


Tree=25
num_leaves=31
num_cat=0
split_feature=56 48 31 26 2 2 0 2 2 17 54 54 2 5 2 0 20 0 23 0 44 54 48 23 2 0 44 23 20 0
split_gain=18.5272 13.762 13.9814 12.0268 34.345 15.6039 11.1358 20.6955 8.88783 8.62668 8.59116 37.0544 9.48129 8.73041 8.02059 20.8185 69.3143 10.797 13.4993 15.251 13.0467 11.5968 10.9182 9.9105 16.7054 20.6998 14.9646 10.6893 9.06005 7.96143
threshold=1.0000000180025095e-35 2.1400205161333612 21.950000000000731 0.53206264972686779 47768.966002659152 48132.185119943933 47890.250000000007 47790.712520613604 47586.87738678632 0.044513012792973108 47609.17500000001 47598.950000000004 47588.418351118227 47591.654291379768 47916.253443983565 48110.250000000007 18.810912551143549 47962.250000000007 6.5000000000000009 47946.17500000001 1.6883203428153852 47929.950000000004 1.3172733928274172 3.5000000000000004 47631.287643716736 47627.05000000001 1.1642533528520687 11.500000000000002 -0.52592728448996084 48130.000000000007
decision_type=2 2 2 2 2 2 2 2 2 2 2 2 2 2 2 2 2 2 2 2 2 2 2 2 2 2 2 2 2 2
left_child=-1 3 -3 8 -5 6 7 -6 -2 -8 11 12 -10 -14 23 16 17 18 21 22 -19 -16 -20 -12 25 27 -27 -25 -23 -17
right_child=1 2 -4 4 5 -7 9 -9 10 -11 14 -13 13 -15 15 29 -18 20 19 -21 -22 28 -24 24 -26 26 -28 -29 -30 -31
leaf_value=-0.018278576320771015 -0.01527583566363616 0.0015621240995824339 0.055579247811566229 0.06718323463201524 -0.013486941562344631 0.045567205697298052 0.0056980649768818351 0.053651289946653628 0.025814910836163021 -0.02451577482538091 -0.032016550196755318 0.062272165330319575 -0.028581806902169576 0.0092250038278647341 -0.034477683342049356 -0.016350755158291999 0.094520558898026741 0.041312456716384206 0.027748677416076496 -0.026747699738258409 -0.0014512941481605653 0.020972510389983656 -0.012465386460756973 -0.0099071323515025084 -0.0072966498440195995 0.049792087423365293 0.0075722420988821012 0.027544557983460633 -0.014829037858303204 -0.00040186195081579979
leaf_weight=132 98 25 23 25 24 20 42 22 21 54 31 29 37 26 37 86 24 42 86 21 31 30 21 111 643 41 43 23 43 868
leaf_count=132 98 25 23 25 24 20 42 22 21 54 31 29 37 26 37 86 24 42 86 21 31 30 21 111 643 41 43 23 43 868
internal_value=3.18487e-11 0.000918452 0.0274453 0.000424737 0.0126365 0.00421884 -0.00160487 0.0186226 -0.000529949 -0.0112972 9.99976e-05 0.0135427 -0.00328052 -0.012979 -0.000596485 0.00192584 0.0126489 0.00633086 0.00117128 0.0122102 0.0231525 -0.0116741 0.0198562 -0.00424142 -0.00324138 0.00871979 0.0281795 -0.00347886 -0.000116073 -0.0018396
internal_weight=2759 2627 48 2579 187 162 142 46 2392 96 2294 113 84 63 2181 1289 335 311 238 128 73 110 107 892 861 218 84 134 73 954
internal_count=2759 2627 48 2579 187 162 142 46 2392 96 2294 113 84 63 2181 1289 335 311 238 128 73 110 107 892 861 218 84 134 73 954
is_linear=0
shrinkage=0.05


Tree=26
num_leaves=31
num_cat=0
split_feature=56 26 40 2 0 24 23 20 16 26 0 26 30 2 5 3 1 3 48 52 23 34 48 4 26 20 31 26 26 20
split_gain=16.7208 12.5028 44.6282 8.8827 10.069 16.7251 22.2956 9.84552 46.1753 31.3819 53.835 8.44342 8.18787 11.8461 21.0655 8.31072 8.184 9.68576 8.03062 7.02572 6.85444 7.37035 6.77906 8.25697 6.72353 6.92199 6.46954 12.8117 8.0242 20.776
threshold=1.0000000180025095e-35 0.53206264972686779 1.2595460851013598 47586.87738678632 47612.500000000007 47598.950000000004 11.500000000000002 20.750390303709583 15.465323130604681 0.34085762500762945 47913.275000000009 0.39486707746982574 0.45000000000072765 47786.146762930373 47895.410151963217 21.74683373430533 47617.906349893317 3.0298623755662164 0.84135961695224049 68.083333293680568 17.500000000000004 112.50000000000001 0.90254862066038233 32.258378313514605 -0.061886221170425339 0.1730742875998004 21.950000000000731 0.24627275019884107 -0.25126361846923823 2.1562291695736442
decision_type=2 2 2 2 2 2 2 2 2 2 2 2 2 2 2 2 2 2 2 8 2 2 2 2 2 2 2 2 2 2
left_child=-1 3 12 24 5 22 -7 11 9 -9 -11 16 -3 -14 -15 18 -6 -18 -16 26 21 -10 -5 -24 25 -2 28 -28 29 -19
right_child=1 2 -4 4 7 6 -8 8 20 10 -12 -13 13 14 15 -17 17 19 -20 -21 -22 -23 23 -25 -26 -27 27 -29 -30 -31
leaf_value=-0.017364647668419463 -0.018353270072379687 0.031341301342472434 0.083875336498022091 -0.01720958834380976 -0.019415253786650346 -0.0011648183688521385 0.063026230589997387 0.0069011836685240278 -0.018552593886852264 0.018853427872061731 0.12891193237155676 -0.02489103376957294 -0.027047807026293971 0.051763410790061408 0.027809255107723436 -0.020614160070391865 0.02922994926295899 0.00063461370104759011 -0.010860599007457495 -0.018373474811336825 -0.015749241099395076 0.01219910267740488 0.027132428463664839 -0.013216644614225344 -0.031997588442431557 0.015522878542542458 -0.0024689913874802495 0.034342539816712724 -0.002671873907147872 0.038188233309086751
leaf_weight=132 38 25 20 35 59 24 31 40 27 25 20 38 31 22 29 38 27 226 25 56 86 70 32 21 36 25 60 39 1378 44
leaf_count=132 38 25 20 35 59 24 31 40 27 25 20 38 31 22 29 38 27 226 25 56 86 70 32 21 36 25 60 39 1378 44
internal_value=-2.97768e-11 0.000872529 0.0132261 -9.06172e-05 0.000530552 0.0133861 0.0350156 -0.000306961 0.0086724 0.039125 0.0677683 -0.00155578 0.00491448 0.000358127 0.00781062 -0.00269983 -0.00108635 -0.000495423 0.00990654 -0.000940561 -0.00547223 0.00363935 -0.000132357 0.0111451 -0.0147603 -0.00491035 -0.00038175 0.0120325 -0.00112751 0.00675446
internal_weight=2759 2627 190 2437 2338 143 55 2195 268 85 45 1927 170 145 114 92 1889 1830 54 1803 183 97 88 53 99 63 1747 99 1648 270
internal_count=2759 2627 190 2437 2338 143 55 2195 268 85 45 1927 170 145 114 92 1889 1830 54 1803 183 97 88 53 99 63 1747 99 1648 270
is_linear=0
shrinkage=0.05


Tree=27
num_leaves=31
num_cat=0
split_feature=56 48 35 45 4 44 22 32 20 1 45 45 47 20 44 22 23 3 48 32 34 48 44 3 35 16 30 24 2 0
split_gain=15.0905 11.9733 12.459 8.89672 10.7181 28.7667 19.0059 22.12 40.6323 60.2645 14.3001 13.2014 12.6104 10.5539 9.62318 8.00965 7.66332 7.27378 7.27517 16.3113 8.40881 7.25325 7.20897 11.5115 7.14378 7.13424 6.94574 6.74571 7.96943 10.6899
threshold=1.0000000180025095e-35 2.1400205161333612 409.50000000000006 3.4997083987059008 29.60636824232871 2.6926064118218229 64.709473518590144 2.5000000000000004 17.777846529405462 48444.772035295508 5.4988544698519588 5.8506713781288084 5.7795138811617539 -26.270078250084619 1.17368004183468 51.074214231374135 8.5000000000000018 3.3932237367563371 1.1075507571517886 1.5000000000000002 34.500000000000007 0.71117874612329435 1.5640601725875565 4.9435100035152439 409.50000000000006 0.46142943398311193 6.8250000000007285 48833.950000000004 48161.136202793881 48065.750000000007
decision_type=2 2 2 2 2 2 2 2 2 2 2 2 8 2 2 2 2 2 2 2 2 2 2 2 2 2 2 2 2 2
left_child=-1 3 -3 22 5 6 13 14 10 -10 -9 12 16 -5 -8 21 -6 -15 -19 -20 -21 -13 25 -24 -12 -2 -18 28 29 -27
right_child=1 2 -4 4 11 -7 7 8 9 -11 24 15 -14 17 -16 -17 26 18 19 20 -22 -23 23 -25 -26 27 -28 -29 -30 -31
leaf_value=-0.016496415120182614 -0.016098904978433574 0.0011384669840335847 0.052130026410779233 0.026491483972456892 0.0073739814071129978 0.063711110576987265 0.018319555319731638 -0.0063506844798447912 0.12235459738100569 0.0063723122434956696 0.011429314978886397 0.013313835159865181 0.029726967774331571 0.02487370919968401 -0.0095015417792156387 -0.026007887614325861 -0.016842480991035701 -0.0030333593683158134 0.045048209458589561 0.025517173472679025 -0.0019624999661542728 -0.017003469054210695 0.010017894973096096 -0.021591836102150319 0.053183632228700886 -0.0027503491686021227 0.014932616613805294 0.019990469866273244 -0.015214789051721554 0.018782371098796529
leaf_weight=132 74 25 23 38 109 20 49 54 24 21 20 34 36 28 85 89 95 874 25 33 178 47 38 119 21 249 21 41 82 75
leaf_count=132 74 25 23 38 109 20 49 54 24 21 20 34 36 28 85 89 95 874 25 33 178 47 38 119 21 249 21 41 82 75
internal_value=-3.2644e-11 0.000828902 0.0255719 0.000368389 0.0021222 0.00415511 0.00333365 0.0151929 0.0290917 0.0682295 0.0105527 -0.00481139 0.0022509 0.00057052 0.000671844 -0.0156541 -0.00214527 -0.000295031 -0.000929918 0.00685994 0.00233527 -0.00427769 -0.00454901 -0.0139411 0.0328157 -0.00171877 -0.0110901 0.000661829 -0.00129008 0.00223408
internal_weight=2759 2627 48 2579 1901 1470 1450 274 140 45 95 431 261 1176 134 170 225 1138 1110 236 211 81 678 157 41 521 116 447 406 324
internal_count=2759 2627 48 2579 1901 1470 1450 274 140 45 95 431 261 1176 134 170 225 1138 1110 236 211 81 678 157 41 521 116 447 406 324
is_linear=0
shrinkage=0.05


Tree=28
num_leaves=31
num_cat=0
split_feature=56 48 31 16 34 16 20 47 52 34 22 16 53 22 22 20 16 16 52 1 1 40 22 22 1 1 0 54 3 3
split_gain=13.6192 10.8059 11.6445 8.31373 12.128 11.8303 18.8765 40.1232 8.96177 8.218 11.0316 8.18871 9.97326 7.81221 7.25969 6.86531 7.4532 7.37718 25.8109 14.56 14.5476 8.84462 10.0912 8.87725 9.81866 14.0588 18.9037 15.3552 11.1399 9.39493
threshold=1.0000000180025095e-35 2.1400205161333612 21.950000000000731 34.632419815054639 138.50000000000003 15.465323130604681 20.750390303709583 5.0909926455146559 41.240384573745381 167.50000000000003 49.999999990512826 13.095738876151545 -15.403683937617695 48.727831546833556 62.575301194978202 13.047486364773588 0.51978113255331315 1.4649742777987174 74.999999932291686 47642.379724199542 47623.191016417688 1.2851454424746807 42.056481006541276 66.789172696113368 47915.127946955683 48122.628829939982 48130.000000000007 48145.000000000007 6.0036318934897173 5.1086287226140774
decision_type=2 2 2 2 2 2 2 10 10 2 2 2 2 2 2 2 2 2 8 2 2 2 2 2 2 2 2 2 2 2
left_child=-1 3 -3 4 5 6 11 8 -8 10 -6 15 -13 -11 -12 16 -2 18 19 20 -18 23 -23 24 -19 28 -27 -28 -26 -29
right_child=1 2 -4 -5 9 -7 7 -9 -10 13 14 12 -14 -15 -16 -17 17 21 -20 -21 -22 22 -24 -25 25 26 27 29 -30 -31
leaf_value=-0.015671594328049456 -0.0085405250848497004 0.00067200236674398186 0.049968679216892825 -0.015516504161059859 0.047890374739654365 -0.012783709165662349 -0.025228500698523768 0.075754150690940714 0.02043614774232819 -0.025102282296866181 -0.011290911174463956 -0.00077033490330601735 0.046412018012432832 0.014279864184037948 0.025570523453985944 -0.011170510517994819 0.0033817530982196333 -0.0047887516915738086 0.061857296171642484 -0.0039651819337450439 0.038491270881073153 0.0024953521171119063 -0.021606697281332396 0.01309009402482641 0.049513322720304134 -0.033090773461243284 0.034068037695377265 -0.027625650041071433 0.011975819810426662 0.0027122122073908236
leaf_weight=132 206 25 23 80 32 168 22 26 21 20 22 24 21 34 34 136 70 552 21 192 51 80 95 144 24 39 37 28 112 288
leaf_count=132 206 25 23 80 32 168 22 26 21 20 22 24 21 34 34 136 70 552 21 192 51 80 95 144 24 39 37 28 112 288
internal_value=1.687e-11 0.000787457 0.0242933 0.000349969 0.0008579 2.94089e-06 0.000984283 0.0267209 -0.00292716 0.015049 0.0244715 0.00014663 0.0212481 -0.000306116 0.0110892 -0.000310993 0.000450686 0.00151946 0.00819601 0.00459573 0.01818 -7.45088e-05 -0.0105886 0.00142873 -0.000126114 0.00474846 -5.72037e-05 0.0035924 0.0186001 2.40472e-05
internal_weight=2759 2627 48 2579 2499 2357 2189 69 43 142 88 2120 45 54 56 2075 1939 1733 334 313 121 1399 175 1224 1080 528 392 353 136 316
internal_count=2759 2627 48 2579 2499 2357 2189 69 43 142 88 2120 45 54 56 2075 1939 1733 334 313 121 1399 175 1224 1080 528 392 353 136 316
is_linear=0
shrinkage=0.05


Tree=29
num_leaves=31
num_cat=0
split_feature=56 26 0 3 16 34 26 24 1 16 20 26 16 23 3 3 16 26 3 0 29 26 26 4 26 34 4 23 34 23
split_gain=12.2913 11.1206 42.4088 10.418 7.34673 13.4159 25.1858 14.7857 12.1702 8.50368 28.6081 31.5275 8.17596 18.3946 7.77455 7.84133 7.49193 7.55467 7.0455 6.94934 6.81395 6.71004 26.4803 14.9638 12.8444 9.01723 11.7143 20.2338 16.4738 8.06844
threshold=1.0000000180025095e-35 34.162096677099932 47890.250000000007 20.850209843672008 34.632419815054639 138.50000000000003 0.16810236126184461 47900.17500000001 48409.51770293669 15.465323130604681 20.750390303709583 0.34085762500762945 13.095738876151545 13.500000000000002 23.205067678178626 15.211704242121991 0.49419646810770473 0.016394066624343354 2.8851527070895737 47934.17500000001 0.66666640432109137 0.34501542150974279 0.27834790945053106 17.003320690219827 0.35073058307170873 18.500000000000004 33.766047681866873 15.500000000000002 30.500000000000004 22.500000000000004
decision_type=2 2 2 2 2 2 2 2 2 2 2 2 2 2 2 2 2 2 2 2 2 2 2 2 2 2 2 2 2 2
left_child=-1 4 -3 -4 5 9 -7 -8 20 10 12 -12 14 -14 15 16 17 19 -18 -2 -9 22 29 24 -23 -25 27 28 -27 -20
right_child=1 2 3 -5 -6 6 7 8 -10 -11 11 -13 13 -15 -16 -17 18 -19 21 -21 -22 23 -24 25 -26 26 -28 -29 -30 -31
leaf_value=-0.014888014983047138 -0.0071073741889135407 0.076413426758802472 0.016983186845378629 -0.025775263152484386 -0.014740679181704764 -0.019417982955481142 0.05797666432014828 -0.0095439873307066811 0.050353637337684637 -0.011047754310181037 -0.0058344201184809211 0.062732796880759695 0.056420671357773247 -0.0073604352557315282 0.023901753205685848 -0.017893370203808816 0.029805196654051541 -0.017977867329145893 0.0018495182586261403 0.026703588389569807 0.023763871193763667 0.037504631070956841 -0.020509791454901886 -0.026107323872706586 0.00052331185493713773 0.020139382571675059 -0.023471260966072161 0.048025095937191509 -0.024735900969841546 -0.017392748850806241
leaf_weight=132 55 23 29 28 80 39 29 34 20 170 30 38 20 26 31 69 20 118 1231 21 28 59 161 31 39 43 31 28 39 57
leaf_count=132 55 23 29 28 80 39 29 34 20 170 30 38 20 26 31 69 20 118 1231 21 28 59 161 31 39 43 31 28 39 57
internal_value=-3.2058e-11 0.000748084 0.0191039 -0.00402096 0.000171537 0.000655111 0.0151466 0.0272909 0.0164386 -0.000283051 0.000569301 0.0324826 -0.000474519 0.0203705 -0.000946172 -0.00133093 -0.00073972 -0.0100594 0.000299966 0.00223513 0.00549827 -4.33181e-05 -0.00139179 0.00719349 0.0227876 -0.00169151 0.0036765 0.0113272 -0.00120374 0.000997958
internal_weight=2759 2627 80 57 2547 2467 150 111 82 2317 2147 68 2079 46 2033 2002 1933 194 1739 76 62 1719 1449 270 98 172 141 110 82 1288
internal_count=2759 2627 80 57 2547 2467 150 111 82 2317 2147 68 2079 46 2033 2002 1933 194 1739 76 62 1719 1449 270 98 172 141 110 82 1288
is_linear=0
shrinkage=0.05


Tree=30
num_leaves=31
num_cat=0
split_feature=56 26 0 17 24 4 48 16 47 44 17 44 26 37 0 31 45 22 20 26 17 26 26 4 20 40 45 48 0 26
split_gain=11.0929 10.0364 38.274 9.40226 7.32522 11.5959 8.8091 13.2381 9.06644 10.7698 11.4145 10.2717 20.3422 10.5868 11.3573 9.08296 12.0876 7.91777 7.56113 23.1664 6.67513 6.56266 7.00647 11.3106 16.1516 13.0552 11.3629 12.9057 8.76236 10.9684
threshold=1.0000000180025095e-35 34.162096677099932 47890.250000000007 0.043549328251057957 48882.700000000004 55.628665315451677 2.1400205161333612 4.581274031254325 3.4999999970833335 1.5640601725875565 0.01010987838588105 2.0530546560259491 0.34715159237384802 0.00034336159676900008 47644.000000000007 9.2000000000007294 4.0362084931136524 74.999999964843767 -26.270078250084619 0.16810236126184461 0.017915214124544856 0.53206264972686779 -0.058722164481878246 28.613544657022501 17.777846529405462 0.88589969920436251 4.9995644819496272 0.79461830317073034 47622.500000000007 -0.32200624048709864
decision_type=2 2 2 2 2 2 2 2 10 2 2 2 2 2 2 2 2 2 2 2 2 2 2 2 2 2 2 2 2 2
left_child=-1 4 -3 -4 5 6 8 -8 9 15 -11 18 13 14 -13 -2 -17 20 19 -10 -16 22 28 24 -24 -26 -27 -28 -20 -30
right_child=1 2 3 -5 -6 -7 7 -9 11 10 -12 12 -14 -15 17 16 -18 -19 21 -21 -22 -23 23 -25 25 26 27 -29 29 -31
leaf_value=-0.014143614154873472 -0.004902402413114116 0.072592755609556386 0.016134027147601392 -0.02448649989174945 0.03030367013067007 -0.025519407900388948 -0.0030608537890340973 0.052560099363327034 -0.015508376798104673 0.0089283424968782232 -0.021994903873277013 0.027103830925349532 0.051014755492409074 0.037586156346581204 -0.011140554979443551 0.003140351839545297 0.0419322428565162 -0.023415349788315918 -0.0060845344460436282 0.05876007278760275 0.027613864280283451 0.027212530035864227 -0.0038078955041439683 -0.015758068474443179 -0.0092336570598969339 0.0035574040517935323 0.021267490337292354 0.070589125617629006 0.037842551117827153 0.0058510692465543719
leaf_weight=132 435 23 29 28 20 44 23 20 21 38 139 29 30 22 25 123 24 46 147 21 20 22 641 145 38 36 36 21 29 352
leaf_count=132 435 23 29 28 20 44 23 20 21 38 139 29 30 22 25 123 24 46 147 21 20 22 641 145 38 36 36 21 29 352
internal_value=-5.41287e-11 0.00071068 0.0181487 -0.00381992 0.00016296 -7.55895e-05 0.000375288 0.0228094 -2.00668e-05 -0.00455589 -0.015356 0.00202794 0.0136047 0.00570115 -0.00014443 -0.00127132 0.00947372 -0.00882794 0.000708385 0.0216258 0.00608363 0.000109521 -0.00030312 -0.00294503 -0.000538435 0.0154595 0.0255491 0.0394386 0.0042852 0.00828612
internal_weight=2759 2627 80 57 2547 2527 2483 43 2440 759 177 1681 172 142 120 582 147 91 1509 42 45 1467 1445 917 772 131 93 57 528 381
internal_count=2759 2627 80 57 2547 2527 2483 43 2440 759 177 1681 172 142 120 582 147 91 1509 42 45 1467 1445 917 772 131 93 57 528 381
is_linear=0
shrinkage=0.05


Tree=31
num_leaves=31
num_cat=0
split_feature=26 2 2 0 20 3 24 47 0 0 23 24 31 44 16 23 1 23 2 44 16 0 3 20 26 20 2 24 3 20
split_gain=9.79644 44.9223 8.18328 15.7593 46.9057 12.5063 22.5517 18.1549 11.1873 13.886 17.0211 12.7537 10.9836 10.2088 8.73517 10.042 35.4805 16.0764 11.4501 20.4975 22.9026 37.6236 10.7694 7.86324 7.46958 14.6518 13.6082 20.6393 17.6928 13.289
threshold=34.162096677099932 47899.475297675082 47916.253443983565 48110.250000000007 18.810912551143549 26.565234444924311 47912.250000000007 5.0606617624269781 47962.250000000007 47948.17500000001 6.5000000000000009 47929.950000000004 10.200000000000729 1.6883203428153852 8.56335322163517 14.500000000000002 47635.102507822456 15.500000000000002 47829.858958135155 1.3140489569085372 4.2219395341774408 47776.17500000001 7.4458776683384054 -0.52592728448996084 0.14586590230464933 -7.6981719467746226 48154.477061895617 48133.250000000007 5.3931963072752156 0.097307957747114107
decision_type=2 2 2 2 2 2 2 8 2 2 2 2 2 2 2 2 2 2 2 2 2 2 2 2 2 2 2 2 2 2
left_child=2 -2 5 4 8 14 7 -7 9 10 11 -4 -12 -10 15 -1 22 -18 19 20 -19 -22 -17 -13 25 -5 27 28 -27 -26
right_child=1 -3 3 24 -6 6 -8 -9 13 -11 12 23 -14 -15 -16 16 17 18 -20 -21 21 -23 -24 -25 29 26 -28 -29 -30 -31
leaf_value=-0.0055659966342710889 0.078076998449184684 -0.0058343232119584393 -0.033428426270869463 -0.020535636210214286 0.072203540037675151 0.0032207226008176808 -0.018424714250223979 0.067133548028767115 0.03869127899321706 -0.039258759468793869 0.029136476629237469 0.021377822023726279 -0.0021887107798829676 0.0020282327361843167 -0.014642823534472256 0.053048517262297014 -0.026238777010391158 0.071858388052455022 -0.015131490674744154 -0.025443912375097473 -0.043649764657020571 0.044311107784479616 0.0091953134252911514 -0.011992786960426445 0.020596876243249546 0.035361956825945527 -0.0055586057857442764 0.043331344779580838 -0.022234976822510362 -0.00059888703294531801
leaf_weight=802 22 58 38 118 29 20 28 25 43 20 74 31 45 34 181 42 60 21 49 24 20 31 21 41 93 20 328 40 40 361
leaf_count=802 22 58 38 118 29 20 28 25 43 20 74 31 45 34 181 42 60 21 49 24 20 31 21 41 93 20 328 40 40 361
internal_value=-5.71739e-13 0.0172413 -0.000514857 0.00221677 0.0112669 -0.00331044 0.0168063 0.0387278 0.00584615 0.000695422 0.00418487 -0.00999338 0.0172908 0.0225024 -0.00448432 -0.00276592 0.0056134 -0.00447194 0.00453502 0.0145731 0.0279122 0.00981665 0.0384308 0.00237511 -0.000996023 -0.00493651 -0.000635815 0.0155109 -0.003036 0.00374298
internal_weight=2759 80 2679 1355 355 1324 73 45 326 249 229 110 119 77 1251 1070 268 205 145 96 72 51 63 72 1000 546 428 100 60 454
internal_count=2759 80 2679 1355 355 1324 73 45 326 249 229 110 119 77 1251 1070 268 205 145 96 72 51 63 72 1000 546 428 100 60 454
is_linear=0
shrinkage=0.05


Tree=32
num_leaves=31
num_cat=0
split_feature=56 48 35 26 1 22 26 47 4 44 22 32 20 35 23 35 40 40 3 45 48 26 2 2 37 26 44 26 26 3
split_gain=9.52107 8.44613 10.3993 6.9247 32.9982 12.2734 12.0715 6.7311 9.27943 28.6353 14.2258 16.2787 30.3336 31.3873 12.3587 8.56627 9.77982 9.57104 10.1673 7.60051 7.28611 10.5926 7.68452 9.15256 7.11447 9.5998 6.82253 6.75879 8.63717 6.5772
threshold=1.0000000180025095e-35 2.1400205161333612 409.50000000000006 0.53206264972686779 47757.754220006922 71.277543198642363 33.601412526915318 3.4999999970833335 29.132455034295663 2.6616953414095268 64.709473518590144 2.5000000000000004 17.777846529405462 1329.5000000000002 7.5000000000000009 270.50000000000006 1.0091177346639031 1.3751451505904575 3.3932237367563371 5.6342423518773685 0.88334412801008499 -0.20803358405828473 47631.287643716736 47806.198123571739 1.0000000180025095e-35 0.049540922045707654 0.70468008649163349 -0.062635559588670689 0.13427373766899112 7.0824281653263172
decision_type=2 2 2 2 2 2 2 10 2 2 2 2 2 2 2 2 2 2 2 2 2 2 2 2 2 2 2 2 2 2
left_child=-1 3 -3 7 -5 6 -6 -2 9 10 15 -12 19 -14 27 16 -9 18 -17 -13 -20 29 -23 -24 25 -25 -19 -10 -29 -22
right_child=1 2 -4 4 5 -7 -8 8 14 -11 11 12 13 -15 -16 17 -18 26 20 -21 21 22 23 24 -26 -27 -28 28 -30 -31
leaf_value=-0.013103285081910367 -0.0046227261342793565 -0.00088287315890192986 0.045703509968260059 0.068590473702975691 0.031999897976984847 -0.032715729420835324 -0.0011314535081586757 -0.0085169797253218434 -0.01870861586016279 0.058527286577483885 -0.00011896914926867009 -0.0042244813565199971 0.105991604460869 0.017409321442246436 -0.012477209570736832 0.033696640350601895 0.034418061246267624 -0.035341875509104947 -0.004346926331910919 0.026414593987699065 0.034163433043525003 0.026482141277064448 -0.026207033601148351 -0.019728611331771721 0.028147086860345946 0.006057459332403683 -0.0056811444005592073 0.020125925793911814 -0.0087672221609146183 0.0087299465708919385
leaf_weight=132 689 25 23 21 37 22 107 21 23 23 117 48 20 20 242 22 36 33 543 35 39 23 38 55 21 105 47 81 38 73
leaf_count=132 689 25 23 21 37 22 107 21 23 23 117 48 20 20 242 22 36 33 543 35 39 23 38 55 21 105 47 81 38 73
internal_value=2.39178e-11 0.000658406 0.0214398 0.000271627 0.00953789 0.00206738 0.00738146 -0.000452784 0.00123429 0.00322573 0.0022443 0.0132326 0.025933 0.0617005 -0.00560609 -0.000253055 0.0185999 -0.00132875 0.000115207 0.00869561 -0.000708418 0.00487268 -0.00101128 -0.00389872 0.000784798 -0.0028065 -0.0179162 0.00610385 0.0108995 0.0175862
internal_weight=2759 2627 48 2579 187 166 144 2392 1703 1319 1296 240 123 40 384 1056 57 999 919 83 897 354 242 219 181 160 80 142 119 112
internal_count=2759 2627 48 2579 187 166 144 2392 1703 1319 1296 240 123 40 384 1056 57 999 919 83 897 354 242 219 181 160 80 142 119 112
is_linear=0
shrinkage=0.05


Tree=33
num_leaves=31
num_cat=0
split_feature=56 48 47 1 24 44 4 23 16 34 0 40 16 20 47 52 16 53 20 23 23 16 5 5 53 34 20 3 4 52
split_gain=8.59277 7.62264 9.7428 6.7027 22.8644 12.3038 6.35777 7.79348 6.33189 10.1966 11.8656 7.49712 7.12518 14.1782 32.6445 7.70177 6.72217 8.54289 6.34666 6.73217 29.9656 96.5283 9.49805 20.9722 8.73905 6.69085 10.8007 6.53242 6.71176 10.3418
threshold=1.0000000180025095e-35 2.1400205161333612 2.3333333275000006 47591.340159249514 47609.17500000001 0.97010792004847091 16.081793550780723 12.500000000000002 34.632419815054639 139.50000000000003 47876.42500000001 0.98398577061479375 15.465323130604681 20.750390303709583 5.0909926455146559 41.240384573745381 13.095738876151545 -15.403683937617695 13.047486364773588 15.500000000000002 16.500000000000004 4.9088998150164818 47802.237041480606 47823.391277130861 -40.638346626935395 120.50000000000001 -1.1664629587563504 12.026100077056046 34.365770994627425 -3.3666666577111104
decision_type=2 2 8 2 2 2 2 2 2 2 2 2 2 2 10 10 2 2 2 2 2 2 2 2 2 2 2 2 2 8
left_child=-1 3 -3 6 5 -5 -2 -8 9 12 -11 -12 13 16 15 -15 18 -18 19 24 21 -21 -22 -24 -6 26 -25 28 -26 -30
right_child=1 2 -4 4 8 -7 7 -9 -10 10 11 -13 -14 14 -16 -17 17 -19 -20 20 22 -23 23 25 27 -27 -28 -29 29 -31
leaf_value=-0.012448121042865697 0.0030481079322916848 -0.0062857801560312516 0.039406036798443116 0.005131927547045053 -0.030290588469226633 0.056478992729846925 0.0031027531673316847 -0.026750865292505945 -0.013599414124619217 0.045350344246253373 0.032036283741826599 -0.00040066147730037378 -0.010285753980787828 -0.024914194660430607 0.065906797915145199 0.017418749985240758 -0.00088243186473846436 0.043363990196958191 -0.011070792858761953 0.12607291882857682 -0.021597435713813798 -0.021300334557890894 0.045377625684653013 -0.01263363339834743 -0.0018678803688603745 0.02050623609810262 0.0061430439420733715 -0.024060245766498459 -0.0047695607865509927 0.020752015692280908
leaf_weight=132 62 20 28 20 26 28 32 69 80 25 23 79 159 22 27 21 24 20 133 20 41 25 28 135 1076 37 177 30 73 87
leaf_count=132 62 20 28 20 26 28 32 69 80 25 23 79 159 22 27 21 24 20 133 20 41 25 28 135 1076 37 177 30 73 87
internal_value=-3.72548e-11 0.000625486 0.0203678 0.000258045 0.000920131 0.0350844 -0.00955545 -0.0172923 0.000227613 0.000711075 0.0144798 0.00691355 -9.81031e-05 0.000711006 0.0228166 -0.00423997 -8.99228e-05 0.0192296 -0.000540165 0.000257882 0.00543097 0.0441989 0.00125739 0.00374292 -0.00159594 0.000402605 -0.00198148 -0.00100663 -0.000447081 0.0091078
internal_weight=2759 2627 48 2579 2416 48 163 101 2368 2288 127 102 2161 2002 70 43 1932 44 1888 1755 463 45 418 377 1292 349 312 1266 1236 160
internal_count=2759 2627 48 2579 2416 48 163 101 2368 2288 127 102 2161 2002 70 43 1932 44 1888 1755 463 45 418 377 1292 349 312 1266 1236 160
is_linear=0
shrinkage=0.05


Tree=34
num_leaves=31
num_cat=0
split_feature=26 2 54 2 2 4 47 22 23 3 3 48 26 26 5 17 26 44 17 26 17 4 1 3 23 34 47 26 26 26
split_gain=8.27996 37.9764 6.81097 12.7813 10.0381 8.49601 8.51351 11.0921 19.3585 50.4724 101.485 11.8414 11.2181 9.17747 7.10494 6.40044 6.13568 12.3258 8.57538 12.5891 9.48836 10.235 10.0396 8.38285 13.7874 15.472 8.0969 8.08788 7.95587 7.17394
threshold=34.162096677099932 47899.475297675082 48882.700000000004 48858.684995925891 48852.506994848722 55.628665315451677 3.7499999923823868 64.709473518590144 17.500000000000004 10.463910102200545 12.929513629676679 0.95518830479308647 0.34638892114162451 0.14590788632631302 47825.914270717803 0.057094042770719909 -0.05772705376148219 1.0691921087174314 0.049599586381409405 0.27874337136745458 0.029186689012786305 15.278835633431424 47910.571432490164 6.491809717585908 17.500000000000004 95.500000000000014 4.9999999952272729 -0.060406906530260991 0.3419182151556015 0.049258833751082413
decision_type=2 2 2 2 2 2 10 2 2 2 2 2 2 2 2 2 2 2 2 2 2 2 2 2 2 2 10 2 2 2
left_child=2 -2 3 4 5 6 -1 16 9 11 -11 12 13 -9 -10 -12 26 18 20 -20 21 29 -23 -19 -25 -26 -8 -28 -21 -18
right_child=1 -3 -4 -5 -6 -7 7 8 14 10 15 -13 -14 -15 -16 -17 17 23 19 28 -22 22 -24 24 25 -27 27 -29 -30 -31
leaf_value=-0.0039894124525165506 0.071785889413546439 -0.0053660318343739574 0.028595805261284114 -0.036274431735277175 0.034933680593967439 -0.023205740806623933 0.010466960968631435 0.019614062919036338 0.016714931959691256 0.14744535114616156 0.0024811337851133432 -0.023364210479255573 0.040064238066501591 -0.012712472318582094 -0.014731683484676137 0.034359000641251768 -0.01835761220815281 0.03084379094378913 -0.020886814311146737 0.046051065730197092 -0.025395325139397757 -0.022653807460856268 -0.002546665211428554 -0.013496710918843746 -0.0050357043991486232 0.046180774769264049 -0.0039835467050893429 0.020736452197102278 0.0061921824851343711 0.012373011244081446
leaf_weight=961 22 58 20 25 20 41 246 38 23 20 32 38 23 52 82 31 24 34 25 21 80 118 131 63 30 29 313 37 31 91
leaf_count=961 22 58 20 25 20 41 246 38 23 20 32 38 23 52 82 31 24 34 25 21 80 118 131 63 30 29 313 37 31 91
internal_value=-1.72465e-11 0.0158507 -0.000473333 -0.00069198 -0.000354258 -0.00062425 -0.00026442 0.00195625 0.00999351 0.0179972 0.0493185 0.000780949 0.00890056 0.000936509 -0.00784338 0.0181671 -0.000184076 -0.00344106 -0.00713276 0.0082709 -0.00980412 -0.00637748 -0.0120754 0.00888825 0.0027695 0.0201385 0.00351556 -0.00137029 0.022289 0.00595966
