tree
version=v4
num_class=1
num_tree_per_iteration=1
label_index=0
max_feature_idx=17
objective=regression
feature_names=price_vs_center adx atr_percent cloud_width ema_spread rsi tick_volume spread candle_size wick_upper wick_lower reclaim_state is_reclaim_signal bars_since_last trend_direction ema_cross_event hour day_of_week
feature_infos=[-41.02458:26.53387] [6.7887399999999998:77.833820000000003] [0.0086999999999999994:0.60660000000000003] [0:15.59545] [-15.59545:8.8902900000000002] [11.218159999999999:90.704099999999997] [1:11471] [0.01:2.54] [0:77.790000000000006] [0:10.58] [0:21.719999999999999] [-1:1] [0:1] none [0:1] [-1:1] [0:23] [0:4]
tree_sizes=2722 2846 2836 2857 2843 2845 2842 2839 2819 2833 2837 2850 2815 2845 2824 2859 2829 2823 2830 2826 2839 2848 2839 2835 2840 2788 2813 2806 2812 2829 2790 2820 2831 2806 2777 2803 2831 2809 2826 2810 2814 2808 2830 2805 2836 2781 2808 2821 2830 2805 2810 2786 2808 2771 2772 2809 2805 2842 2816 2814 2821 2820 2805 2826 2809 2812 2840 2777 2829 2801 2821

Tree=0
num_leaves=31
num_cat=0
split_feature=2 2 2 7 7 6 2 6 7 7 2 2 1 6 2 2 2 7 10 6 2 6 9 1 4 10 16 8 2 6
split_gain=26804.4 5372.34 3851 2682.83 2520.71 1229.69 933.414 821.882 557.733 446.086 489.6 382.957 300.287 240.52 235.813 201.109 171.873 170.178 165.777 152.579 123.378 118.089 112.682 110.814 110.238 104.816 98.8642 98.4311 94.2248 86.0478
threshold=0.078150000000000011 0.050550000000000005 0.12735000000000005 0.045000000000000005 0.045000000000000005 502.50000000000006 0.037350000000000008 735.50000000000011 0.025000000000000005 0.03500000000000001 0.15845000000000004 0.10375000000000002 20.861705000000004 520.50000000000011 0.068550000000000014 0.066150000000000014 0.22620000000000004 0.045000000000000005 0.48500000000000004 362.50000000000006 0.087350000000000025 353.50000000000006 1.1950000000000001 29.683810000000005 0.057015000000000003 0.65500000000000014 8.5000000000000018 3.7550000000000003 0.029150000000000006 614.50000000000011
decision_type=2 2 2 2 2 2 2 2 2 2 2 2 2 2 2 2 2 2 2 2 2 2 2 2 2 2 2 2 2 2
left_child=1 6 3 11 15 14 17 13 -8 10 -4 21 16 25 -6 -3 27 -1 -13 -10 -9 -2 -7 26 -15 -5 -14 29 -19 -12
right_child=2 4 9 7 5 22 8 20 19 -11 12 18 23 24 -16 -17 -18 28 -20 -21 -22 -23 -24 -25 -26 -27 -28 -29 -30 -31
leaf_value=1.927865826379568 1.9941077034018024 1.9634139742619245 2.0728164243276193 2.0518977722961456 2.0000800018100322 2.070192785251789 1.9469431319980297 2.0915794913931993 1.9710630958927757 2.1440009816003838 2.1233982431443339 2.027879077223071 2.236598239667893 2.0770941383898358 2.028327534179704 1.9822312802250852 2.3243664136544311 1.9319269549444367 2.068777751018783 2.0084001847013071 2.1552101639407213 2.0157056887583278 2.1355722160910662 2.0704544914185665 2.1156574652072835 2.0820288055171763 2.1210532596146563 2.109090922508114 1.9542304974821936 2.2323209669546635
leaf_weight=5630 1131 4208 715 1276 3070 678 4814 96 2390 1058 25 767 20 463 973 2143 22 808 366 309 369 1437 73 112 309 373 249 41 1144 66
leaf_count=5630 1131 4208 715 1276 3070 678 4814 96 2390 1058 25 767 20 463 973 2143 22 808 366 309 369 1437 73 112 309 373 249 41 1144 66
internal_value=1.98952 1.96409 2.06453 2.04505 1.99042 2.01779 1.94465 2.08119 1.95714 2.12011 2.09988 2.01688 2.13606 2.0695 2.00688 1.96976 2.19498 1.93228 2.04109 1.97534 2.14207 2.00619 2.07655 2.11224 2.09253 2.05871 2.12964 2.17342 1.945 2.2024
internal_weight=35135 26240 8895 6587 11145 4794 15095 2886 7513 2308 1250 3701 535 2421 4043 6351 154 7582 1133 2699 465 2568 751 381 772 1649 269 132 1952 91
internal_count=35135 26240 8895 6587 11145 4794 15095 2886 7513 2308 1250 3701 535 2421 4043 6351 154 7582 1133 2699 465 2568 751 381 772 1649 269 132 1952 91
is_linear=0
shrinkage=1


Tree=1
num_leaves=31
num_cat=0
split_feature=2 2 2 7 7 2 7 8 8 7 2 2 1 7 10 2 7 2 2 7 9 0 9 8 5 5 5 0 1 8
split_gain=24191 4848.54 3475.53 2421.25 2274.94 842.406 503.354 493.9 492.413 402.593 441.864 345.763 271.009 215.661 204.571 183.71 165.602 169.929 155.115 153.586 149.728 138.045 188.019 128.947 134.897 118.636 103.993 102.743 102.143 101.633
threshold=0.078150000000000011 0.050550000000000005 0.12735000000000005 0.045000000000000005 0.045000000000000005 0.037350000000000008 0.025000000000000005 1.7050000000000003 2.0450000000000004 0.03500000000000001 0.15845000000000004 0.097950000000000023 20.861705000000004 0.085000000000000006 0.46500000000000002 0.068950000000000025 0.085000000000000006 0.066150000000000014 0.22620000000000004 0.045000000000000005 1.3150000000000002 4.4956250000000013 0.41500000000000004 3.3050000000000002 61.351950000000009 60.801840000000006 42.908530000000006 2.3091950000000003 37.717600000000004 2.9650000000000003
decision_type=2 2 2 2 2 2 2 2 2 2 2 2 2 2 2 2 2 2 2 2 2 2 2 2 2 2 2 2 2 2
left_child=1 5 3 11 15 19 -7 -6 -5 10 -4 -2 18 21 -13 -3 17 20 -12 -1 29 25 -23 -24 -25 26 -10 -19 -14 -9
right_child=2 4 9 8 7 6 -8 16 13 -11 12 14 28 -15 -16 -17 -18 27 -20 -21 -22 22 23 24 -26 -27 -28 -29 -30 -31
leaf_value=-0.058825706812901737 0.012790289514410698 -0.02393111435180971 0.078877361494432363 0.063988422466340109 0.014719075013840136 -0.040702266520352866 -0.013727426077570043 0.026283461764430652 0.088053271762021879 0.14650269149092252 0.17444664465583629 0.031702196599398318 0.12258672254780929 0.054131543619920966 0.07117215875284176 -0.0042892577746917069 -0.002826745436237804 0.060684288986625951 0.31784985485402023 -0.042549863550910415 0.14094258420826758 0.086498528497938362 0.10361591798478161 0.28250351636063148 0.15116322225178869 0.034452718279578472 0.11983312571970957 0.10584551728697439 0.0091439399735203809 0.074618542328289197
leaf_weight=5630 2155 4764 715 1298 3096 4814 2699 693 380 1058 132 1073 360 181 473 1587 145 532 22 1952 34 65 29 46 34 55 798 165 21 129
leaf_count=5630 2155 4764 715 1298 3096 4814 2699 693 380 1058 132 1073 360 181 473 1587 145 532 22 1952 34 65 29 46 34 55 798 165 21 129
internal_value=-0.000254106 -0.0244097 0.0710042 0.0525038 0.000603529 -0.0428776 -0.0310117 0.0266043 0.0868325 0.123804 0.104592 0.0257347 0.138959 0.105505 0.0437781 -0.019023 0.048275 0.0530463 0.194933 -0.0546355 0.0381218 0.112114 0.153804 0.193941 0.226684 0.10623 0.109582 0.0713753 0.116334 0.0338689
internal_weight=35135 26240 8895 6587 11145 15095 7513 4794 2886 2308 1250 3701 535 1588 1546 6351 1698 1553 154 7582 856 1407 174 109 80 1233 1178 697 381 822
internal_count=35135 26240 8895 6587 11145 15095 7513 4794 2886 2308 1250 3701 535 1588 1546 6351 1698 1553 154 7582 856 1407 174 109 80 1233 1178 697 381 822
is_linear=0
shrinkage=0.05


Tree=2
num_leaves=31
num_cat=0
split_feature=2 2 2 7 7 6 2 6 7 2 7 2 6 2 6 2 2 6 2 8 3 9 3 1 1 5 4 9 9 8
split_gain=21836.7 4138.71 3334.14 2264.12 1996.98 1027.57 772.308 748.935 531.979 455.495 310.122 273.091 238.564 185.808 165.869 149.596 147.123 141.997 161.392 139.634 163.808 138.395 182.739 144.599 138.358 136.641 131.462 124.12 132.732 122.814
threshold=0.076750000000000013 0.050550000000000005 0.12415000000000002 0.045000000000000005 0.045000000000000005 502.50000000000006 0.034650000000000007 520.50000000000011 0.025000000000000005 0.14905000000000004 0.03500000000000001 0.096450000000000022 735.50000000000011 0.066150000000000014 362.50000000000006 0.087350000000000025 0.060250000000000005 1206.5000000000002 0.18640000000000004 2.8150000000000004 0.13384500000000002 0.69500000000000006 0.66992500000000021 25.320715000000003 17.131240000000002 39.147290000000005 0.71566000000000007 0.015000000000000001 0.20500000000000004 5.0650000000000004
decision_type=2 2 2 2 2 2 2 2 2 2 2 2 2 2 2 2 2 2 2 2 2 2 2 2 2 2 2 2 2 2
left_child=1 6 3 11 16 13 -1 -5 -8 10 -4 -2 25 -6 -10 -14 -3 18 19 24 -21 22 27 -23 -11 -9 29 -20 -29 -17
right_child=2 4 9 7 5 -7 8 12 14 17 -12 -13 15 -15 -16 26 -18 -19 21 20 -22 23 -24 -25 -26 -27 -28 28 -30 -31
leaf_value=-0.054474857751643263 0.010746175372517189 -0.027424575168562289 0.071006893587026276 0.058985500729169082 0.0075571521975083935 0.079929995490139696 -0.040305400413897331 0.02285867411410436 -0.018732760257834269 0.19173871928619013 0.1213767894065893 0.038062826766398959 0.088452522377095499 0.031399852829305325 0.018745579217899253 0.16569873321044981 -0.011858000029578958 0.099516573741576839 0.33104945394125851 0.22172924235463143 0.13463414391202821 0.16942308631359815 0.10016090873724376 0.066973212178653249 0.098459886171903863 0.099216148599204579 0.26255290886530508 0.14423091507663852 0.24239246288592789 0.098571311400185546
leaf_weight=6096 2265 2774 694 1733 2776 710 5868 64 2801 45 546 1535 114 1158 330 229 3352 223 22 70 236 102 39 52 341 693 26 57 87 97
leaf_count=6096 2265 2774 694 1733 2776 710 5868 64 2801 45 546 1535 114 1158 330 229 3352 223 22 70 236 102 39 52 341 693 26 57 87 97
internal_value=-0.000241401 -0.0238395 0.0656017 0.0473097 -0.000160985 0.0245672 -0.0407337 0.0801279 -0.0314253 0.114759 0.0931859 0.0217807 0.110087 0.0145754 -0.0147826 0.138233 -0.0189069 0.135755 0.143445 0.129332 0.154558 0.170647 0.197554 0.13483 0.109334 0.0927606 0.154355 0.220436 0.203537 0.145725
internal_weight=35135 25865 9270 6756 10770 4644 15095 2956 8999 2514 1240 3800 1223 3934 3131 466 6126 1274 1051 692 306 359 205 154 386 757 352 166 144 326
internal_count=35135 25865 9270 6756 10770 4644 15095 2956 8999 2514 1240 3800 1223 3934 3131 466 6126 1274 1051 692 306 359 205 154 386 757 352 166 144 326
is_linear=0
shrinkage=0.05


Tree=3
num_leaves=31
num_cat=0
split_feature=2 2 2 7 7 6 2 6 7 7 2 2 1 2 6 2 7 2 10 6 8 3 6 0 8 1 9 10 2 8
split_gain=19718.3 3945.33 2832.14 1972.78 1852.19 942.556 703.313 640.016 378.016 338.946 359.822 292.485 238.159 184.943 183.783 159.361 155.831 139.813 135.163 116.68 105.603 133.355 104.072 96.9789 101.742 93.9091 93.3108 92.3065 90.2454 90.1107
threshold=0.078150000000000011 0.050550000000000005 0.12735000000000005 0.045000000000000005 0.055000000000000007 502.50000000000006 0.038250000000000006 735.50000000000011 0.025000000000000005 0.03500000000000001 0.15845000000000004 0.10375000000000002 20.861705000000004 0.068550000000000014 520.50000000000011 0.066150000000000014 0.045000000000000005 0.22620000000000004 0.35500000000000004 362.50000000000006 6.5450000000000008 0.72975000000000012 353.50000000000006 3.8846400000000005 4.9150000000000009 29.683810000000005 1.1950000000000001 0.65500000000000014 0.029150000000000006 4.3350000000000009
decision_type=2 2 2 2 2 2 2 2 2 2 2 2 2 2 2 2 2 2 2 2 2 2 2 2 2 2 2 2 2 2
left_child=1 6 3 11 15 13 16 14 -8 10 -4 22 17 -6 27 -3 -1 -12 -13 -10 -9 -22 -2 24 -16 -14 -7 -5 -18 -27
right_child=2 4 9 7 5 26 8 20 19 -11 12 18 25 -15 23 -17 28 -19 -20 -21 21 -23 -24 -25 -26 29 -28 -29 -30 -31
leaf_value=-0.052774489875508014 0.0025592879384178026 -0.022219956367075622 0.070934957754993616 0.052250504504716272 0.008766073991236991 0.070456472895794861 -0.03585410021982724 0.14289760860660322 -0.015576388943144446 0.13259522263926216 0.15817500473084778 0.029462369403911087 0.1199606549020746 0.034446234357370001 0.086264489019655069 -0.0057111266555836615 -0.050116399034862362 0.2943214360963215 0.064364843476400466 0.017583235626207956 0.020008335392488991 0.15044581598291795 0.022834978438844963 0.13414553455915301 0.0040372110111638907 0.026632560568396003 0.12998152891020864 0.080526416623170907 -0.028847311050949172 0.11725935363986839
leaf_weight=6025 1131 4314 715 1276 2957 671 4422 386 2236 1058 132 648 269 919 632 2211 808 22 485 301 43 36 1437 100 40 64 73 373 1303 48
leaf_count=6025 1131 4314 715 1276 2957 671 4422 386 2236 1058 132 648 269 919 632 2211 808 22 485 301 43 36 1437 100 40 64 73 373 1303 48
internal_value=-0.000229331 -0.0220379 0.0641052 0.0474047 0.000525628 0.0247494 -0.038697 0.0783916 -0.0270273 0.111768 0.09414 0.0232416 0.125152 0.0148548 0.0680724 -0.0166259 -0.0486785 0.177624 0.044403 -0.0116422 0.132118 0.0794482 0.0139051 0.0882062 0.08137 0.103943 0.076297 0.0586465 -0.0369882 0.0654726
internal_weight=35135 26240 8895 6587 11145 4620 15095 2886 6959 2308 1250 3701 535 3876 2421 6525 8136 154 1133 2537 465 79 2568 772 672 381 744 1649 2111 112
internal_count=35135 26240 8895 6587 11145 4620 15095 2886 6959 2308 1250 3701 535 3876 2421 6525 8136 154 1133 2537 465 79 2568 772 672 381 744 1649 2111 112
is_linear=0
shrinkage=0.05


Tree=4
num_leaves=31
num_cat=0
split_feature=2 2 2 7 7 6 6 2 2 7 7 4 2 2 2 6 2 6 2 9 3 1 8 3 1 16 4 2 6 4
split_gain=17804.5 3319.12 2712.46 2188.93 1502.79 820.586 793.264 380.977 373.394 330.775 246.724 201.718 184.685 175.142 149.64 136.332 132.09 129.064 140.699 125.957 163.894 127.021 123.017 146.953 121.97 137.437 117.219 117.085 117.057 115.182
threshold=0.071650000000000005 0.12415000000000002 0.04395000000000001 0.045000000000000005 0.025000000000000005 502.50000000000006 520.50000000000011 0.14905000000000004 0.085550000000000015 0.045000000000000005 0.03500000000000001 0.067765000000000006 0.057450000000000008 0.03185000000000001 0.05655000000000001 735.50000000000011 0.029850000000000005 1206.5000000000002 0.18640000000000004 0.69500000000000006 0.62677500000000008 25.320715000000003 2.8150000000000004 0.13384500000000002 17.131240000000002 17.500000000000004 0.55518000000000012 0.086150000000000018 849.50000000000011 0.37681500000000007
decision_type=2 2 2 2 2 2 2 2 2 2 2 2 2 2 2 2 2 2 2 2 2 2 2 2 2 2 2 2 2 2
left_child=2 3 9 8 14 12 27 10 -2 16 -3 15 -6 -11 -4 -8 -1 18 22 20 29 -21 24 -24 -9 -26 28 -5 -25 -20
right_child=1 7 4 6 5 -7 11 17 -10 13 -12 -13 -14 -15 -16 -17 -18 -19 19 21 -22 -23 23 26 25 -27 -28 -29 -30 -31
leaf_value=-0.055817671258585055 -0.00073786379009312488 0.064135404989631273 -0.029093361574220912 0.037792023686199244 -0.0040706292231156094 0.065716051816865295 0.066073216073032445 0.17560369120703803 0.027846377312176464 -0.043881545347283071 0.10906269775431487 0.12098859753241549 0.015693474577273634 -0.01963156297018059 -0.014980642178785253 0.10782366530938498 -0.0424167132689518 0.088300832049428346 0.18756929834473079 0.15383198556271108 0.094473430808893477 0.05781088042287872 0.20430287651451573 0.13096292415059971 0.070449487894587937 0.14535853423876688 0.19064923879614443 0.060704158102779897 0.046218211725354202 0.31063736352053556
leaf_weight=2801 2035 694 4081 1155 2612 627 521 45 2605 1150 546 539 2159 2112 3480 313 5353 223 140 102 43 52 70 127 261 80 49 1078 60 22
leaf_count=2801 2035 694 4081 1155 2612 627 521 45 2605 1150 546 539 2159 2112 3480 313 5353 223 140 102 43 52 70 127 261 80 49 1078 60 22
internal_value=-0.000217864 0.0533533 -0.0238661 0.03802 -0.0082112 0.0119403 0.067242 0.103647 0.01531 -0.041637 0.0839179 0.0971492 0.00487314 -0.0281808 -0.0225979 0.0817421 -0.0470201 0.12285 0.13018 0.15558 0.181249 0.121409 0.117004 0.140681 0.0982336 0.0880235 0.12181 0.0488531 0.103772 0.204282
internal_weight=35135 10760 24375 8246 12959 5398 3606 2514 4640 11416 1240 1373 4771 3262 7561 834 8154 1274 1051 359 205 154 692 306 386 341 236 2233 187 162
internal_count=35135 10760 24375 8246 12959 5398 3606 2514 4640 11416 1240 1373 4771 3262 7561 834 8154 1274 1051 359 205 154 692 306 386 341 236 2233 187 162
is_linear=0
shrinkage=0.05


Tree=5
num_leaves=31
num_cat=0
split_feature=6 8 8 7 7 6 5 5 6 0 9 6 0 0 6 6 6 8 9 16 9 16 4 5 1 6 4 1 10 1
split_gain=15169 2716.47 1670.39 670.802 618.882 595.832 486.343 519.969 350.235 294.628 260.204 208.617 202.586 202.258 170.128 148.82 147.483 138.062 136.377 133.696 124.442 119.567 108.665 107.106 103.097 120.068 100.909 99.117 95.8371 91.5467
threshold=420.50000000000006 0.89500000000000013 2.8150000000000004 0.045000000000000005 0.045000000000000005 180.50000000000003 41.489930000000008 60.801840000000006 635.50000000000011 5.4622200000000012 0.51500000000000012 244.50000000000003 4.1375550000000008 -4.8405799999999992 262.50000000000006 266.50000000000006 506.50000000000006 0.58500000000000008 0.96500000000000008 16.500000000000004 1.0000000180025095e-35 15.500000000000002 -0.6282049999999999 39.548995000000005 21.822230000000005 834.50000000000011 0.12718500000000002 21.286100000000001 0.94500000000000006 26.031185000000004
decision_type=2 2 2 2 2 2 2 2 2 2 2 2 2 2 2 2 2 2 2 2 2 2 2 2 2 2 2 2 2 2
left_child=1 5 4 11 8 17 13 12 23 -9 14 -3 19 27 -5 -7 18 -1 -6 -8 -21 -18 -15 -2 25 -10 -23 -4 -28 -29
right_child=2 3 6 10 16 15 7 9 24 -11 -12 -13 -14 22 -16 -17 21 -19 -20 20 -22 26 -24 -25 -26 -27 28 29 -30 -31
leaf_value=-0.041853055117213156 -0.016509242991164123 -0.028546549173395677 0.13174787437297061 -0.0021531164761551696 0.040750441947290036 -0.023461941979411694 0.099231255362141987 0.03393159466848842 0.06281929844916459 0.10941342657897622 0.035262712304765673 -0.0057748246765204694 0.15857576186947811 0.09741712392818544 0.017218457164861766 -0.0057783016504560549 0.057762777118972347 -0.028933244025157057 0.10562243514139667 0.24757353185635544 0.12756256278204195 0.074726452950693453 0.026265728782003464 0.020432922177310707 0.042735140249959468 0.14115327562798152 0.1052490635943866 0.036983785339427665 0.21843167287962781 0.093083136374340014
leaf_weight=7619 219 1376 87 2185 903 4125 867 350 189 205 1074 3738 260 62 2355 1672 730 2838 89 23 355 479 399 1885 417 66 171 119 21 187
leaf_count=7619 219 1376 87 2185 903 4125 867 350 189 205 1074 3738 260 62 2355 1672 730 2838 89 23 355 479 399 1885 417 66 171 119 21 187
internal_value=-0.000330559 -0.0183301 0.0597539 0.00119787 0.0426879 -0.0312189 0.0900266 0.103179 0.0266247 0.0618123 0.0131309 -0.0119019 0.118433 0.0583016 0.00789535 -0.0183615 0.061322 -0.0383467 0.0465706 0.11005 0.134865 0.0717669 0.0358349 0.0165877 0.0580499 0.083094 0.0870024 0.0846557 0.117628 0.0712667
internal_weight=35065 26982 8083 10728 5169 16254 2914 2060 2776 555 5614 5114 1505 854 4540 5797 2393 10457 992 1245 378 1401 461 2104 672 255 671 393 192 306
internal_count=35065 26982 8083 10728 5169 16254 2914 2060 2776 555 5614 5114 1505 854 4540 5797 2393 10457 992 1245 378 1401 461 2104 672 255 671 393 192 306
is_linear=0
shrinkage=0.05


Tree=6
num_leaves=31
num_cat=0
split_feature=2 2 2 7 7 6 6 2 7 2 0 2 2 7 9 2 6 2 9 8 6 0 0 8 8 6 7 2 9 8
split_gain=14690.9 2588.94 2512.36 1657.17 1368.36 698.053 543.119 326.609 303.351 277.487 209.979 202.861 162.299 161.661 143.04 136.883 136.425 128.759 125.649 123.27 170.143 124.522 166.008 115.715 109.992 107.806 93.5976 92.8055 135.499 96.1453
threshold=0.074650000000000008 0.045450000000000011 0.12415000000000002 0.045000000000000005 0.075000000000000025 515.50000000000011 520.50000000000011 0.14395000000000002 0.045000000000000005 0.10465000000000001 4.4956250000000013 0.058950000000000009 0.059350000000000007 0.03500000000000001 0.48500000000000004 0.030550000000000004 755.50000000000011 0.027950000000000006 0.28500000000000009 2.6350000000000002 1264.5000000000002 -2.5293599999999992 -0.92569999999999986 6.2950000000000008 4.2550000000000008 362.50000000000006 0.075000000000000025 0.17890000000000003 0.96500000000000008 1.8450000000000004
decision_type=2 2 2 2 2 2 2 2 2 2 2 2 2 2 2 2 2 2 2 2 2 2 2 2 2 2 2 2 2 2
left_child=1 8 3 9 12 11 -5 13 17 -2 26 -6 -3 -4 -12 -10 18 -1 -15 27 21 -21 -23 24 -16 -17 -8 -9 29 -29
right_child=2 4 7 6 5 -7 10 19 15 -11 14 -13 -14 16 23 25 -18 -19 -20 20 -22 22 -24 -25 -26 -27 -28 28 -30 -31
leaf_value=-0.05235126983374358 0.0086789496008224856 -0.024467822401874215 0.055198587076968036 0.04692696541190583 -0.0017634344954829705 0.062896718015874653 0.029182142365865318 0.078126332940383236 -0.040407541923686258 0.039684910257197364 0.082898550378893945 0.019544420346039131 -0.0099374235506084919 0.040822886016506417 0.15495342747973545 -0.021516208542464541 0.14390813766406216 -0.038422588155502702 0.10256763704328074 0.1047284904326975 0.081330704722350461 0.22952753115614707 0.1369501223433533 0.086962779287410821 0.28219088017940525 0.016892138930658499 0.085616184128943132 0.21031186417562933 0.03369393276181213 0.11653670643160983
leaf_weight=2230 3173 4405 568 1919 2443 664 79 396 994 934 57 2058 3409 130 35 2364 109 6482 225 260 211 55 405 23 33 198 1050 41 33 82
leaf_count=2230 3173 4405 568 1919 2443 664 79 396 994 934 57 2058 3409 130 35 2364 109 6482 225 260 211 55 405 23 33 198 1050 41 33 82
internal_value=-0.000314031 -0.020496 0.051584 0.0367411 -0.00492948 0.0150393 0.063741 0.0946844 -0.0369647 0.0157302 0.0890082 0.00797919 -0.0181287 0.0730848 0.145007 -0.0246583 0.0949799 -0.0419879 0.0799569 0.109715 0.120815 0.132386 0.148019 0.18391 0.216701 -0.0185479 0.0816673 0.0909941 0.123658 0.147795
internal_weight=35065 25247 9818 7303 12979 5165 3196 2515 12268 4107 1277 4501 7814 1032 148 3556 464 8712 355 1483 931 720 460 91 68 2562 1129 552 156 123
internal_count=35065 25247 9818 7303 12979 5165 3196 2515 12268 4107 1277 4501 7814 1032 148 3556 464 8712 355 1483 931 720 460 91 68 2562 1129 552 156 123
is_linear=0
shrinkage=0.05


Tree=7
num_leaves=31
num_cat=0
split_feature=2 2 2 7 7 6 6 2 2 7 0 5 2 2 7 8 6 9 7 6 1 3 6 7 9 1 2 2 2 8
split_gain=13258.6 2307.26 2299.46 1504.54 1260.96 657.677 494.628 294.765 254.309 242.522 200.33 194.996 193.713 152.193 145.899 136.996 123.124 113.398 111.469 155.571 153.773 198.908 125.215 137.328 115.715 111.233 109.431 108.796 104.591 101.499
threshold=0.074250000000000024 0.044550000000000006 0.12415000000000002 0.045000000000000005 0.075000000000000025 515.50000000000011 520.50000000000011 0.14395000000000002 0.10465000000000001 0.065000000000000016 4.4956250000000013 61.351950000000009 0.058950000000000009 0.059350000000000007 0.03500000000000001 3.3050000000000002 755.50000000000011 0.28500000000000009 0.045000000000000005 609.50000000000011 24.315965000000002 0.19947000000000001 1264.5000000000002 0.38500000000000006 1.0000000180025095e-35 29.433255000000003 0.027950000000000006 0.030550000000000004 0.19625000000000004 2.8150000000000004
decision_type=2 2 2 2 2 2 2 2 2 2 2 2 2 2 2 2 2 2 2 2 2 2 2 2 2 2 2 2 2 2
left_child=1 9 3 8 13 12 -5 14 -2 26 -8 15 -6 -3 -4 -12 17 -16 19 -9 -21 25 23 24 -20 -22 -1 -11 29 -25
right_child=2 4 7 6 5 -7 10 18 -10 27 11 -13 -14 -15 16 -17 -18 -19 22 20 21 -23 -24 28 -26 -27 -28 -29 -30 -31
leaf_value=-0.04966907171125394 0.0080764709902992823 -0.023594815106154826 0.052438657442340164 0.044302565190098335 -0.0021133276615781442 0.060180144108905043 0.077069608034947085 0.053198361179558562 0.037700664825868105 -0.038314723178765574 0.089957350647697845 0.075442527545921845 0.018504699132621892 -0.0096682334455826715 0.038781741241422987 0.23199769944466395 0.13671272960619643 0.097439255097053118 0.23193178865416297 0.12879568080723164 0.18890461203968154 0.049209728865146948 0.05573549800565545 0.031527013152285864 0.12931244007317125 0.07168470749302823 -0.036812509361263804 -0.018317464271738464 -0.022570179837445418 0.1651545276492834
leaf_weight=2253 3229 4738 568 1957 2606 662 1139 200 934 964 24 67 2024 3348 130 58 109 225 29 305 50 192 71 27 521 34 6237 2310 24 30
leaf_count=2253 3229 4738 568 1957 2606 662 1139 200 934 964 24 67 2024 3348 130 58 109 225 29 305 50 192 71 27 521 34 6237 2310 24 30
internal_value=-0.00029833 -0.0196137 0.0486413 0.0346171 -0.00541008 0.0135649 0.0601393 0.0899502 0.0147229 -0.0357661 0.0842017 0.138721 0.00689982 -0.0178285 0.0694305 0.190425 0.0902309 0.075959 0.104229 0.0912332 0.104326 0.0772854 0.118688 0.125772 0.134723 0.141458 -0.0402243 -0.0242055 0.0649899 0.101857
internal_weight=35065 25142 9923 7408 13378 5292 3245 2515 4163 11764 1288 149 4630 8086 1032 82 464 355 1483 781 581 276 702 631 550 84 8490 3274 81 57
internal_count=35065 25142 9923 7408 13378 5292 3245 2515 4163 11764 1288 149 4630 8086 1032 82 464 355 1483 781 581 276 702 631 550 84 8490 3274 81 57
is_linear=0
shrinkage=0.05


Tree=8
num_leaves=31
num_cat=0
split_feature=2 2 7 2 7 6 6 2 7 2 0 2 2 8 9 9 9 8 3 6 10 16 9 7 0 16 8 1 8 8
split_gain=12037.8 3069.76 1440.63 1287.51 1024.69 713.621 478.993 437.872 246.347 206.248 173.585 148.008 138.902 112.142 128.184 105.127 105.045 104.906 149.677 122.876 114.384 114.116 117.628 102.312 101.234 95.1567 119.184 93.2387 114.176 114.295
threshold=0.085550000000000015 0.050850000000000006 0.075000000000000025 0.14395000000000002 0.045000000000000005 459.50000000000006 717.50000000000011 0.037350000000000008 0.075000000000000025 0.10465000000000001 4.1375550000000008 0.066150000000000014 0.065350000000000005 2.2650000000000001 1.1450000000000002 0.59500000000000008 1.5650000000000002 2.6350000000000002 1.7956050000000001 1264.5000000000002 0.29500000000000004 16.500000000000004 1.9450000000000001 0.13500000000000004 -3.3555249999999996 8.5000000000000018 4.1550000000000011 26.782365000000002 3.2050000000000005 4.705000000000001
decision_type=2 2 2 2 2 2 2 2 2 2 2 2 2 2 2 2 2 2 2 2 2 2 2 2 2 2 2 2 2 2
left_child=1 7 11 4 9 12 15 -1 -9 -2 16 -3 -4 14 -7 -6 -8 -5 19 20 24 22 25 -23 -19 26 -22 28 -27 -30
right_child=3 2 5 17 6 13 10 8 -10 -11 -12 -13 -14 -15 -16 -17 -18 18 -20 -21 21 23 -24 -25 -26 27 -28 -29 29 -31
leaf_value=-0.0387451462397004 0.015659615545658968 -0.017016110123532737 0.0054342308396779383 0.081747478896919565 0.051539282213339824 0.035322337269613369 0.10713755946476206 -0.028264075284613274 -0.0092828445030266535 0.041207597694027702 0.16210137325141202 -0.0028584220665514365 0.024582148498884453 0.070822746067039186 0.15850699923255229 0.076504269059080698 0.036337634464425429 0.030812454866428002 0.013378938822410045 0.078479776253961797 0.24282531034946442 0.18006067648530008 0.20438076483410306 0.086369869152882278 0.11215481836762693 0.17804811583008878 0.086833903333172202 0.033230081105774099 0.035561372314469292 0.14203674175183884
leaf_weight=7615 1664 4282 2369 552 1371 527 338 5005 2596 1504 133 3245 1578 662 22 609 62 51 39 196 25 174 33 35 153 43 24 55 59 44
leaf_count=7615 1664 4282 2369 552 1371 527 338 5005 2596 1504 133 3245 1578 662 22 609 62 51 39 196 25 174 33 35 153 43 24 55 59 44
internal_value=-0.000283413 -0.0151282 0.00303606 0.0575313 0.0467013 0.023391 0.0705437 -0.030271 -0.0217813 0.0277885 0.112617 -0.0109125 0.0130895 0.0569667 0.0402587 0.0592179 0.0961636 0.099018 0.109258 0.11345 0.123298 0.13635 0.115656 0.164371 0.0918192 0.103944 0.166421 0.0887137 0.109615 0.081046
internal_weight=35065 27901 12685 7164 5681 5158 2513 15216 7601 3168 533 7527 3947 1211 549 1980 400 1483 931 892 696 492 283 209 204 250 49 201 146 103
internal_count=35065 27901 12685 7164 5681 5158 2513 15216 7601 3168 533 7527 3947 1211 549 1980 400 1483 931 892 696 492 283 209 204 250 49 201 146 103
is_linear=0
shrinkage=0.05


Tree=9
num_leaves=31
num_cat=0
split_feature=6 8 8 7 7 6 5 5 6 0 9 8 4 6 0 16 6 6 10 9 3 5 5 8 6 10 0 3 6 0
split_gain=10343.8 1716.91 1247.78 492.307 417.105 391.416 362.842 409.26 269.477 219.005 178.796 150.188 145.515 136.973 134.186 140.059 110.442 110.177 103.705 136.777 109.625 103.389 153.224 101.689 101.205 98.3714 90.9474 119.67 127.79 91.7754
threshold=407.50000000000006 0.89500000000000013 2.9050000000000007 0.045000000000000005 0.025000000000000005 180.50000000000003 41.489930000000008 60.801840000000006 635.50000000000011 5.4622200000000012 0.58500000000000008 1.1450000000000002 -0.73468499999999992 244.50000000000003 4.1375550000000008 16.500000000000004 262.50000000000006 1066.5000000000002 0.075000000000000025 2.0050000000000003 0.08418500000000001 41.373915000000004 54.850215000000006 0.39500000000000007 266.50000000000006 0.38500000000000006 3.0313900000000005 0.15419500000000003 735.50000000000011 -1.5248199999999998
decision_type=2 2 2 2 2 2 2 2 2 2 2 2 2 2 2 2 2 2 2 2 2 2 2 2 2 2 2 2 2 2
left_child=1 5 3 8 13 23 12 14 -2 -9 16 -5 -4 -3 15 -8 -6 -13 -17 20 -20 -10 -23 -1 -7 -19 27 28 -22 -29
right_child=2 4 6 11 10 24 7 9 21 -11 -12 17 -14 -15 -16 18 -18 25 19 -21 26 22 -24 -25 -26 -27 -28 29 -30 -31
leaf_value=-0.037773202097416608 0.012554136903267449 -0.023783738652466312 0.077890391494711927 0.014102580778439143 -0.0017979918374599114 -0.019548158586143772 0.082330438916448354 0.025519169672034527 -0.00086191572641071521 0.090913408448601643 0.031533670192468853 0.0521369848170843 0.032887084473612604 -0.0051139162563622045 0.13413514594828327 0.049329356849193574 0.013667401944788427 0.039763866169821652 0.19990247640086981 0.018550366908311845 -0.013792632196260535 0.074857332291066808 0.023469012950663455 -0.027665049962729484 -0.0048451638598359251 0.1781953180829684 0.055953048359369865 0.12489685790260902 0.15680427391614235 0.207365909386276
leaf_weight=4080 2376 1367 264 265 2286 4125 802 341 95 205 806 2385 562 3492 252 45 2332 21 61 25 23 379 235 6377 1634 33 40 74 21 62
leaf_count=4080 2376 1367 264 265 2286 4125 802 341 95 205 806 2385 562 3492 252 45 2332 21 61 25 23 379 235 6377 1634 33 40 74 21 62
internal_value=-0.000269243 -0.0157093 0.0474946 0.0342775 0.000273086 -0.0258441 0.0750473 0.0868072 0.0206265 0.050072 0.00980426 0.0498518 0.0472707 -0.0103664 0.101083 0.093859 0.00601173 0.053736 0.120201 0.130623 0.140594 0.0476788 0.0551892 -0.0316089 -0.0153765 0.124361 0.124149 0.139304 0.0676286 0.162493
internal_weight=35065 26499 8566 5789 10283 16216 2777 1951 3085 546 5424 2704 826 4859 1405 1153 4618 2439 351 306 281 709 614 10457 5759 54 220 180 44 136
internal_count=35065 26499 8566 5789 10283 16216 2777 1951 3085 546 5424 2704 826 4859 1405 1153 4618 2439 351 306 281 709 614 10457 5759 54 220 180 44 136
is_linear=0
shrinkage=0.05


Tree=10
num_leaves=31
num_cat=0
split_feature=2 2 7 2 7 6 6 2 0 7 2 2 9 2 1 2 9 7 2 7 9 3 9 8 10 0 10 17 2 2
split_gain=9916.8 2490.24 1097.15 977.169 773.003 426.401 376.768 367.911 158.934 142.747 142.105 137.138 133.825 127.971 128.387 135.228 146.244 216.263 123.448 120.604 118.966 104.453 129.056 140.548 131.915 144.362 107.031 101.404 100.54 98.9101
threshold=0.085550000000000015 0.050550000000000005 0.065000000000000016 0.13445000000000004 0.075000000000000025 502.50000000000006 735.50000000000011 0.039750000000000008 3.8846400000000005 0.025000000000000005 0.10375000000000002 0.067750000000000019 0.59500000000000008 0.17235000000000003 27.316090000000003 0.22620000000000004 0.84500000000000008 0.075000000000000025 0.066150000000000014 0.095000000000000015 0.39500000000000007 1.0365250000000004 1.2550000000000001 6.2950000000000008 1.2650000000000003 5.4622200000000012 1.0050000000000001 1.5000000000000002 0.026750000000000006 0.11455000000000001
decision_type=2 2 2 2 2 2 2 2 2 2 2 2 2 2 2 2 2 2 2 2 2 2 2 2 2 2 2 2 2 2
left_child=1 7 11 4 10 8 12 28 18 -9 -2 -3 -6 -5 -15 16 17 20 -4 -7 -16 22 23 24 25 29 -23 -24 -1 -8
right_child=3 2 5 13 6 19 21 9 -10 -11 -12 -13 -14 14 15 -17 -18 -19 -20 -21 -22 26 27 -25 -26 -27 -28 -29 -30 -31
leaf_value=-0.043106595136605551 0.015223762976500677 -0.01525094282069649 0.0052607763374193416 0.07250008869758974 0.043396979305574152 0.053346872091723951 0.10745904917468228 -0.024148689266539833 0.098333246067718233 -0.0083009449447244109 0.036297712510640366 -0.0014287613284059975 0.073321938365120007 0.11440411227920087 0.0079248531864235007 0.0082018166963914139 0.035121007182169706 0.23385869315003649 0.022911498181873973 -0.041198368668556216 0.14881369954553145 0.23498849691501977 0.11904506766620804 0.030657329215583479 0.18410279719184525 0.22718221091088797 0.086770152016764593 0.01379412228507655 -0.031064421210663745 0.0076052486896514898
leaf_weight=2360 1714 4633 2593 1238 1156 930 124 3868 54 2246 1500 2929 552 464 31 66 64 34 1603 35 29 29 34 44 73 21 21 70 6527 31
leaf_count=2360 1714 4633 2593 1238 1156 930 124 3868 54 2246 1500 2929 552 464 31 66 64 34 1603 35 29 29 34 44 73 21 21 70 6527 31
internal_value=-0.000326257 -0.0139511 0.00227021 0.0515546 0.0405943 0.0199135 0.0637636 -0.0277675 0.0131008 -0.018327 0.0250591 -0.00989718 0.0530683 0.0821081 0.0993969 0.0683104 0.093419 0.133111 0.0120039 0.0499178 0.0760211 0.104631 0.096053 0.113037 0.127594 0.104156 0.172737 0.0482031 -0.0342623 0.0874883
internal_weight=35073 27778 12777 7295 5369 5215 2155 15001 4250 6114 3214 7562 1708 1926 688 224 158 94 4196 965 60 447 397 293 249 176 50 104 8887 155
internal_count=35073 27778 12777 7295 5369 5215 2155 15001 4250 6114 3214 7562 1708 1926 688 224 158 94 4196 965 60 447 397 293 249 176 50 104 8887 155
is_linear=0
shrinkage=0.05


Tree=11
num_leaves=31
num_cat=0
split_feature=2 2 7 2 7 6 6 2 0 7 2 2 9 2 1 2 9 7 16 2 9 7 7 10 16 8 0 8 1 5
split_gain=8949.91 2247.44 990.629 881.895 697.635 373.121 340.033 332.04 133.989 128.829 128.249 124.186 120.777 115.494 115.869 122.044 131.985 195.178 113.537 108.735 107.367 105.518 95.6015 87.9604 131.559 87.0384 84.5731 149.941 111.711 125.928
threshold=0.085550000000000015 0.050550000000000005 0.045000000000000005 0.13445000000000004 0.075000000000000025 502.50000000000006 735.50000000000011 0.039750000000000008 3.8846400000000005 0.025000000000000005 0.10375000000000002 0.067750000000000019 0.59500000000000008 0.17235000000000003 27.316090000000003 0.22620000000000004 0.84500000000000008 0.075000000000000025 15.500000000000002 0.066150000000000014 0.39500000000000007 0.095000000000000015 0.055000000000000007 0.30500000000000005 11.500000000000002 5.5250000000000012 -4.3640449999999991 2.9050000000000007 17.522030000000004 52.858820000000001
decision_type=2 2 2 2 2 2 2 2 2 2 2 2 2 2 2 2 2 2 2 2 2 2 2 2 2 2 2 2 2 2
left_child=1 7 11 4 10 8 12 22 19 -9 -2 -3 -6 26 18 16 17 20 23 -4 -16 -7 -1 24 -15 -17 -5 28 29 -28
right_child=3 2 5 13 6 21 -8 9 -10 -11 -12 -13 -14 14 15 25 -18 -19 -20 -21 -22 -23 -24 -25 -26 -27 27 -29 -30 -31
leaf_value=-0.035644144291701839 0.014462574510084933 -0.01503775128189627 0.0049255759562545067 0.033811849554027711 0.041227130377588628 0.049262399191150177 0.099399113163593705 -0.022941254601459567 0.088989576311515911 -0.0078858974544464226 0.034482826843935381 -0.001645850393735865 0.06965584121830086 0.11741854263388592 0.0075286099702240004 0.055566978605332766 0.033364957163576035 0.22216576024588638 0.12697083643746251 0.021013306974954859 0.14137301208644079 -0.03913844977106367 -0.023859688227574713 0.10195840516380061 -0.037414534422842892 -0.061216970533132554 0.14342017554574543 0.096744361050678795 0.049622161160477185 0.028888681013551021
leaf_weight=6553 1714 4496 2710 151 1156 950 447 3868 56 2246 1500 2815 552 23 31 39 64 34 300 1715 29 35 2334 107 34 27 72 429 550 36
leaf_count=6553 1714 4496 2710 151 1156 950 447 3868 56 2246 1500 2815 552 23 31 39 64 34 300 1715 29 35 2334 107 34 27 72 429 550 36
internal_value=-0.000309944 -0.0132535 0.0021567 0.0489769 0.0385646 0.0182581 0.0605754 -0.0263791 0.0121334 -0.0174106 0.0238062 -0.00988138 0.0504149 0.0780027 0.094427 0.0648949 0.0887481 0.126456 0.108684 0.0111607 0.0722201 0.0461213 -0.0325492 0.0752322 0.025062 0.00779173 0.0688751 0.0737459 0.0587514 0.105243
internal_weight=35073 27778 12777 7295 5369 5466 2155 15001 4481 6114 3214 7311 1708 1926 688 224 158 94 464 4425 60 985 8887 164 57 66 1238 1087 658 108
internal_count=35073 27778 12777 7295 5369 5466 2155 15001 4481 6114 3214 7311 1708 1926 688 224 158 94 464 4425 60 985 8887 164 57 66 1238 1087 658 108
is_linear=0
shrinkage=0.05


Tree=12
num_leaves=31
num_cat=0
split_feature=2 2 2 2 8 8 0 8 6 9 5 10 6 8 2 6 1 16 2 8 2 9 0 10 9 5 3 16 0 8
split_gain=8077.29 2037.36 795.91 433.415 432.629 427.692 176.152 161.652 160.093 151.825 132.142 106.782 106.842 106.379 104.233 104.654 144.18 256.13 109.423 157.192 92.8387 82.3568 99.4284 121.826 87.4685 81.7842 99.0047 78.3507 76.3272 135.321
threshold=0.085550000000000015 0.054750000000000007 0.13445000000000004 0.040050000000000009 3.1350000000000002 1.2250000000000003 2.6975500000000001 1.0950000000000004 1206.5000000000002 0.92500000000000016 61.351950000000009 0.65500000000000014 970.50000000000011 3.3050000000000002 0.17235000000000003 420.50000000000006 20.694420000000004 14.500000000000002 0.22620000000000004 3.5350000000000006 0.026750000000000006 0.57500000000000007 5.4622200000000012 0.41500000000000004 0.65500000000000014 59.861960000000003 0.31488500000000003 16.500000000000004 -4.3640449999999991 2.9050000000000007
decision_type=2 2 2 2 2 2 2 2 2 2 2 2 2 2 2 2 2 2 2 2 2 2 2 2 2 2 2 2 2 2
left_child=1 3 4 20 8 -3 9 -5 11 -7 13 12 -2 -8 28 -16 17 -17 19 -19 -1 -6 24 -24 -23 26 -11 -21 -4 -30
right_child=2 5 14 7 21 6 10 -9 -10 25 -12 -13 -14 -15 15 16 -18 18 -20 27 -22 22 23 -25 -26 -27 -28 -29 29 -31
leaf_value=-0.039302632095429967 0.024157211387002595 -0.0048674895390012959 0.032121257303245616 -0.019250500788062258 0.051750936443888396 0.0092307580589668266 0.055091284483149289 -0.0034801198127068556 0.17045744806528093 0.039739925013761661 0.018835922691377474 0.045565060029891358 0.12589767288703185 0.14511335452970786 0.16091271060286091 0.011853856437428055 0.068481369046264562 0.18882282522731816 0.2337966731298835 0.018110827657003555 -0.027770841879257886 0.13512317614422906 0.085247588197567642 0.21150462957548688 0.06146269778617286 -0.028312809443151628 0.12088108367698139 0.12726706461448753 0.055813848489090823 0.091907143181011883
leaf_weight=2360 3433 5639 151 5809 609 4115 207 2256 20 299 273 765 26 39 48 43 442 58 31 31 6701 45 56 29 386 37 43 35 658 429
leaf_count=2360 3433 5639 151 5809 609 4115 207 2256 20 299 273 765 26 39 48 43 442 58 31 31 6701 45 56 29 386 37 43 35 658 429
internal_value=-0.000294447 -0.0125909 0.046528 -0.0232701 0.0366363 0.00457894 0.015205 -0.0148391 0.0293288 0.0120198 0.0427852 0.0286606 0.024922 0.0693631 0.0741025 0.0897057 0.0843651 0.119823 0.149776 0.12877 -0.0307744 0.0642035 0.0789005 0.128324 0.0691535 0.0423022 0.0499419 0.0759967 0.0654313 0.0700586
internal_weight=35073 27778 7295 17126 5369 10652 5013 8065 4244 4494 519 4224 3459 246 1926 688 640 198 155 124 9061 1125 516 85 431 379 342 66 1238 1087
internal_count=35073 27778 7295 17126 5369 10652 5013 8065 4244 4494 519 4224 3459 246 1926 688 640 198 155 124 9061 1125 516 85 431 379 342 66 1238 1087
is_linear=0
shrinkage=0.05


Tree=13
num_leaves=31
num_cat=0
split_feature=2 2 2 7 7 6 6 2 7 7 1 2 2 7 16 4 16 6 8 8 16 3 5 0 6 6 10 8 2 7
split_gain=7314.88 1418.33 1064.8 758.107 718.601 307.257 279.007 176.21 172.634 153.325 156.706 141.805 119.825 109.881 105.968 157.961 128.238 101.475 98.8616 205.791 158.331 126.213 96.3662 94.3207 87.4031 91.0064 87.1875 124.714 85.7446 83.4683
threshold=0.076750000000000013 0.045450000000000011 0.12735000000000005 0.075000000000000025 0.065000000000000016 565.50000000000011 515.50000000000011 0.096450000000000022 0.045000000000000005 0.03500000000000001 19.972145000000005 0.22620000000000004 0.059350000000000007 0.085000000000000006 20.500000000000004 0.25924000000000008 21.500000000000004 1066.5000000000002 5.3350000000000009 3.3950000000000005 5.5000000000000009 0.66992500000000021 54.012870000000014 5.4622200000000012 1454.5000000000002 248.50000000000003 1.3050000000000004 3.4350000000000005 0.058950000000000009 0.095000000000000015
decision_type=2 2 2 2 2 2 2 2 2 2 2 2 2 2 2 2 2 2 2 2 2 2 2 2 2 2 2 2 2 2
left_child=1 8 3 7 28 12 29 -2 -1 10 11 -4 -6 17 24 16 -16 18 19 21 -21 -8 -9 -19 25 -11 -27 -28 -3 -5
right_child=2 4 9 6 5 -7 13 22 -10 14 -12 -13 -14 -15 15 -17 -18 23 -20 20 -22 -23 -24 -25 -26 26 27 -29 -30 -31
leaf_value=-0.030260976921337408 0.0054382051266825089 -0.017189024844608096 0.075707738667141464 0.040236946444847183 -0.00014060511173360371 0.046709749956816544 0.05873154519764371 0.03494996680988037 -0.017159052219737531 -0.0022083289469733386 0.044751488607216512 0.20435390938883244 0.015525921619136192 0.014927438016231989 0.16657525279593688 0.23433531257841322 0.01637434758245945 0.092180566904672356 0.023132679718620486 0.20532272492224971 0.092174132277159926 -0.069054197208024568 0.011053138789177097 0.20412751233035867 0.005631231131320376 0.074447601091523916 0.18130219776411446 0.088357289594319405 -0.006918449664939025 0.012387265436405288
leaf_weight=8599 2371 4289 312 1222 2616 546 571 1145 3553 33 947 23 2288 97 27 27 30 130 126 36 219 20 668 22 42 721 49 137 3862 345
leaf_count=8599 2371 4289 312 1222 2616 546 571 1145 3553 33 947 23 2288 97 27 27 30 130 126 36 219 20 668 22 42 721 49 137 3862 345
internal_value=-0.000279725 -0.0140164 0.0376774 0.0278697 -0.00292506 0.0111301 0.0480676 0.0144109 -0.0264302 0.0667996 0.0551487 0.0845402 0.00716874 0.0659864 0.0808114 0.134712 0.0875221 0.0703927 0.0644517 0.0706057 0.108148 0.0544072 0.0261452 0.108383 0.0762007 0.0793538 0.0823214 0.112843 -0.0123228 0.0341054
internal_weight=35073 25753 9320 6972 13601 5450 2788 4184 12152 2348 1282 335 4904 1221 1066 84 57 1124 972 846 255 591 1813 152 982 940 907 186 8151 1567
internal_count=35073 25753 9320 6972 13601 5450 2788 4184 12152 2348 1282 335 4904 1221 1066 84 57 1124 972 846 255 591 1813 152 982 940 907 186 8151 1567
is_linear=0
shrinkage=0.05


Tree=14
num_leaves=31
num_cat=0
split_feature=2 2 7 2 7 2 6 6 7 2 7 1 7 2 3 6 1 3 16 3 4 4 16 8 8 0 6 0 7 17
split_gain=6605.03 1660.55 679.623 652.634 554.092 363.884 262.481 245.113 196.599 104.514 100.439 95.7579 98.173 92.3427 99.1469 101.503 93.4643 90.7222 119.361 117.72 101.936 132.631 89.4973 126.487 168.764 103.419 114.089 87.4531 86.9694 85.0748
threshold=0.085550000000000015 0.054750000000000007 0.045000000000000005 0.13445000000000004 0.075000000000000025 0.039750000000000008 735.50000000000011 502.50000000000006 0.025000000000000005 0.10865000000000001 0.085000000000000006 19.728310000000004 0.03500000000000001 0.17235000000000003 0.62677500000000008 699.50000000000011 29.905750000000005 1.0365250000000004 16.500000000000004 0.25233000000000005 -0.14971499999999996 0.053895000000000005 16.500000000000004 5.8750000000000009 3.7550000000000003 -2.7077599999999995 635.50000000000011 3.8846400000000005 0.095000000000000015 3.5000000000000004
decision_type=2 2 2 2 2 2 2 2 2 2 2 2 2 2 2 2 2 2 2 2 2 2 2 2 2 2 2 2 2 2
left_child=1 5 -3 4 9 -1 10 27 -7 -2 -6 12 -11 -5 16 -16 22 18 20 -20 -8 -22 23 24 25 -15 -27 -4 -9 -24
right_child=3 2 7 13 6 8 17 28 -10 11 -12 -13 -14 14 15 -17 -18 -19 19 -21 21 -23 29 -25 -26 26 -28 -29 -30 -31
leaf_value=-0.028043929494947696 0.013129726885189952 -0.0068487523423682722 0.01202895224812125 0.058882935524365965 0.049617570414056344 -0.019519567795794834 0.021646508395454837 0.045182385660284971 -0.0036171058608289891 0.046579712829587609 0.018506167941729667 0.023540222540178304 0.14060021689942767 -0.0061658015102148064 0.13075935731467325 0.032611347440530195 0.045573162140194766 0.1503163628578186 0.061569481502131873 0.1638395992518567 0.15619916571106049 0.05829131041532596 0.14492257808482176 0.17951481776504682 0.00073861926794052126 0.057419732166454199 0.15750321333961828 0.076723442251249316 -0.037526899937427409 0.061278800999647699
leaf_weight=8887 2041 6074 3630 1238 1389 5098 103 862 3141 266 319 876 31 20 32 149 86 50 48 68 47 131 152 29 64 48 70 53 33 38
leaf_count=8887 2041 6074 3630 1238 1389 5098 103 862 3141 266 319 876 31 20 32 149 86 50 48 68 47 131 152 29 64 48 70 53 33 38
internal_value=-0.000265739 -0.0113852 0.00411575 0.042075 0.0331178 -0.0210264 0.0527339 0.0186632 -0.013457 0.0199651 0.043807 0.0318585 0.0563933 0.0670446 0.0817308 0.0499635 0.0930717 0.0868442 0.0788502 0.121521 0.0612353 0.0841434 0.102775 0.0818669 0.0678482 0.0989714 0.116791 0.0129599 0.0421328 0.128194
internal_weight=35073 27778 10652 7295 5369 17126 2155 4578 8239 3214 1708 1173 297 1926 688 181 507 447 397 116 281 178 421 231 202 138 118 3683 895 190
internal_count=35073 27778 10652 7295 5369 17126 2155 4578 8239 3214 1708 1173 297 1926 688 181 507 447 397 116 281 178 421 231 202 138 118 3683 895 190
is_linear=0
shrinkage=0.05


Tree=15
num_leaves=31
num_cat=0
split_feature=2 2 2 7 7 7 7 2 2 4 7 4 9 9 4 2 9 1 3 2 16 16 9 2 8 1 10 10 8 3
split_gain=6131.28 1184.25 945.561 625.202 615.28 251.155 216.075 180.626 155.087 148.937 146.384 122.988 130.269 111.624 114.799 106.499 137.37 113.957 111.807 96.8687 95.5296 166.255 115.392 92.4067 91.9775 113.091 119.14 101.586 86.4032 81.8198
threshold=0.075950000000000004 0.048450000000000007 0.11205000000000002 0.075000000000000025 0.045000000000000005 0.045000000000000005 0.045000000000000005 0.059650000000000009 0.17235000000000003 0.62057000000000018 0.085000000000000006 0.067765000000000006 0.52500000000000013 0.90500000000000014 -0.16337499999999996 0.14905000000000004 0.21500000000000002 13.788050000000002 0.17900500000000003 0.033150000000000006 15.500000000000002 5.5000000000000009 1.5150000000000003 0.029850000000000005 4.0050000000000008 23.106240000000003 0.77500000000000013 0.28500000000000009 1.0350000000000004 0.48371000000000003
decision_type=2 2 2 2 2 2 2 2 2 2 2 2 2 2 2 2 2 2 2 2 2 2 2 2 2 2 2 2 2 2
left_child=1 6 4 -3 -2 8 19 -5 -4 -10 11 28 -13 -9 -15 16 -7 -18 24 -1 21 -20 29 -8 25 26 27 -19 -6 -23
right_child=2 3 5 7 10 15 23 13 9 -11 -12 12 -14 14 -16 -17 17 18 20 -21 -22 22 -24 -25 -26 -27 -28 -29 -30 -31
leaf_value=-0.032724138463196675 0.008349600736474427 -0.010408911366681414 0.035702162193614106 0.0028746400752421688 -0.0068145587681493636 0.031432156841057664 -0.027408952906145326 0.019370579940614269 0.082076845969460174 -0.019890133356675506 0.012827174911661438 0.045113924646467927 0.084206317441592765 0.1541869608892335 0.043376369348020645 0.087229645628650848 0.18421469682996924 0.086339111215081712 0.14250756356605263 -0.022538584295652531 0.10750519483442511 0.045151144938750401 0.12026873413059447 -0.0093349603147416353 0.12067800636802402 -0.0057094550274576668 0.1513341997055492 -0.0072418016156759763 0.039659121528521996 -0.046136864775584804
leaf_weight=3947 3387 7021 1495 2222 109 293 897 2248 342 40 403 571 340 27 174 574 22 58 43 5713 222 54 27 3342 35 104 30 58 1213 45
leaf_count=3947 3387 7021 1495 2222 109 293 897 2248 342 40 403 571 340 27 174 574 22 58 43 5713 222 54 27 3342 35 104 30 58 1213 45
internal_value=1.13963e-05 -0.0127055 0.0343947 -0.000978269 0.0224478 0.0552999 -0.0225706 0.013197 0.0429672 0.0713997 0.0405627 0.0455683 0.0597038 0.0225625 0.0582614 0.0700914 0.0601647 0.0722258 0.0685811 -0.0267003 0.0859418 0.0576159 0.0286449 -0.0131595 0.0447636 0.0341355 0.0625183 0.0395487 0.0358273 0.0036566
internal_weight=35056 25591 9465 11692 6023 3442 13899 4671 1877 382 2636 2233 911 2449 201 1565 991 698 676 9660 391 169 126 4239 285 250 146 116 1322 99
internal_count=35056 25591 9465 11692 6023 3442 13899 4671 1877 382 2636 2233 911 2449 201 1565 991 698 676 9660 391 169 126 4239 285 250 146 116 1322 99
is_linear=0
shrinkage=0.05


Tree=16
num_leaves=31
num_cat=0
split_feature=2 2 2 7 7 6 7 7 6 2 4 4 0 2 6 0 2 6 2 16 8 2 16 8 1 6 7 6 10 2
split_gain=5533.48 1068.78 854.261 564.439 537.561 337.552 245.16 195.008 164.183 148.6 134.415 127.708 122.973 102.867 192.699 218.254 97.2088 92.5715 87.424 79.5044 79.0965 100.717 96.8398 108.418 77.4058 77.2702 76.6533 118.198 102.971 113.362
threshold=0.075950000000000004 0.048450000000000007 0.10995000000000001 0.065000000000000016 0.045000000000000005 570.50000000000011 0.045000000000000005 0.045000000000000005 525.50000000000011 0.17235000000000003 0.62057000000000018 0.058495000000000012 4.9071250000000006 0.14905000000000004 1000.5000000000001 4.1375550000000008 0.058050000000000011 362.50000000000006 0.033150000000000006 11.500000000000002 2.1350000000000002 0.15175000000000002 17.500000000000004 1.8050000000000004 19.972145000000005 570.50000000000011 0.14500000000000005 560.50000000000011 1.3650000000000004 0.17235000000000003
decision_type=2 2 2 2 2 2 2 2 2 2 2 2 2 2 2 2 2 2 2 2 2 2 2 2 2 2 2 2 2 2
left_child=1 7 4 -3 25 16 9 18 -6 -4 12 19 -11 14 -8 -16 -5 -9 -1 24 22 -22 23 -15 -10 -2 27 -23 29 -29
right_child=2 3 6 5 8 -7 13 17 11 10 -12 -13 -14 20 15 -17 -18 -19 -20 -21 21 26 -24 -25 -26 -27 -28 28 -30 -31
leaf_value=-0.031087931552963567 0.0037423822443180318 -0.0099556430667729848 0.033166255515284661 -0.0010088075999579822 0.028331636277538527 0.05150189901956103 0.049683135421899179 -0.014428720568640913 0.129541637805792 0.068340112801280717 -0.018895627488382163 0.076768614139117591 0.17129164009820672 0.13870171442885246 0.071360360364119219 0.22257106951304848 0.014357024631101258 0.015827731518991101 -0.021411655067833643 0.02638379809452206 0.15784275540534187 0.16225378466279883 0.1974621728302971 -0.002860101294659433 0.049008123444642615 0.023980592318462092 0.027033819088168196 0.011707442871620427 0.11149322723951004 0.08307761954343762
leaf_weight=3947 2688 6980 1622 1784 1609 495 981 3969 39 310 40 385 32 38 75 35 2433 270 5713 376 34 38 31 21 127 572 89 103 99 121
leaf_count=3947 2688 6980 1622 1784 1609 495 981 3969 39 310 40 385 32 38 75 35 2433 270 5713 376 34 38 31 21 127 572 89 103 99 121
internal_value=1.08265e-05 -0.0120702 0.032675 -0.000929355 0.0207237 0.0124415 0.0515547 -0.021442 0.0379882 0.0397738 0.0678297 0.0547491 0.077973 0.0657342 0.0567197 0.119473 0.00785652 -0.0125016 -0.0253653 0.0391079 0.0828682 0.0748645 0.12591 0.0883153 0.0679286 0.00729338 0.068595 0.0788414 0.0690281 0.0502601
internal_weight=35056 25591 9465 11692 5796 4712 3669 13899 2536 2004 382 927 342 1665 1091 110 4217 4239 9660 542 574 484 90 59 166 3260 450 361 323 224
internal_count=35056 25591 9465 11692 5796 4712 3669 13899 2536 2004 382 927 342 1665 1091 110 4217 4239 9660 542 574 484 90 59 166 3260 450 361 323 224
is_linear=0
shrinkage=0.05


Tree=17
num_leaves=31
num_cat=0
split_feature=2 2 2 7 7 6 7 6 1 2 4 5 9 7 6 2 9 4 10 8 7 6 5 7 9 6 15 2 1 5
split_gain=4994.64 973.217 792.549 627.339 425.417 285.924 221.257 221.219 148.272 134.112 121.31 116.478 130.434 115.592 96.0122 115.97 126.489 96.482 130.173 91.6079 87.8002 84.2778 82.8968 82.8235 145.118 123.187 104.527 78.8859 73.5988 107.412
threshold=0.070950000000000013 0.10995000000000001 0.04395000000000001 0.045000000000000005 0.075000000000000025 502.50000000000006 0.045000000000000005 550.50000000000011 39.46535500000001 0.17235000000000003 0.62057000000000018 42.628435000000003 1.8650000000000004 0.045000000000000005 614.50000000000011 0.14905000000000004 0.89500000000000013 -0.36998499999999995 3.4850000000000008 9.3950000000000014 0.095000000000000015 530.50000000000011 57.647000000000006 0.15500000000000003 0.30500000000000005 560.50000000000011 -1.0000000180025095e-35 0.058950000000000009 29.433255000000003 55.656265000000012
decision_type=2 2 2 2 2 2 2 2 2 2 2 2 2 2 2 2 2 2 2 2 2 2 2 2 2 2 2 2 2 2
left_child=2 3 13 -2 -4 20 9 -5 11 -3 28 -9 -13 -1 15 21 23 18 -16 -19 27 -8 -23 25 -25 26 -17 -6 29 -11
right_child=1 6 4 7 5 -7 14 8 -10 10 -12 12 -14 -15 17 16 -18 19 -20 -21 -22 22 -24 24 -26 -27 -28 -29 -30 -31
leaf_value=-0.02552283195390976 0.0045666920802385162 0.031507942720738945 -0.011487810860741734 0.025527925844413369 6.6712579278512319e-05 0.039354338639527441 0.051705692346261524 0.020641810745309991 0.15390612189140584 0.070649763772588803 -0.017950845570303502 0.067251370910823144 -0.019132668873731128 -0.014404619442620984 0.033844501506721622 0.27295182991772887 0.020140910675843893 0.079815995494420297 0.16757048018276693 0.16665939971571789 -0.015778024463324724 0.025530476553469711 -0.066303564865013653 -0.016861904909213386 0.13999254084352791 0.060564157939242094 0.13173354783732641 0.015033261726743892 0.02915765339130303 0.15062364530033218
leaf_weight=8095 4130 1622 7724 2230 2429 609 416 241 36 218 40 622 47 3287 202 20 59 595 20 32 556 161 29 30 29 34 38 1381 72 52
leaf_count=8095 4130 1622 7724 2230 2429 609 416 241 36 218 40 622 47 3287 202 20 59 595 20 32 556 161 29 30 29 34 38 1381 72 52
internal_value=1.02852e-05 0.0279663 -0.0127308 0.017415 -0.00414321 0.00725974 0.0489769 0.0341227 0.0543831 0.0377851 0.0644382 0.0504459 0.0611825 -0.022312 0.0624475 0.0502004 0.0822206 0.0742186 0.0458919 0.0842482 0.00278296 0.0391042 0.0115137 0.106477 0.060236 0.136131 0.18043 0.0054916 0.0740744 0.0860521
internal_weight=35056 10975 24081 7306 12699 4975 3669 3176 946 2004 382 910 669 11382 1665 816 210 849 222 627 4366 606 190 151 59 92 58 3810 342 270
internal_count=35056 10975 24081 7306 12699 4975 3669 3176 946 2004 382 910 669 11382 1665 816 210 849 222 627 4366 606 190 151 59 92 58 3810 342 270
is_linear=0
shrinkage=0.05


Tree=18
num_leaves=31
num_cat=0
split_feature=6 2 2 2 2 0 2 10 6 8 9 16 10 10 2 10 8 4 10 6 9 9 1 0 6 9 4 9 2 3
split_gain=4529.78 1050.41 766.65 253.125 204.858 173.12 150.863 134.188 125.004 97.0029 96.3537 101.082 98.6828 92.5355 90.2164 84.6062 116.405 133.889 96.8928 84.8219 80.4297 76.0712 73.7671 98.9328 76.8346 73.0699 79.2829 72.4803 71.9502 87.5987
threshold=392.50000000000006 0.058950000000000009 0.096450000000000022 0.034350000000000006 0.17235000000000003 3.8846400000000005 0.14905000000000004 0.33500000000000008 690.50000000000011 0.62500000000000011 2.1050000000000004 9.5000000000000018 2.4500000000000006 0.44500000000000006 0.11815000000000002 0.83500000000000008 1.675 0.46081000000000005 0.89500000000000013 1206.5000000000002 0.89500000000000013 0.50500000000000012 18.496245000000005 3.0313900000000005 673.50000000000011 1.0000000180025095e-35 -0.0032249999999999996 1.1950000000000001 0.085550000000000015 0.50826000000000005
decision_type=2 2 2 2 2 2 2 2 2 2 2 2 2 2 2 2 2 2 2 2 2 2 2 2 2 2 2 2 2 2
left_child=1 3 5 -1 7 8 10 20 21 -5 11 12 22 -7 -12 19 -17 18 -18 -13 -3 -2 -4 24 -24 26 -8 -20 -9 -30
right_child=2 4 6 9 -6 13 25 28 -10 -11 14 15 -14 -15 -16 16 17 -19 27 -21 -22 -23 23 -25 -26 -27 -28 -29 29 -31
leaf_value=-0.02581045494734821 0.0067815806354824277 -0.00073302703416968924 0.1268006205241731 -0.018746198640534405 0.11761192720849067 0.038351672183073664 0.070722584704106514 0.0089593534696104423 0.033131256411535678 -0.0096414331516408592 0.030016564205288889 0.028244868394774903 -0.043129925004073554 0.10677574221976101 0.13099401923743162 -0.02345111446177706 0.13852005937979336 -0.030357677699663702 0.065203833735547959 0.09177811797018405 0.036372016606852416 0.022245331178041047 0.068125074521145398 0.10779369000345469 0.01071772685128392 0.057612152463880233 0.1728915504340468 -0.0079420501315915909 0.032982519105187139 -0.070914704600969949
leaf_weight=5850 2818 5541 47 4784 40 168 55 1388 774 7530 37 1936 21 70 55 47 42 39 400 54 150 1108 136 80 102 1099 29 37 598 21
leaf_count=5850 2818 5541 47 4784 40 168 55 1388 774 7530 37 1936 21 70 55 47 42 39 400 54 150 1108 136 80 102 1099 29 37 598 21
internal_value=9.77091e-06 -0.010675 0.0302433 -0.0172469 0.00475168 0.0168731 0.0459032 0.00416524 0.0147664 -0.0131786 0.0399962 0.0384199 0.0622684 0.0584764 0.0903835 0.034817 0.0518927 0.0587289 0.0659823 0.0299689 0.000244966 0.0111458 0.0683324 0.0596909 0.0435219 0.0610476 0.105995 0.0590107 0.0152815 0.0294577
internal_weight=35056 25902 9154 18164 7738 4938 4216 7698 4700 12314 3033 2941 386 238 92 2555 565 518 479 1990 5691 3926 365 318 238 1183 84 437 2007 619
internal_count=35056 25902 9154 18164 7738 4938 4216 7698 4700 12314 3033 2941 386 238 92 2555 565 518 479 1990 5691 3926 365 318 238 1183 84 437 2007 619
is_linear=0
shrinkage=0.05


Tree=19
num_leaves=31
num_cat=0
split_feature=2 2 7 7 2 2 2 7 9 9 2 9 3 7 8 7 5 8 5 2 8 16 16 2 4 4 16 16 8 8
split_gain=4114.38 797.512 636.746 456.712 402.3 250.493 167.873 119.039 118.539 113.998 110.877 128.693 121.754 106.49 88.2069 84.5905 86.438 89.489 158.981 87.4482 83.1544 81.565 84.0238 81.4556 116.784 79.782 77.2458 110.454 114.776 98.8542
threshold=0.075950000000000004 0.05025000000000001 0.045000000000000005 0.065000000000000016 0.12105 0.093650000000000025 0.034350000000000006 0.085000000000000006 0.93500000000000016 1.0350000000000004 0.14905000000000004 0.29500000000000004 0.17900500000000003 0.025000000000000005 4.6150000000000011 0.085000000000000006 47.45327000000001 2.8450000000000002 60.605655000000006 0.089050000000000004 1.3250000000000004 18.500000000000004 5.5000000000000009 0.17890000000000003 0.62057000000000018 0.098045000000000007 15.500000000000002 5.5000000000000009 3.5350000000000006 4.9150000000000009
decision_type=2 2 2 2 2 2 2 2 2 2 2 2 2 2 2 2 2 2 2 2 2 2 2 2 2 2 2 2 2 2
left_child=1 6 4 -3 -2 8 -1 9 15 14 11 21 -13 -8 -5 16 -4 -18 19 -19 -14 22 -7 -6 -25 -11 27 28 -22 -30
right_child=2 3 5 7 23 10 13 -9 -10 25 -12 12 20 -15 -16 -17 17 18 -20 -21 26 -23 -24 24 -26 -27 -28 -29 29 -31
leaf_value=-0.024454427975333384 0.007933068030456061 -0.0085551516973231389 0.012740714865850052 0.012916687340092013 0.032306198785357815 0.079167257814157399 -0.017574160616915375 -0.0090756457128752296 0.063684209493915497 0.082290205271598305 0.071807699933979105 0.040144554638208915 0.15925808629164329 -0.0061862505518553894 0.084144043380563915 -0.0055174858317498052 0.031217809843469981 0.090553560771725397 0.0025187542618707172 0.2126434886455536 0.032970300124537562 0.070044058096911097 0.017948418192877211 0.0710716874223839 -0.019933912463020537 0.011592721164925025 0.086094707673366522 0.035318980836476464 0.24001960270106792 0.084696924899305623
leaf_weight=5878 3781 6326 538 3581 1146 62 5880 558 198 106 574 579 26 3154 44 228 555 55 43 20 31 112 584 297 40 64 304 251 20 21
leaf_count=5878 3781 6326 538 3581 1146 62 5880 558 198 106 574 579 26 3154 44 228 555 55 43 20 31 112 584 297 40 64 304 251 20 21
internal_value=9.28233e-06 -0.0104081 0.0281752 2.22485e-05 0.0165898 0.0426921 -0.0178776 0.0124874 0.027412 0.0156579 0.0524478 0.0468636 0.0568372 -0.0135984 0.0137812 0.0224211 0.0276813 0.0396248 0.0791663 0.123111 0.0716381 0.0306533 0.0238239 0.0386607 0.0602698 0.0556747 0.0680047 0.0509789 0.105571 0.160464
internal_weight=35056 25591 9465 10679 5264 4201 14912 4353 1637 3795 2564 1990 1232 9034 3625 1439 1211 673 118 75 653 758 646 1483 337 170 627 323 72 41
internal_count=35056 25591 9465 10679 5264 4201 14912 4353 1637 3795 2564 1990 1232 9034 3625 1439 1211 673 118 75 653 758 646 1483 337 170 627 323 72 41
is_linear=0
shrinkage=0.05


Tree=20
num_leaves=31
num_cat=0
split_feature=2 2 2 7 7 7 9 7 10 1 9 7 7 9 7 3 5 10 3 2 4 10 4 1 9 9 9 2 2 0
split_gain=3798.83 1001.79 424.673 422.589 204.386 203.474 134.298 118.643 114.494 119.482 105.983 100.374 96.1785 85.0874 111.863 92.1832 128.715 99.7439 90.6556 94.7269 130.058 81.3074 78.8719 88.4908 115.184 83.6255 80.8204 77.5327 106.236 88.6509
threshold=0.066150000000000014 0.10375000000000002 0.044550000000000006 0.075000000000000025 0.045000000000000005 0.03500000000000001 0.53500000000000014 0.095000000000000015 1.2550000000000001 22.426830000000006 2.4350000000000005 0.085000000000000006 0.045000000000000005 0.20500000000000004 0.085000000000000006 0.11658500000000001 53.748745000000007 4.0050000000000008 0.39849000000000007 0.15475000000000003 -0.73468499999999992 2.7050000000000005 -0.045454999999999988 19.207985000000004 0.49500000000000005 0.54500000000000015 0.7350000000000001 0.14645000000000002 0.15845000000000004 2.6048900000000006
decision_type=2 2 2 2 2 2 2 2 2 2 2 2 2 2 2 2 2 2 2 2 2 2 2 2 2 2 2 2 2 2
left_child=2 3 12 -2 -4 8 11 -6 -3 -10 -8 -5 -1 14 18 16 22 21 27 20 -20 -17 25 26 -25 -15 -24 29 -29 -7
right_child=1 5 4 6 7 13 10 -9 9 -11 -12 -13 -14 15 -16 17 -18 -19 19 -21 -22 -23 23 24 -26 -27 -28 28 -30 -31
leaf_value=-0.021743756142024895 0.0025584806669243093 0.028184255565537428 -0.010805368152729131 0.023872441606511113 0.0061724693102022492 0.038926281522355645 0.043010841283217652 -0.020226120102077055 0.1138654803448334 0.037863166233790775 -0.06553394211375195 -0.0029686200091139842 -0.011794915831438678 0.074897749929927121 -0.0079734044216041057 0.068195364853299731 -0.010798204263361793 -0.025156313766326224 0.080086219130918901 0.085146157029602265 -0.045324384669462842 0.15778848710828103 0.063782527382884702 0.11913240799089758 0.018368346843382587 -0.014981706944795756 0.16977182203853453 0.20716966400366454 0.061517364219311747 0.13039757095036969
leaf_weight=8291 4886 2107 6289 1890 3884 182 1011 478 82 140 23 427 3436 43 112 973 96 28 29 36 72 26 35 41 92 65 37 21 31 31
leaf_count=8291 4886 2107 6289 1890 3884 182 1011 478 82 140 23 427 3436 43 112 973 96 28 29 36 72 26 35 41 92 65 37 21 31 31
internal_value=7.34601e-05 0.0221331 -0.0122645 0.0119374 -0.00503701 0.0417594 0.0256127 0.00327964 0.0317828 0.0659361 0.0405964 0.0189259 -0.0188288 0.0536751 0.0362177 0.0599238 0.0398495 0.0679184 0.0485296 0.0155066 -0.0093154 0.0705271 0.0553836 0.0736013 0.049431 0.0208036 0.118249 0.0656019 0.120338 0.052239
internal_weight=34894 12516 22378 8237 10651 4279 3351 4362 2329 222 1034 2317 11727 1950 514 1436 409 1027 402 137 101 999 313 205 133 108 72 265 52 213
internal_count=34894 12516 22378 8237 10651 4279 3351 4362 2329 222 1034 2317 11727 1950 514 1436 409 1027 402 137 101 999 313 205 133 108 72 265 52 213
is_linear=0
shrinkage=0.05


Tree=21
num_leaves=31
num_cat=0
split_feature=2 8 2 7 2 6 7 7 8 1 2 16 0 1 2 16 2 6 17 3 4 16 0 6 0 16 16 8 7 6
split_gain=3458.78 854.997 356.696 266.457 249.637 238.22 209.235 134.826 93.7162 77.1638 74.4328 71.5249 83.5998 118.273 69.025 77.7147 67.529 67.3673 119.721 91.4911 83.4606 98.7128 163.15 110.9 102.17 88.6419 83.809 70.0108 67.3358 65.7844
threshold=0.085550000000000015 1.0950000000000004 0.14395000000000002 0.045000000000000005 0.044550000000000006 416.50000000000006 0.075000000000000025 0.085000000000000006 3.4850000000000008 20.280310000000004 0.026750000000000006 5.5000000000000009 3.0313900000000005 19.916510000000006 0.056850000000000005 14.500000000000002 0.060850000000000008 1264.5000000000002 2.5000000000000004 0.22570500000000002 0.37681500000000007 10.500000000000002 -3.1956899999999995 717.50000000000011 2.2438850000000001 14.500000000000002 4.5000000000000009 5.3350000000000009 0.025000000000000005 620.50000000000011
decision_type=2 2 2 2 2 2 2 2 2 2 2 2 2 2 2 2 2 2 2 2 2 2 2 2 2 2 2 2 2 2
left_child=1 4 3 8 10 16 -7 11 9 -2 -1 12 13 -5 -8 -16 -3 20 -19 -20 21 22 -4 26 -23 -22 -24 -26 -6 -10
right_child=2 5 17 7 28 6 14 -9 29 -11 -12 -13 -14 -15 15 -17 -18 18 19 -21 25 24 23 -25 27 -27 -28 -29 -30 -31
leaf_value=-0.026964589562301983 0.025187386372805178 -0.0054688446476485039 0.0025712396446112042 0.13606055097920552 -0.010179537139463131 0.0013303054168382329 0.0096145329498328654 0.011234975942947301 0.12509236559271814 0.0073086233885260301 -0.016811641420976384 0.039733128817306188 0.13588205665349959 0.031887431819052479 0.043190875621398263 0.017377442207714616 0.0052606143576104138 -0.016740706474002866 0.15439269682835965 0.039389417122702636 0.030552484185017388 0.05395509555859504 0.13736216358374806 0.19397062483570868 0.00024996334050567999 0.10172651604003027 0.016506344079971313 0.090184397935867314 -4.5287816761259735e-05 0.035411752744031876
leaf_weight=2317 875 3384 37 35 6178 1265 378 406 22 1945 8172 1901 40 123 815 454 2588 90 21 98 58 712 32 37 161 178 26 25 2231 290
leaf_count=2317 875 3384 37 35 6178 1265 378 406 22 1945 8172 1901 40 123 815 454 2588 90 21 98 58 712 32 37 161 178 26 25 2231 290
internal_value=6.97871e-05 -0.00789493 0.0311828 0.0254549 -0.013909 0.00489813 0.0166233 0.0376102 0.015733 0.0128561 -0.0190544 0.0427119 0.0713109 0.0549638 0.0283693 0.0339558 -0.000819173 0.0530731 0.0267739 0.0596841 0.0574147 0.0512696 0.0916424 0.126333 0.0453351 0.0842346 0.0831854 0.0123379 -0.00749081 0.0417354
internal_weight=34894 27782 7112 5637 18898 8884 2912 2505 3132 2820 10489 2099 198 158 1647 1269 5972 1475 209 119 1266 1030 132 95 898 236 58 186 8409 312
internal_count=34894 27782 7112 5637 18898 8884 2912 2505 3132 2820 10489 2099 198 158 1647 1269 5972 1475 209 119 1266 1030 132 95 898 236 58 186 8409 312
is_linear=0
shrinkage=0.05


Tree=22
num_leaves=31
num_cat=0
split_feature=2 2 2 7 7 7 8 7 9 8 10 1 2 7 1 4 16 1 5 0 10 16 0 4 4 8 10 9 7 1
split_gain=3121.55 781.071 327.371 279.263 202.488 154.943 142.701 125.127 112.587 93.8837 86.0992 95.4761 80.6725 78.4452 77.8946 92.1579 101.951 75.7653 88.5439 83.2985 71.6949 107.988 75.0916 90.3514 66.1174 63.2952 63.1435 62.964 98.2608 80.7098
threshold=0.085550000000000015 0.056850000000000005 0.11205000000000002 0.075000000000000025 0.045000000000000005 0.045000000000000005 2.6050000000000004 0.03500000000000001 2.2550000000000003 0.65500000000000014 1.2550000000000001 23.222380000000005 0.037050000000000007 0.085000000000000006 39.46535500000001 -0.39134499999999994 5.5000000000000009 19.916510000000006 55.172250000000012 -0.098519999999999983 0.76500000000000012 17.500000000000004 3.1715550000000006 -0.050739999999999993 -0.55426999999999993 2.7050000000000005 1.6950000000000001 0.19500000000000003 0.085000000000000006 33.007085000000011
decision_type=2 2 2 2 2 2 2 2 2 2 2 2 2 2 2 2 2 2 2 2 2 2 2 2 2 2 2 2 2 2
left_child=1 4 5 -3 12 -2 -5 10 13 -6 -4 26 -1 14 15 24 17 -17 19 -19 -18 22 23 -22 -7 -26 -12 28 29 -9
right_child=2 3 7 6 9 8 -8 27 -10 -11 11 -13 -14 -15 -16 16 20 18 -20 -21 21 -23 -24 -25 25 -27 -28 -29 -30 -31
leaf_value=-0.021783875101095172 0.010157416957421053 -0.003057553579170647 0.028130096014309408 0.010074883268440117 -0.015714097356701692 0.029629135260611408 0.035676163830259559 0.037704721199193963 -0.076621977301935359 -0.001975149769065957 0.15307565818767291 0.034432006869622965 -0.013621082849137543 0.0058290923466073714 0.10867723160096117 0.15697634347847531 0.028137121744013963 0.077886190852432535 0.14176388556758565 -0.046068144330511929 0.064045519617966548 0.11487163191777655 0.10800067214295268 -0.016021958717869388 0.032204102967744286 -0.068340727082472671 0.063982521413370616 0.056622677825084206 -0.010425751390478884 0.1158544725493381
leaf_weight=5432 2061 5604 1653 3270 1762 81 653 253 24 4225 37 118 6836 235 37 28 815 33 24 23 69 64 32 72 23 49 43 1204 96 38
leaf_count=5432 2061 5604 1653 3270 1762 81 653 253 24 4225 37 118 6836 235 37 28 815 33 24 23 69 64 32 72 23 49 43 1204 96 38
internal_value=6.62977e-05 -0.00750018 0.0296237 0.00410485 -0.0135567 0.0192348 0.0143363 0.0407007 0.0308623 -0.00601858 0.0318623 0.0630203 -0.0172354 0.0324898 0.0371307 0.0351146 0.0399254 0.0861884 0.0614126 0.0269764 0.035176 0.0593813 0.0388531 0.02316 -0.00135975 -0.0362222 0.105188 0.0509834 0.033439 0.0479098
internal_weight=34894 27782 7112 9527 18255 3670 3923 3442 1609 5987 1851 198 12268 1585 1350 1313 1160 108 80 56 1052 237 173 141 153 72 80 1591 387 291
internal_count=34894 27782 7112 9527 18255 3670 3923 3442 1609 5987 1851 198 12268 1585 1350 1313 1160 108 80 56 1052 237 173 141 153 72 80 1591 387 291
is_linear=0
shrinkage=0.05


Tree=23
num_leaves=31
num_cat=0
split_feature=2 2 7 2 6 7 7 6 4 6 3 9 5 3 10 9 2 1 7 1 1 9 7 3 6 6 2 2 4 3
split_gain=2830.24 750.501 318.332 314.064 166.308 154.698 154.148 138.038 116.091 113.129 103.416 106.452 96.1742 87.1411 84.9429 91.034 80.4307 78.8803 78.7664 72.9983 71.5127 70.3521 88.7455 83.2508 84.2632 109.854 86.4702 82.7174 116.312 79.8313
threshold=0.066150000000000014 0.10375000000000002 0.075000000000000025 0.044550000000000006 459.50000000000006 0.03500000000000001 0.045000000000000005 708.50000000000011 0.061445000000000007 502.50000000000006 0.024375000000000004 0.21500000000000002 57.365410000000004 0.53015500000000004 0.115 1.0000000180025095e-35 0.029850000000000005 21.401590000000002 0.095000000000000015 38.803745000000006 27.031250000000004 0.20500000000000004 0.085000000000000006 0.39849000000000007 755.50000000000011 591.50000000000011 0.14645000000000002 0.15475000000000003 -0.73468499999999992 0.11658500000000001
decision_type=2 2 2 2 2 2 2 2 2 2 2 2 2 2 2 2 2 2 2 2 2 2 2 2 2 2 2 2 2 2
left_child=3 2 -2 16 -4 7 -5 -3 19 18 -9 14 -10 -14 -12 -16 -1 -17 -8 -6 -15 22 23 24 25 26 -7 28 -25 -23
right_child=1 5 4 6 8 21 9 10 12 -11 11 -13 13 20 15 17 -18 -19 -20 -21 -22 29 -24 27 -26 -27 -28 -29 -30 -31
leaf_value=-0.022390140549560379 0.0021388254814248588 0.017731757652421583 0.013078107126184253 -0.0093806533548980373 0.020382599200064709 0.055609422088114181 0.0027779802229838091 0.1213194127380848 0.074246301530606365 0.026922247677196587 0.15014256034736281 0.027718095770151746 0.0093261398655553173 0.031992264592221806 0.0023010802936965025 0.12340706600142377 -0.013447408529058916 0.050728559612096963 -0.018999421403060622 0.10560799467449006 0.10940114531952601 0.033481754453666052 -0.0087540463095397824 0.071277323056911604 0.12792281866879077 -0.0039972557890394778 0.164730080252602 0.075003052213125754 -0.047320572845637801 0.059602577894601431
leaf_weight=3651 4886 1429 2015 6289 747 134 3451 40 275 439 27 607 166 70 58 56 8076 112 472 26 52 409 112 29 37 73 21 36 72 1027
leaf_count=3651 4886 1429 2015 6289 747 134 3451 40 275 439 27 607 166 70 58 56 8076 112 472 26 52 409 112 29 37 73 21 36 72 1027
internal_value=6.29828e-05 0.0191037 0.010279 -0.0105865 0.0221481 0.0360911 -0.00437114 0.027392 0.0358277 0.00285143 0.0427304 0.0390751 0.053098 0.0329044 0.0663229 0.0563091 -0.0162316 0.0749547 0.000157809 0.0232492 0.0649862 0.0464809 0.0306069 0.0415732 0.0579334 0.0465754 0.0703935 0.00992753 -0.0132677 0.0521629
internal_weight=34894 12516 8237 22378 3351 4279 10651 2329 1336 4362 900 860 563 288 253 226 11727 168 3923 773 122 1950 514 402 265 228 155 137 101 1436
internal_count=34894 12516 8237 22378 3351 4279 10651 2329 1336 4362 900 860 563 288 253 226 11727 168 3923 773 122 1950 514 402 265 228 155 137 101 1436
is_linear=0
shrinkage=0.05


Tree=24
num_leaves=31
num_cat=0
split_feature=6 2 2 7 2 2 7 6 7 3 7 8 5 2 6 8 1 2 8 0 10 10 8 0 3 10 1 3 5 1
split_gain=2576.07 545.955 455.39 260.734 171.116 145.433 104.087 108.859 94.9734 91.6527 89.1514 82.1812 108.383 83.1223 65.5186 80.0459 89.6394 75.4621 71.9895 105.965 66.3477 64.2656 70.0926 63.5162 63.4329 75.7388 84.0887 64.1487 91.8381 88.8142
threshold=389.50000000000006 0.064150000000000013 0.10285000000000001 0.075000000000000025 0.037050000000000007 0.17890000000000003 0.045000000000000005 708.50000000000011 0.03500000000000001 0.024375000000000004 0.025000000000000005 2.2450000000000006 42.02306500000001 0.061450000000000012 673.50000000000011 3.4850000000000008 19.666650000000001 0.15845000000000004 1.5150000000000003 -1.3716249999999999 1.2250000000000003 4.5900000000000007 9.3950000000000014 -8.2557849999999977 0.015925000000000005 0.77500000000000013 33.704480000000011 0.53015500000000004 63.521270000000008 27.985375000000005
decision_type=2 2 2 2 2 2 2 2 2 2 2 2 2 2 2 2 2 2 2 2 2 2 2 2 2 2 2 2 2 2
left_child=1 4 3 -2 -1 8 7 14 -3 -9 -6 -5 -13 -14 15 16 17 -4 19 -18 -20 22 -8 -24 -15 27 -27 -26 -29 -30
right_child=2 5 6 11 10 -7 21 9 -10 -11 -12 12 13 24 -16 -17 18 -19 20 -21 -22 -23 23 -25 25 26 -28 28 29 -31
leaf_value=-0.018059866943399408 0.0024864512337053422 -5.0613144706415387e-05 0.036059556960275296 0.016228637024162978 -0.011657253224274411 0.10568807595926855 0.044513966236320937 0.11525344222784042 0.013295578806343945 0.037849551633088056 -0.0029577210071599731 0.010824499504045822 0.0076615974265597259 -0.0083331882265274947 -0.019425027448440269 0.09835211772358779 0.088014978903811436 0.12539124632323231 -0.0047043780865769968 0.012220713595549266 0.088357022181153308 -0.037576899839484174 0.043347030778725947 0.14185520605080656 0.033244083010301483 0.065434321962917846 0.16107518202983417 0.12151708944277331 -0.029099355278343994 0.10412568531253122
leaf_weight=7307 2670 3611 190 1494 7987 36 1622 40 2113 871 4665 382 146 46 107 33 64 27 452 165 20 23 30 36 427 198 26 55 29 22
leaf_count=7307 2670 3611 190 1494 7987 36 1622 40 2113 871 4665 382 146 46 107 33 64 27 452 165 20 23 30 36 427 198 26 55 29 22
internal_value=5.98337e-05 -0.00805444 0.0228054 0.0136896 -0.0119679 0.00550617 0.0364173 0.0285786 0.0048761 0.0412482 -0.00844959 0.024278 0.0333131 0.0423654 0.0176693 0.0218429 0.0190926 0.0471746 0.0103996 0.0334034 -0.000761098 0.0454381 0.0465692 0.0970788 0.0486752 0.0521394 0.0765355 0.0418866 0.0767012 0.0283703
internal_weight=34894 25719 9175 5495 19959 5760 3680 1969 5724 911 12652 2825 1331 949 1058 951 918 217 701 229 472 1711 1688 66 803 757 224 533 106 51
internal_count=34894 25719 9175 5495 19959 5760 3680 1969 5724 911 12652 2825 1331 949 1058 951 918 217 701 229 472 1711 1688 66 803 757 224 533 106 51
is_linear=0
shrinkage=0.05


Tree=25
num_leaves=31
num_cat=0
split_feature=2 6 8 7 7 6 2 7 2 1 5 1 2 1 10 1 5 9 6 2 9 3 0 9 5 6 9 9 0 1
split_gain=2508.86 516.092 408.354 250.893 152.294 143.204 132.029 199.079 115.095 144.645 109.314 126.416 103.243 101.948 86.2817 85.0779 90.5414 104.021 94.7684 103.742 126.087 120.489 159.034 137.166 127.091 92.353 85.6523 84.0667 81.2298 86.5169
threshold=0.070950000000000013 598.50000000000011 0.9850000000000001 0.03500000000000001 0.075000000000000025 502.50000000000006 0.14395000000000002 0.075000000000000025 0.14395000000000002 23.106240000000003 56.95815000000001 34.975830000000009 0.042150000000000007 40.228705000000005 2.4250000000000003 29.905750000000005 40.270955000000008 1.0000000180025095e-35 1206.5000000000002 0.22620000000000004 0.99500000000000011 0.55736500000000011 2.2438850000000001 1.385 46.788995000000007 865.50000000000011 0.74500000000000011 0.34500000000000003 -0.92569999999999986 25.474125000000004
decision_type=2 2 2 2 2 2 2 2 2 2 2 2 2 2 2 2 2 2 2 2 2 2 2 2 2 2 2 2 2 2
left_child=2 3 12 -2 -4 -6 7 -3 -5 -10 11 -11 -1 14 -9 16 -8 -18 19 21 -21 22 24 -24 -19 28 -23 -16 -26 -30
right_child=1 6 4 8 5 -7 15 13 9 10 -12 -13 -14 -15 27 -17 17 18 -20 20 -22 26 23 -25 25 -27 -28 -29 29 -31
leaf_value=-0.016807651175326798 0.0052575582638055979 0.014934543742551066 -0.0071785976145441925 0.021075494171371965 0.0030023394183833715 0.028304976370329984 0.017316447165520752 0.04561923800708817 0.013559291103240296 0.089247101659958195 -0.0077037344376246139 0.23015041828155516 -0.0088199042543799875 0.12413411499598088 0.05217925330003103 0.02179489538700569 0.14486768306478073 0.038881278582784819 0.020630251401887525 0.19239406624010633 0.051412584247260265 0.066142751786269646 -0.014353013367702564 0.11037958391286709 0.20960867871408878 0.03176856049719979 0.17230322039441059 -0.057964148354239575 0.078261307968447602 0.19155529859391127
leaf_weight=9106 4451 1134 3507 2968 3724 658 119 999 97 78 21 20 7279 39 30 202 38 146 126 35 29 38 120 27 23 34 38 41 72 22
leaf_count=9106 4451 1134 3507 2968 3724 658 119 999 97 78 21 20 7279 39 30 202 38 146 126 35 29 38 120 27 23 34 38 41 72 22
internal_value=0.000202385 0.0200739 -0.00875919 0.0129235 0.000586899 0.00680178 0.0365572 0.0296654 0.02364 0.0588785 0.0958194 0.118003 -0.0132591 0.0447283 0.0418341 0.0510178 0.0578264 0.0642711 0.0599575 0.0684425 0.128512 0.0610494 0.0510917 0.00855706 0.0721442 0.104306 0.119223 -0.0114247 0.125385 0.104777
internal_weight=35221 10947 24274 7635 7889 4382 3312 2243 3184 216 119 98 16385 1109 1070 1069 867 748 710 584 64 520 444 147 297 151 76 71 117 94
internal_count=35221 10947 24274 7635 7889 4382 3312 2243 3184 216 119 98 16385 1109 1070 1069 867 748 710 584 64 520 444 147 297 151 76 71 117 94
is_linear=0
shrinkage=0.05


Tree=26
num_leaves=31
num_cat=0
split_feature=2 6 8 7 2 7 2 7 6 2 1 5 1 1 10 1 5 9 6 2 9 3 4 3 6 1 9 9 2 1
split_gain=2264.25 465.773 368.871 226.431 119.156 179.669 118.668 106.328 114.778 103.873 130.542 98.6556 114.09 92.0077 77.8692 76.7828 81.7136 93.8787 85.5284 93.6273 113.793 108.741 79.7294 76.3844 125.477 93.6631 75.8702 75.0364 73.0166 86.8676
threshold=0.070950000000000013 598.50000000000011 1.0850000000000002 0.03500000000000001 0.14395000000000002 0.075000000000000025 0.041250000000000009 0.075000000000000025 502.50000000000006 0.14395000000000002 23.106240000000003 56.95815000000001 34.975830000000009 40.228705000000005 2.4250000000000003 29.905750000000005 40.270955000000008 1.0000000180025095e-35 1206.5000000000002 0.22620000000000004 0.99500000000000011 0.55736500000000011 0.62057000000000018 0.040905000000000004 794.50000000000011 28.729285000000004 0.34500000000000003 0.095000000000000015 0.10865000000000001 17.051465000000004
decision_type=2 2 2 2 2 2 2 2 2 2 2 2 2 2 2 2 2 2 2 2 2 2 2 2 2 2 2 2 2 2
left_child=2 3 6 28 5 -3 -1 -4 -9 -5 -11 12 -12 14 -7 16 -6 -18 19 21 -21 23 -23 24 -19 -25 -16 -17 -2 -30
right_child=1 4 7 9 15 13 -8 8 -10 10 11 -13 -14 -15 26 27 17 18 -20 20 -22 22 -24 25 -26 -27 -28 -29 29 -31
leaf_value=-0.016102284742210739 0.0017034325218101257 0.014187816503559153 -0.0056092762481889857 0.020021719451738126 0.016450624678874811 0.043338275993943451 -0.0078970670298484907 0.003248198963733448 0.026336215780789641 0.012881327352544159 0.084784745491850069 -0.0073185487872078313 0.21864289894700051 0.11792740751153384 0.049570293029149379 0.090944382431916895 0.13762429780265514 0.15304512841627005 0.019598738208324428 0.18277436205318998 0.048841954973237268 0.17845804249418196 0.073034389562746313 0.034116427455123305 0.006480599777854007 0.14274793614943823 -0.055065941192754889 0.0074836478407686469 0.059394184512795392 0.011887418333016764
leaf_weight=9039 3521 1134 2832 2968 119 999 8598 3156 649 97 78 21 20 39 30 32 38 40 126 35 29 29 47 360 23 21 41 170 109 821
leaf_count=9039 3521 1134 2832 2968 119 999 8598 3156 649 97 78 21 20 39 30 32 38 40 126 35 29 29 47 360 23 21 41 170 109 821
internal_value=0.000192266 0.0190702 -0.00832123 0.0122774 0.0347294 0.0281821 -0.0121023 0.00172639 0.00718621 0.022458 0.0559346 0.0910284 0.112103 0.0424919 0.0397424 0.0484669 0.054935 0.0610576 0.0569596 0.0650204 0.122086 0.0579969 0.113262 0.0485371 0.0995374 0.040104 -0.0108534 0.0207052 0.00499468 0.0174554
internal_weight=35221 10947 24274 7635 3312 2243 17637 6637 3805 3184 216 119 98 1109 1070 1069 867 748 710 584 64 520 76 444 63 381 71 202 4451 930
internal_count=35221 10947 24274 7635 3312 2243 17637 6637 3805 3184 216 119 98 1109 1070 1069 867 748 710 584 64 520 76 444 63 381 71 202 4451 930
is_linear=0
shrinkage=0.05


Tree=27
num_leaves=31
num_cat=0
split_feature=2 2 2 10 6 0 2 10 10 1 4 10 10 4 4 0 9 5 10 0 0 17 9 5 3 1 9 16 6 9
split_gain=2043.48 423.586 302.983 232.909 160.269 97.7584 92.9974 108.931 239.597 110.23 107.737 104.671 147.823 101.183 86.2745 88.6753 94.2648 87.2353 107.241 85.6298 108.172 124.339 100.429 120.942 111.235 97.5618 85.5796 84.7496 79.9861 78.8874
threshold=0.070950000000000013 0.12415000000000002 0.042150000000000007 0.52500000000000013 433.50000000000006 4.4956250000000013 0.17890000000000003 0.49500000000000005 0.24500000000000002 25.080555000000004 0.15995500000000004 0.10500000000000002 0.055000000000000007 -0.23379999999999998 0.55518000000000012 2.2438850000000001 2.0950000000000002 63.521270000000008 0.25500000000000006 -2.4489799999999993 -1.1916049999999998 2.5000000000000004 0.10500000000000002 42.240710000000007 0.72975000000000012 22.009360000000004 0.60500000000000009 16.500000000000004 459.50000000000006 1.0550000000000004
decision_type=2 2 2 2 2 2 2 2 2 2 2 2 2 2 2 2 2 2 2 2 2 2 2 2 2 2 2 2 2 2
left_child=2 3 -1 5 -4 -2 14 8 11 -9 -11 12 -8 -10 15 19 -17 18 -16 22 21 25 23 -3 -24 -21 -22 -15 -7 -6
right_child=1 6 4 -5 29 28 7 9 13 10 -12 -13 -14 27 17 16 -18 -19 -20 20 26 -23 24 -25 -26 -27 -28 -29 -30 -31
leaf_value=-0.014343054205548001 0.0067646959726909671 0.017593034113757313 -0.0049657053037745801 0.026761941239132194 0.008820787704132806 -0.027307728858608188 0.036567059644539192 0.061328717527600635 0.2423679831624031 0.033402224114597444 -0.056639152720570567 -0.016780644521797793 0.17606702360510829 0.056269056417725311 0.024507214615662253 0.0014203739598625065 0.10160522353462875 0.021920075700355455 0.14005829071658746 0.1528959408029914 0.019667162362837907 0.034615251481269316 -0.012304727653455404 0.10885101485213167 0.057640203455876976 0.06380848169681573 0.059649490207584227 0.16514096976472781 0.058422374366069098 0.050870832963990947
leaf_weight=10426 6070 100 12301 2205 1426 33 79 180 20 99 50 52 25 33 31 386 25 62 57 60 413 113 270 57 72 63 198 39 155 121
leaf_count=10426 6070 100 12301 2205 1426 33 79 180 20 99 50 52 25 33 31 386 25 62 57 60 413 113 270 57 72 63 198 39 155 121
internal_value=0.000182652 0.0181167 -0.00790517 0.0127881 -0.00305815 0.0078645 0.036271 0.053859 0.0788815 0.0349971 0.003187 0.0411403 0.0701007 0.142878 0.0309494 0.027842 0.00751434 0.0673473 0.0993528 0.034049 0.0437289 0.0724797 0.0176185 0.0507249 0.00242052 0.107266 0.0326238 0.115241 0.043374 0.0121098
internal_weight=35221 10947 24274 8463 13848 6258 2484 577 248 329 149 156 104 92 1907 1757 411 150 88 1346 847 236 499 157 342 123 611 72 188 1547
internal_count=35221 10947 24274 8463 13848 6258 2484 577 248 329 149 156 104 92 1907 1757 411 150 88 1346 847 236 499 157 342 123 611 72 188 1547
is_linear=0
shrinkage=0.05


Tree=28
num_leaves=31
num_cat=0
split_feature=6 2 6 2 2 2 7 2 3 7 7 10 7 4 10 3 7 0 10 1 3 0 1 7 1 10 10 17 5 5
split_gain=1854.84 427.749 298.347 151.35 127.34 110.326 99.9681 132.469 100.335 99.7921 99.1179 88.8859 86.5991 83.7888 81.5068 89.6991 74.8606 73.0621 129.208 150.312 121.907 81.257 70.2868 148.883 69.2709 64.2384 162.831 121.559 102.192 100.664
threshold=392.50000000000006 0.058950000000000009 690.50000000000011 0.12565000000000001 0.17235000000000003 0.034350000000000006 0.045000000000000005 0.13895000000000005 0.032635000000000004 0.03500000000000001 0.115 2.4250000000000003 0.075000000000000025 0.55518000000000012 0.36500000000000005 0.21739000000000003 0.025000000000000005 1.9527700000000003 0.49500000000000005 31.917975000000002 0.079290000000000013 -0.57489499999999993 25.010420000000003 0.055000000000000007 32.443050000000007 1.3050000000000004 1.4850000000000001 3.5000000000000004 57.647000000000006 52.634640000000005
decision_type=2 2 2 2 2 2 2 2 2 2 2 2 2 2 2 2 2 2 2 2 2 2 2 2 2 2 2 2 2 2
left_child=1 5 3 12 9 -1 7 -4 -9 -3 13 25 -2 17 -12 -16 -7 18 19 20 21 -5 -19 -24 -20 27 -27 -8 29 -28
right_child=2 4 6 10 -6 16 11 8 -10 -11 14 -13 -14 -15 15 -17 -18 22 24 -21 -22 -23 23 -25 -26 26 28 -29 -30 -31
leaf_value=-0.01639113163669326 0.0045576185942798808 -0.0016195778042091607 0.0093545317014197375 0.021106229496321509 0.091128277319778767 -0.010959276337701884 0.050503767388156623 0.12135431315447834 0.036175855440732652 0.010122085355988885 0.15239296668562397 0.00076233776318922382 0.017160741290937052 0.10308464950748852 0.11673234999179841 -0.017314548790454864 -0.002861005827910699 -0.024131747948435638 0.013694386396408929 0.14135099835693837 0.021887792647784263 0.12453822583212691 -0.014183712718279465 0.10705786684527994 -0.081154014595917298 0.13852916755713524 0.040345961163225384 0.0087745702695437109 -0.053231240290662521 0.14928462138542761
leaf_weight=5893 2854 4832 715 28 41 8053 816 37 527 2893 29 114 2609 35 24 26 4420 130 231 42 233 59 69 40 21 64 115 222 23 26
leaf_count=5893 2854 4832 715 28 41 8053 816 37 527 2893 29 114 2609 35 24 26 4420 130 231 42 233 59 69 40 21 64 115 222 23 26
internal_value=0.00017352 -0.00659345 0.0196294 0.013804 0.0032441 -0.0107532 0.0337164 0.023646 0.0417638 0.00277766 0.032037 0.0430498 0.0105766 0.0272624 0.0857063 0.047028 -0.00808953 0.0241512 0.0332809 0.052418 0.0407456 0.0912498 0.0006967 0.0303086 0.00579035 0.0468576 0.0708892 0.041579 0.0444931 0.0604339
internal_weight=35221 26132 9089 6430 7766 18366 2659 1279 564 7725 967 1380 5463 888 79 50 12473 853 614 362 320 87 239 109 252 1266 228 1038 164 141
internal_count=35221 26132 9089 6430 7766 18366 2659 1279 564 7725 967 1380 5463 888 79 50 12473 853 614 362 320 87 239 109 252 1266 228 1038 164 141
is_linear=0
shrinkage=0.05


Tree=29
num_leaves=31
num_cat=0
split_feature=2 8 8 2 7 6 3 8 6 2 8 9 16 7 1 9 3 4 8 9 9 9 5 4 8 16 1 9 9 6
split_gain=1694.06 473.823 241.017 174.919 148.187 135.459 115.668 209.499 110.097 89.0916 83.5409 70.7362 67.4687 74.0569 112.81 90.5556 76.7214 163.85 81.3668 87.2813 67.3934 66.9893 71.4475 140.312 65.273 65.2651 78.4685 76.0118 127.508 73.6287
threshold=0.085550000000000015 0.97500000000000009 2.9050000000000007 0.17890000000000003 0.075000000000000025 565.50000000000011 0.041465000000000009 3.3050000000000002 1066.5000000000002 0.026750000000000006 2.6550000000000007 0.095000000000000015 1.5000000000000002 0.075000000000000025 15.370400000000002 0.17500000000000002 0.59389500000000017 -0.36998499999999995 4.8150000000000004 0.045000000000000005 0.45500000000000007 0.32500000000000007 53.950015000000008 -0.0056249999999999989 3.2050000000000005 10.500000000000002 30.155390000000004 0.96500000000000008 0.24500000000000002 635.50000000000011
decision_type=2 2 2 2 2 2 2 2 2 2 2 2 2 2 2 2 2 2 2 2 2 2 2 2 2 2 2 2 2 2
left_child=1 9 3 8 -3 11 7 -4 10 -1 -2 24 -8 15 -15 -14 17 -16 19 -18 -17 -9 23 -23 -6 -5 27 28 -27 -30
right_child=2 4 6 25 5 -7 12 21 -10 -11 -12 -13 13 14 16 20 18 -19 -20 -21 -22 22 -24 -25 -26 26 -28 -29 29 -31
leaf_value=-0.019650219157538375 0.014869328877890747 -0.0034834863799458973 0.1713305303523707 0.13650233398836395 -0.0061984106837234664 0.027853377047070756 -0.027977089627335468 0.094943450122243839 0.091737302127811657 -0.0091075406150852994 -0.012517032439441043 0.0089942605797174221 0.048046726656010313 -0.030547371059656145 -0.018462451137436022 -0.011873001305705165 0.002885571122169495 0.04752242269974874 0.045913241881802305 0.11396608633824923 0.023648247305738564 0.060623480250006134 0.08422110802070662 -0.11600014890798115 0.054360212859414198 0.030788242889150066 -0.026659507773540637 0.0031582526011126387 0.067939022183418282 0.19023309140466155
leaf_weight=2314 4462 4976 43 26 1361 767 45 36 45 14953 297 3617 267 50 112 187 21 588 199 112 467 23 22 22 46 49 27 35 20 32
leaf_count=2314 4462 4976 43 26 1361 767 45 36 45 14953 297 3617 267 50 112 187 21 588 199 112 467 23 22 22 46 49 27 35 20 32
internal_value=0.000164844 -0.00538736 0.0218221 0.0157525 0.00284448 0.00828187 0.0356349 0.0786327 0.0138962 -0.0105204 0.0131602 0.00529394 0.0325696 0.0339299 0.0428 0.0235092 0.0463536 0.0369648 0.0661492 0.0964271 0.0134916 0.0399336 0.0103761 -0.0257258 -0.00421853 0.0629347 0.0512 0.0666574 0.088662 0.143197
internal_weight=35221 28034 7187 4993 10767 5791 2194 146 4804 17267 4759 5024 2048 2003 1082 921 1032 700 332 133 654 103 67 45 1407 189 163 136 101 52
internal_count=35221 28034 7187 4993 10767 5791 2194 146 4804 17267 4759 5024 2048 2003 1082 921 1032 700 332 133 654 103 67 45 1407 189 163 136 101 52
is_linear=0
shrinkage=0.05


Tree=30
num_leaves=31
num_cat=0
split_feature=2 6 8 6 2 1 9 9 4 9 1 9 9 6 5 0 16 8 9 9 3 16 3 8 3 6 2 8 3 8
split_gain=1493.17 358.685 215.929 118.429 114.667 102.135 82.1128 125.625 128.292 86.5142 85.3836 83.5646 98.6287 79.0142 82.3916 78.6717 106.347 75.4242 93.2838 75.1241 70.1855 79.7779 94.136 101.055 138.07 69.0653 67.8411 129.171 72.2366 66.867
threshold=0.085550000000000015 266.50000000000006 2.8150000000000004 970.50000000000011 0.040950000000000007 20.623295000000002 0.57500000000000007 0.66500000000000015 0.27027500000000004 0.60500000000000009 26.782365000000002 1.2550000000000001 0.79500000000000015 459.50000000000006 35.955380000000005 5.4622200000000012 15.500000000000002 2.3650000000000007 0.54500000000000015 1.5550000000000004 0.19290500000000002 9.5000000000000018 0.018835000000000001 4.6150000000000011 0.12101500000000003 475.50000000000006 0.17890000000000003 1.5750000000000004 0.79640500000000014 6.8750000000000009
decision_type=2 2 2 2 2 2 2 2 2 2 2 2 2 2 2 2 2 2 2 2 2 2 2 2 2 2 2 2 2 2
left_child=1 4 3 5 -1 25 20 8 9 -8 15 12 -12 -3 -15 -9 29 -5 -19 -18 21 -4 -23 -24 -25 -2 28 -28 -7 -17
right_child=2 13 6 17 -6 26 7 10 -10 -11 11 -13 -14 14 -16 16 19 18 -20 -21 -22 22 23 24 -26 -27 27 -29 -30 -31
leaf_value=-0.01315907151446162 0.01514607340935125 0.0001737853054808296 0.097345978689604803 0.12896956322714687 -0.0053001903393565851 0.0075986544326511821 0.062696236159120289 0.03986455622013757 0.015265222532408579 0.17463741194456817 -0.034393051434909144 -0.0054911777053271091 0.066003890290599443 -0.024412650210508268 0.013173846216557024 0.097009626618371564 0.089410709019969503 0.11539548692249119 -0.02108931130459232 0.20969027224041167 0.016959001167544955 -0.05412382744252682 0.02501903536649687 0.036171600123246515 0.20333222587193764 0.036457940210066972 0.1616506904293783 0.021171561875897978 -0.06269438418786269 -0.01171946928145424
leaf_weight=9083 945 6966 58 35 9492 2997 28 565 35 45 31 188 116 156 2230 26 34 21 31 21 911 28 175 30 21 636 20 90 37 31
leaf_count=9083 945 6966 58 35 9492 2997 28 565 35 45 31 188 116 156 2230 26 34 21 31 21 911 28 175 30 21 636 20 90 37 31
internal_value=9.88627e-05 -0.0051224 0.0204782 0.0144172 -0.00914311 0.0133529 0.0329262 0.0427074 0.0939672 0.131701 0.037237 0.0165908 0.0448317 0.00286355 0.0107164 0.0474533 0.0857358 0.0722238 0.0340295 0.135336 0.0239687 0.0444361 0.0323543 0.0430684 0.105002 0.0237193 0.00813993 0.0467132 0.00674142 0.0378763
internal_weight=35082 27927 7155 4812 18575 4725 2343 1120 108 73 1012 335 147 9352 2386 677 112 87 52 55 1223 312 254 226 51 1581 3144 110 3034 57
internal_count=35082 27927 7155 4812 18575 4725 2343 1120 108 73 1012 335 147 9352 2386 677 112 87 52 55 1223 312 254 226 51 1581 3144 110 3034 57
is_linear=0
shrinkage=0.05


Tree=31
num_leaves=31
num_cat=0
split_feature=2 7 8 2 2 6 1 10 9 9 9 15 9 9 10 3 8 6 0 1 9 0 8 6 1 1 8 8 9 2
split_gain=1347.59 348.59 194.876 165.08 114.476 106.882 92.177 129.135 81.552 74.1068 113.377 116.497 78.2795 92.5002 93.1463 87.1341 73.9273 73.403 73.2047 76.2658 72.1806 69.7345 87.1186 69.0646 79.8652 83.8265 73.4721 68.0703 84.1886 64.3428
threshold=0.085550000000000015 0.045000000000000005 2.8150000000000004 0.050550000000000005 0.058050000000000011 970.50000000000011 20.623295000000002 1.5950000000000004 0.03500000000000001 0.57500000000000007 0.66500000000000015 -1.0000000180025095e-35 2.5050000000000003 0.79500000000000015 0.045000000000000005 0.21370000000000003 4.3350000000000009 745.50000000000011 3.8846400000000005 22.304675000000003 0.82500000000000007 4.1375550000000008 8.3400000000000016 555.50000000000011 33.704480000000011 30.031820000000003 2.2650000000000001 2.3650000000000007 0.54500000000000015 0.11575000000000001
decision_type=2 2 2 2 2 2 2 2 2 2 2 2 2 2 2 2 2 2 2 2 2 2 2 2 2 2 2 2 2 2
left_child=1 4 5 -3 -1 6 -2 -8 -5 -4 11 -11 13 15 16 -12 -15 -17 23 -20 -16 -22 -23 -10 25 -25 -26 -7 -29 -14
right_child=2 3 9 8 -6 27 7 -9 18 10 12 -13 29 14 20 17 -18 -19 19 -21 21 22 -24 24 26 -27 -28 28 -30 -31
leaf_value=-0.011632845427625067 0.022533380621011123 -0.0043646042597078145 0.022770253766814581 -0.0059746124944901197 -0.002765455507666928 0.12252108365297319 0.0066892718029869531 0.10612146742359707 0.0076292223764318802 0.14119846656642579 0.069181599276406422 0.037339270973785053 -0.060443893797469866 -0.025239775445259793 0.12322834109937825 0.034128718546458651 0.054129248239099981 -0.057268066685331069 0.12045876363228109 0.026830887413401713 0.040332130141342883 0.094401490649408004 -0.0036914563841289947 0.026904804763357961 0.015256972220681965 -0.039915141778496595 0.13805961295448502 0.10962571175325485 -0.020034848057454632 0.019505946869733479
leaf_weight=12674 1581 4680 1223 833 5106 35 3111 33 3934 54 35 54 33 71 37 35 50 59 29 87 419 140 27 482 21 52 29 21 31 106
leaf_count=12674 1581 4680 1223 833 5106 35 3111 33 3934 54 35 54 33 71 37 35 50 59 29 87 419 140 27 482 21 52 29 21 31 106
internal_value=9.39196e-05 -0.00486628 0.0194543 0.00252827 -0.00908634 0.0136964 0.0126852 0.00773293 0.00842889 0.0312798 0.040572 0.0892689 0.0353751 0.040924 0.0477011 0.00183756 0.00755734 -0.0232373 0.011018 0.0502379 0.0554978 0.0512213 0.0785422 0.0100111 0.0260559 0.020398 0.0864825 0.0686126 0.0323281 0.000525049
internal_weight=35082 27927 7155 10147 17780 4812 4725 3144 5467 2343 1120 108 1012 873 744 129 121 94 4634 116 623 586 167 4518 584 534 50 87 52 139
internal_count=35082 27927 7155 10147 17780 4812 4725 3144 5467 2343 1120 108 1012 873 744 129 121 94 4634 116 623 586 167 4518 584 534 50 87 52 139
is_linear=0
shrinkage=0.05


Tree=32
num_leaves=31
num_cat=0
split_feature=2 7 8 2 2 6 2 9 3 8 10 4 9 0 9 9 4 7 9 9 10 3 16 6 0 9 3 3 8 10
split_gain=1216.2 314.602 175.875 149.037 104.481 96.4611 86.7866 80.1528 69.3054 68.94 77.2828 68.0616 108.656 75.435 66.8814 102.322 107.882 81.9056 70.6473 83.4815 84.0645 78.6385 72.1763 66.2462 65.4252 65.143 63.4175 63.3722 70.9179 108.349
threshold=0.085550000000000015 0.045000000000000005 2.8150000000000004 0.050850000000000006 0.041250000000000009 970.50000000000011 0.15845000000000004 0.03500000000000001 0.79640500000000014 2.6350000000000002 1.5450000000000002 -0.0032249999999999996 0.45500000000000007 -4.0254799999999991 0.57500000000000007 0.66500000000000015 0.27027500000000004 0.075000000000000025 2.5050000000000003 0.79500000000000015 0.045000000000000005 0.21370000000000003 14.500000000000002 745.50000000000011 3.8846400000000005 0.82500000000000007 0.23000500000000004 0.19947000000000001 5.8750000000000009 2.0050000000000003
decision_type=2 2 2 2 2 2 2 2 2 2 2 2 2 2 2 2 2 2 2 2 2 2 2 2 2 2 2 2 2 2
left_child=1 4 5 -3 -1 6 8 -5 9 10 -2 13 -13 -8 27 16 17 -16 19 21 22 -17 -21 -23 -9 -22 -20 28 29 -4
right_child=2 3 14 7 -6 -7 11 24 -10 -11 -12 12 -14 -15 15 18 -18 -19 26 20 25 23 -24 -25 -26 -27 -28 -29 -30 -31
leaf_value=-0.013305448101446566 0.011670024154123054 -0.0040739652677002783 0.041406783829914057 -0.0062753036391328676 -0.0054885597398244739 0.065181984983641528 0.094500682972695524 0.0096914237647649989 -0.05446144011689396 -0.016360698110630477 0.086283444081033986 0.096517867908761323 0.017201942671090365 -0.0044824103895827368 0.057761065577787742 0.065722518456833703 0.012634998474802289 0.16490876108762764 0.055558791638989205 0.05563482020763641 0.11706692399205387 0.032422283419540947 -0.023596219215038662 -0.054404663086190068 0.047725962513479693 0.048660267535565301 -0.02021684478415121 0.014784595491452751 0.1077821682240548 -0.071692820087723111
leaf_weight=7150 4114 4737 267 825 10630 87 23 4469 41 221 35 90 83 118 31 35 35 42 38 47 37 35 74 59 116 586 101 898 35 23
leaf_count=7150 4114 4737 267 825 10630 87 23 4469 41 221 35 90 83 118 31 35 35 42 38 47 37 35 74 59 116 586 101 898 35 23
internal_value=8.92236e-05 -0.00462297 0.0184816 0.00240186 -0.00863202 0.0130115 0.0120509 0.0080721 0.010243 0.01085 0.0122994 0.0374489 0.0584646 0.0116638 0.0297159 0.0385434 0.0848054 0.119408 0.0336064 0.0388778 0.045316 0.00174568 0.00717947 -0.0220755 0.0106537 0.0527229 0.000498797 0.0216317 0.0405509 0.0324368
internal_weight=35082 27927 7155 10147 17780 4812 4725 5410 4411 4370 4149 314 173 141 2343 1120 108 73 1012 873 744 129 121 94 4585 623 139 1223 325 290
internal_count=35082 27927 7155 10147 17780 4812 4725 5410 4411 4370 4149 314 173 141 2343 1120 108 73 1012 873 744 129 121 94 4585 623 139 1223 325 290
is_linear=0
shrinkage=0.05


Tree=33
num_leaves=31
num_cat=0
split_feature=2 8 8 2 5 5 8 9 3 1 1 2 1 1 1 4 9 1 10 3 3 4 6 8 1 10 4 5 5 3
split_gain=1108.26 238.057 196.658 111.076 106.297 142.865 82.0421 81.3246 85.9521 80.7555 118.261 78.8521 81.4586 73.7485 73.2013 85.3247 100.558 79.5194 72.3893 84.5332 104.366 106.953 72.1349 75.85 95.284 87.1452 74.5652 95.9862 91.5789 76.04
threshold=0.070550000000000015 1.7650000000000003 0.64500000000000013 0.17890000000000003 42.723500000000008 57.647000000000006 3.2050000000000005 3.3700000000000006 0.12101500000000003 17.970060000000004 15.689580000000001 0.090850000000000014 21.044795000000004 25.233865000000005 17.051465000000004 -0.059174999999999998 1.0450000000000002 18.038410000000002 0.80500000000000016 0.55736500000000011 0.39849000000000007 -0.30215499999999995 210.50000000000003 3.3550000000000004 30.698540000000005 0.48500000000000004 0.40017000000000008 57.278750000000009 56.716300000000011 0.12873500000000002
decision_type=2 2 2 2 2 2 2 2 2 2 2 2 2 2 2 2 2 2 2 2 2 2 2 2 2 2 2 2 2 2
left_child=2 3 -1 -2 11 7 -7 8 14 10 -8 -3 -13 -5 15 -6 -17 -16 22 20 21 -20 -10 26 25 -25 27 29 -28 -24
right_child=1 4 -4 13 5 6 9 -9 18 -11 -12 12 -14 -15 17 16 -18 -19 19 -21 -22 -23 23 24 -26 -27 28 -29 -30 -31
leaf_value=-0.011154587279758746 0.0049410123507764017 -0.0064780625790048915 -0.0020173635776573498 0.020685003697872163 -0.017350252140767693 -0.00056211284494825777 0.062866523649011338 -0.056985430043334 0.10397121183135932 0.030319700793124838 -0.062259293648671235 0.04014699605181285 0.0087143953402974098 0.15646834563463929 -0.033853019330952618 0.043641309238996152 0.13605472729415508 0.020051051369460574 0.14597467988390814 0.13170369889806299 -0.0081461570197434146 0.051836042415611287 0.074320488729897674 0.096924312010274405 -0.035798088574539061 0.015184751023416935 0.12962019979953765 0.096901374545536545 0.0057371602608607374 0.011042058352974761
leaf_weight=10318 5274 531 13718 20 41 707 28 26 34 594 58 282 766 20 74 144 37 907 33 34 66 352 51 112 23 46 35 38 26 687
leaf_count=10318 5274 531 13718 20 41 707 28 26 34 594 58 282 766 20 74 144 37 907 33 34 66 352 51 112 23 46 35 38 26 687
internal_value=8.47624e-05 0.013194 -0.00593972 0.00557056 0.0202615 0.0244599 0.0113639 0.0310269 0.031862 0.0237634 -0.0215207 0.00921902 0.0171724 0.0885767 0.0218522 0.0477793 0.0625324 0.0159849 0.0396967 0.0556778 0.0499464 0.0599051 0.0323289 0.0299362 0.0592854 0.0731267 0.0235894 0.0194053 0.0768176 0.015415
internal_weight=35082 11046 24036 5314 5732 4153 1387 2766 2740 680 86 1579 1048 40 1203 222 181 981 1537 485 451 385 1052 1018 181 158 837 776 61 738
internal_count=35082 11046 24036 5314 5732 4153 1387 2766 2740 680 86 1579 1048 40 1203 222 181 981 1537 485 451 385 1052 1018 181 158 837 776 61 738
is_linear=0
shrinkage=0.05


Tree=34
num_leaves=31
num_cat=0
split_feature=2 2 7 7 7 6 5 8 6 3 5 9 16 10 8 2 2 1 5 8 6 8 9 5 1 8 3 6 2 5
split_gain=1000.2 216.344 212.667 199.084 134.37 100.441 107.484 92.63 150.994 80.3138 79.6698 79.2852 92.5958 101.839 120.057 99.6593 105.727 93.427 65.1772 75.3828 71.4426 103.364 85.1196 63.2505 71.5433 88.416 65.7805 90.0702 89.5121 64.2046
threshold=0.070550000000000015 0.14395000000000002 0.045000000000000005 0.075000000000000025 0.095000000000000015 463.50000000000006 61.628320000000009 2.3050000000000002 1066.5000000000002 1.7956050000000001 54.193125000000002 1.885 9.5000000000000018 2.4500000000000006 3.8050000000000002 0.10125000000000002 0.11815000000000002 25.774290000000004 41.832045000000008 6.5450000000000008 1066.5000000000002 4.5050000000000008 0.36500000000000005 59.09537000000001 15.252265000000003 4.1550000000000011 0.32947500000000002 921.50000000000011 0.10285000000000001 44.557985000000009
decision_type=2 2 2 2 2 2 2 2 2 2 2 2 2 2 2 2 2 2 2 2 2 2 2 2 2 2 2 2 2 2
left_child=3 2 -2 -1 7 -5 -7 8 10 -3 -4 12 13 14 -9 17 -17 -16 -14 20 23 22 -22 24 -20 26 27 -26 29 -28
right_child=1 9 4 5 -6 6 -8 11 -10 -11 -12 -13 18 -15 15 16 -18 -19 19 -21 21 -23 -24 -25 25 -27 28 -29 -30 -31
leaf_value=-0.0088830312268438332 0.003238759339051172 0.032635151377862916 0.019564290896256491 -0.0010819151832200651 -0.0032974919205949593 0.023355376427546922 -0.042855057659656255 0.043706626893645781 0.14474185686558486 -0.033131955455367762 -0.0029633847206061042 -0.010774613275296158 0.0075767098034854041 -0.049062437493176687 -0.0019367705600766038 0.24072741710621381 0.085554262002309173 0.1364050767991854 -0.02566950223766841 -0.042607768841328164 0.11178836104544727 0.18202574461698534 -0.030734042860567568 0.0058561682809404169 0.035068013378391279 0.10128463665481474 0.06347531989216805 -0.070941039352189927 0.028112835254934101 0.18596747912790465
leaf_weight=15949 5394 1411 1346 7300 617 720 67 208 22 48 554 108 313 21 26 23 21 23 39 31 22 20 20 172 437 61 20 21 45 23
leaf_count=15949 5394 1411 1346 7300 617 720 67 208 22 48 554 108 313 21 26 23 21 23 39 31 22 20 20 172 437 61 20 21 45 23
internal_value=8.05243e-05 0.0125343 0.00980452 -0.00564274 0.0182509 0.000747694 0.0177187 0.0219689 0.0145037 0.0304715 0.0129957 0.0306436 0.033537 0.0573944 0.0648216 0.112047 0.166668 0.0629992 0.0272607 0.0340238 0.0367233 0.0884706 0.0439205 0.0328011 0.0399753 0.044193 0.0378146 0.0302073 0.0774072 0.128994
internal_weight=35082 11046 9587 24036 4193 8087 787 3576 1922 1459 1900 1654 1546 322 301 93 44 49 1224 911 880 62 42 818 646 607 546 458 88 43
internal_count=35082 11046 9587 24036 4193 8087 787 3576 1922 1459 1900 1654 1546 322 301 93 44 49 1224 911 880 62 42 818 646 607 546 458 88 43
is_linear=0
shrinkage=0.05


Tree=35
num_leaves=31
num_cat=0
